{"type":"LSTM","options":{"inputSize":48,"inputRange":48,"hiddenLayers":[20,20],"outputSize":48,"decayRate":0.999,"smoothEps":1e-8,"regc":0.000001,"clipval":5,"maxPredictionLength":100,"dataFormatter":{"indexTable":{"0":39,"1":5,"F":0,"r":1,"a":2,"n":3,"k":4,"L":6,"e":7,"o":8,"E":9,"x":10,"u":11,"s":12,"i":13,"A":14,"m":15,"y":16,"C":17,"h":18,"'":19,"S":20,"l":21,"v":22,"T":23,"N":24,"p":25,"d":26,"I":27,"f":28,"t":29,"H":30,"g":31,"b":32,"j":33,"M":34,"B":35,"c":36,"w":37,"J":38,"D":40,"R":41,"O":42,"G":43,"P":44,"stop-input":45,"start-output":46,"unrecognized":47},"characterTable":{"0":"F","1":"r","2":"a","3":"n","4":"k","5":"1","6":"L","7":"e","8":"o","9":"E","10":"x","11":"u","12":"s","13":"i","14":"A","15":"m","16":"y","17":"C","18":"h","19":"'","20":"S","21":"l","22":"v","23":"T","24":"N","25":"p","26":"d","27":"I","28":"f","29":"t","30":"H","31":"g","32":"b","33":"j","34":"M","35":"B","36":"c","37":"w","38":"J","39":"0","40":"D","41":"R","42":"O","43":"G","44":"P","45":null,"46":null,"47":null},"values":[{"input":"Franka","output":1},{"input":"Leone","output":1},{"input":"Exusiai","output":1},{"input":"Amiya","output":1},{"input":"Ch'en","output":1},{"input":"SilverAsh","output":1},{"input":"Texas","output":1},{"input":"Saria","output":1},{"input":"Nearl","output":1},{"input":"Lappland","output":1},{"input":"Ifrit","output":1},{"input":"Hoshiguma","output":1},{"input":"Liskarm","output":1},{"input":"Skadi","output":1},{"input":"Ceobe","output":1},{"input":"Frostleaf","output":1},{"input":"Eyjafjalla","output":1},{"input":"Melantha","output":1},{"input":"Bibeak","output":1},{"input":"Manticore","output":1},{"input":"Sussurro","output":1},{"input":"Firewatch","output":1},{"input":"Scavenger","output":1},{"input":"Bison","output":1},{"input":"John","output":0},{"input":"Smith","output":0},{"input":"Lorem","output":0},{"input":"Ipsum","output":0},{"input":"Michael","output":0},{"input":"Sarah","output":0},{"input":"David","output":0},{"input":"Alice","output":0},{"input":"Bob","output":0},{"input":"Test","output":0},{"input":"Dummy","output":0},{"input":"Example","output":0},{"input":"Random","output":0},{"input":"Operator","output":0},{"input":"Character","output":0},{"input":"Guide","output":0},{"input":"Tutorial","output":0},{"input":"Patch","output":0}],"characters":["F","r","a","n","k","1","L","e","o","E","x","u","s","i","A","m","y","C","h","'","S","l","v","T","N","p","d","I","f","t","H","g","b","j","M","B","c","w","J","0","D","R","O","G","P","stop-input","start-output","unrecognized"],"specialIndexes":[45,46,47]}},"trainOpts":{"iterations":3000,"errorThresh":0.01,"log":true,"logPeriod":100,"learningRate":0.01,"callbackPeriod":10,"timeout":"Infinity","momentum":0.1},"input":{"rows":49,"columns":48,"weights":[2.092836380004883,-0.24432380497455597,0.0898832455277443,0.47649747133255005,1.6878151893615723,-2.3178136348724365,-0.38332095742225647,-0.881125807762146,0.8250554800033569,0.5344502329826355,-0.24786819517612457,-0.2529152035713196,0.5970456600189209,-2.2465593814849854,0.11461135745048523,1.5618476867675781,0.8179493546485901,1.3644614219665527,0.35772550106048584,0.047115981578826904,-1.0970569849014282,-0.2301754355430603,-1.7490383386611938,-1.367411494255066,0.7259972095489502,0.4562946856021881,-0.20440258085727692,-1.2421408891677856,0.7805711030960083,0.010428852401673794,-0.05147343873977661,0.003909730352461338,-0.7891203165054321,-0.04515199735760689,-0.800837516784668,-1.4880989789962769,-0.1852693408727646,1.6220225095748901,2.094510793685913,-1.3128259181976318,0.6941681504249573,-0.38256844878196716,-0.6560710668563843,-0.6290550827980042,1.1391412019729614,0.6495327949523926,-0.0947359949350357,1.9101449251174927,-6.497387409210205,1.887068510055542,8.46195125579834,-3.573056221008301,-2.159372091293335,1.1326048374176025,8.592862129211426,0.9020779728889465,1.2216464281082153,-2.676625967025757,1.8802775144577026,-2.2507710456848145,-4.6925368309021,2.294729709625244,2.1168575286865234,-2.0411601066589355,-7.2148847579956055,-2.2775845527648926,3.468123435974121,1.7500885725021362,-0.9013643264770508,10.065890312194824,-4.619995594024658,-2.999763011932373,-0.05561688542366028,-8.776073455810547,-14.377490043640137,-2.611295461654663,5.908225059509277,10.277273178100586,0.18970690667629242,6.549888610839844,-0.007333793677389622,-3.1270344257354736,-0.30746161937713623,-1.784908413887024,-2.9693169593811035,-0.5526770949363708,4.278924465179443,-1.746482014656067,8.992266654968262,-2.6950314044952393,-1.129858136177063,2.541088104248047,-4.505899906158447,-2.5922017097473145,-3.7175097465515137,-2.32869553565979,1.4857630729675293,2.2156195640563965,4.562755584716797,-4.090489864349365,-1.716536521911621,-2.129911422729492,-1.3924100399017334,-2.845513343811035,-0.4296475052833557,1.0122941732406616,-1.954973816871643,-8.153007507324219,-2.461867570877075,0.5995349884033203,0.8859559297561646,0.4761226773262024,2.4734599590301514,-3.071997880935669,5.619823932647705,2.5274338722229004,-0.8431407809257507,-0.6715788841247559,2.208791494369507,2.7318172454833984,0.5685058236122131,-2.2129712104797363,-3.8659861087799072,4.267313003540039,6.424264907836914,3.3252289295196533,6.214667797088623,2.9281272888183594,-0.9530118107795715,-2.6345341205596924,-3.41886568069458,1.0827319622039795,-3.156844139099121,-1.137273907661438,-1.7609654664993286,-0.7459893226623535,5.819459915161133,-2.002345561981201,2.5285980701446533,-0.8982570767402649,6.823587417602539,-3.366647243499756,-2.3980956077575684,0.27095532417297363,0.8383454084396362,0.253923237323761,0.8683632016181946,-0.08672493696212769,0.9326279163360596,-0.24597114324569702,-0.09594626724720001,3.1409831047058105,4.409734725952148,0.7974445819854736,1.8995386362075806,1.183700680732727,0.14652986824512482,-0.7156769037246704,-2.5104711055755615,0.10190634429454803,-0.47904956340789795,0.025375889614224434,-3.190959930419922,1.248855710029602,0.09308074414730072,-0.3844236731529236,-9.304211616516113,2.64335560798645,-0.5050237774848938,-0.6625068783760071,-0.15776145458221436,-2.9988396167755127,-2.846846342086792,-1.938522219657898,-2.6574490070343018,-2.2076263427734375,0.9501409530639648,-0.8002932667732239,2.6079463958740234,-3.4620840549468994,2.7005057334899902,-0.05744084715843201,2.891202688217163,-7.0470805168151855,-0.14876805245876312,1.7929167747497559,-1.5252588987350464,-0.7118958234786987,-5.0257439613342285,-0.9842180609703064,1.6856156587600708,-0.03494609147310257,0.22180718183517456,2.67922043800354,8.164712905883789,2.0998430252075195,-0.49180901050567627,0.6395055651664734,2.312119245529175,-2.0547194480895996,5.002577781677246,3.5578203201293945,0.2873888313770294,-1.1131260395050049,-2.4778008460998535,2.6234934329986572,1.8351103067398071,-2.96771240234375,-3.3257040977478027,-2.9840221405029297,8.063504219055176,3.4517221450805664,-0.08294830471277237,1.7361410856246948,-4.4492316246032715,0.22596478462219238,5.327147483825684,-2.979412317276001,-7.131102085113525,-2.6960837841033936,0.13839204609394073,3.528782367706299,0.05017627403140068,4.5941338539123535,-1.4118974208831787,-5.027266502380371,-1.7043644189834595,-2.4828429222106934,-2.180713176727295,-1.3763349056243896,3.295360803604126,-3.0772883892059326,5.160055637359619,-2.643677234649658,-1.0153406858444214,3.896162986755371,-2.4673142433166504,-1.8706080913543701,-2.1763978004455566,-3.0744311809539795,-5.8978166580200195,8.306163787841797,-0.477912575006485,-6.802440643310547,-10.104290962219238,7.052887439727783,7.0507354736328125,9.138121604919434,-1.818227767944336,11.172237396240234,11.092759132385254,-15.724727630615234,-7.749721527099609,7.441471576690674,2.9398465156555176,-6.6499176025390625,-2.0224151611328125,-10.364595413208008,6.337270736694336,-6.579004764556885,-6.017477035522461,2.8757779598236084,6.7850518226623535,8.365468978881836,3.8739593029022217,-3.381260871887207,-1.6959469318389893,3.3098042011260986,-5.95654821395874,8.58059310913086,-2.103801727294922,3.5607008934020996,4.563840866088867,6.095861434936523,3.974392890930176,1.4467756748199463,-10.036803245544434,-5.399251461029053,-8.670401573181152,2.9811811447143555,4.955922603607178,-7.763636589050293,6.1524658203125,18.156280517578125,-0.031268633902072906,-7.384423732757568,-2.2605533599853516,0.7465990781784058,1.7301387786865234,-0.09976677596569061,1.0558398962020874,0.8492520451545715,-0.49399533867836,0.04445364326238632,1.146177053451538,-1.4849032163619995,-1.1111278533935547,1.9151796102523804,0.9637948870658875,1.3900578022003174,-1.233274221420288,0.9203689098358154,0.21335408091545105,-0.8396109342575073,1.4554657936096191,-0.3876575231552124,-1.5451358556747437,2.4652204513549805,-0.4645361006259918,-2.511542320251465,-0.05791069567203522,1.9631524085998535,0.6218525767326355,-1.750265121459961,0.1878502368927002,0.7058084607124329,0.3222304880619049,-3.897209644317627,2.2568509578704834,-0.9184584617614746,0.3047425150871277,-1.52415132522583,-0.3339063227176666,0.3804416358470917,-1.7951809167861938,-1.6172313690185547,1.8135887384414673,1.283517599105835,-1.5420188903808594,-0.2897324860095978,-1.3263158798217773,0.6858707070350647,-0.42783182859420776,-1.99824059009552,2.826673746109009,-0.6490336060523987,-4.998234272003174,11.764067649841309,12.412569999694824,2.677968978881836,-3.626976728439331,9.891802787780762,9.421523094177246,-5.388245582580566,0.0889124721288681,0.42880678176879883,-1.1456080675125122,4.134439945220947,-9.623724937438965,6.9702677726745605,3.227539300918579,-14.53107738494873,-3.135181188583374,-3.6465611457824707,2.5753417015075684,6.979491233825684,9.99211597442627,-1.4116777181625366,-2.371785879135132,-0.8948125839233398,5.189931392669678,-9.916266441345215,-3.3805267810821533,1.2532684803009033,-1.8202199935913086,0.5457333326339722,10.059674263000488,1.7675504684448242,-5.233951091766357,-1.9915674924850464,-2.344106912612915,-2.043250799179077,-6.493360996246338,-5.455345630645752,-1.5904371738433838,3.303765296936035,1.541364312171936,-3.82816481590271,-4.676014423370361,5.9877142906188965,1.4051430225372314,-7.360069274902344,0.8996084928512573,-4.525325298309326,0.4375496506690979,-2.03886342048645,0.1715109944343567,-0.10443724691867828,1.9981529712677002,-2.9738855361938477,-2.008111000061035,-1.8451471328735352,2.774402379989624,-2.10148286819458,-3.943912982940674,2.571000576019287,2.085480213165283,-2.0185112953186035,-2.2835371494293213,2.6632697582244873,0.28583037853240967,1.4744946956634521,2.488797426223755,-1.9329371452331543,-1.796050786972046,0.1915399581193924,-1.75761079788208,-1.705981731414795,0.4213234782218933,1.5281118154525757,-1.6677913665771484,-2.0774314403533936,3.14473032951355,-0.25834065675735474,0.4847016930580139,-1.2377734184265137,0.11786015331745148,-0.5671587586402893,-0.880556046962738,-3.2285125255584717,1.135706901550293,1.9410544633865356,1.5881768465042114,-1.4956307411193848,0.20027390122413635,1.8990898132324219,-1.1725748777389526,-5.995525360107422,1.8892184495925903,1.7418805360794067,-3.2080020904541016,1.592458963394165,3.465151309967041,1.9643032550811768,-4.5178093910217285,0.6274324059486389,1.4672012329101562,1.614158272743225,-1.7996224164962769,3.804016590118408,0.9845519065856934,-0.03630024194717407,3.694845676422119,5.5678606033325195,-0.2851029932498932,-2.164022207260132,6.989737033843994,2.3055334091186523,-2.0989131927490234,-0.3183629810810089,-1.825052261352539,0.48275887966156006,0.7168663740158081,3.7191340923309326,-3.239351511001587,-2.1509149074554443,2.172412157058716,0.7617318034172058,-3.2802553176879883,-2.419570207595825,-0.24431371688842773,3.801642894744873,-1.487021565437317,6.083006858825684,-1.7039766311645508,1.3349647521972656,0.4762905240058899,-1.9713099002838135,0.042966149747371674,-0.10949309915304184,2.2752463817596436,-0.428615003824234,3.388449192047119,-2.185011863708496,-2.6235833168029785,1.028023600578308,-3.550842761993408,1.5272085666656494,0.577140748500824,1.456183671951294,5.834010124206543,-3.6759228706359863,-5.8688154220581055,1.2685694694519043,2.334186553955078,-2.2298293113708496,-2.999128818511963,7.078774452209473,-3.2373316287994385,9.91957950592041,10.920181274414062,0.48275962471961975,7.1916303634643555,-5.58073616027832,2.7584521770477295,2.2263360023498535,-3.624162197113037,-1.4645451307296753,-9.836387634277344,-0.18390828371047974,-5.204280376434326,-3.9522287845611572,3.384593963623047,4.925400257110596,-7.567044734954834,-2.373410701751709,2.4013071060180664,1.358647108078003,-4.93714714050293,4.650315284729004,-5.248664379119873,-2.939455270767212,15.739108085632324,4.004207611083984,12.802265167236328,0.2861659824848175,3.505574941635132,6.07014274597168,-2.4339592456817627,3.403170108795166,-2.7931339740753174,-3.3179543018341064,1.9181933403015137,5.0549211502075195,-16.273603439331055,6.901222229003906,9.520718574523926,1.0086071491241455,-4.311197280883789,3.0379514694213867,-0.8395997881889343,1.0819447040557861,-17.933645248413086,-2.12835693359375,9.771926879882812,0.49241942167282104,5.695742130279541,-6.423645973205566,-8.36848258972168,4.579997539520264,-2.492767095565796,-1.2407619953155518,12.569137573242188,-0.6769586205482483,3.4459726810455322,1.3594279289245605,12.893162727355957,11.241809844970703,-1.6838277578353882,7.432353973388672,-1.4753469228744507,3.898933172225952,7.939682960510254,-6.3849873542785645,1.4744188785552979,-6.091476917266846,10.16801929473877,1.9367672204971313,9.989330291748047,15.026214599609375,-4.381807804107666,-1.7242759466171265,-4.792375564575195,-3.69228458404541,-16.136043548583984,-9.007064819335938,2.2714684009552,3.583690643310547,15.503254890441895,-4.709453582763672,6.279733657836914,2.933958053588867,10.064495086669922,-2.1211912631988525,-2.4818074703216553,-3.1889994144439697,4.248447895050049,-1.0503565073013306,-2.658034563064575,2.5989320278167725,0.6742318868637085,-0.04653073474764824,-1.422568678855896,1.1675978899002075,3.4641923904418945,-0.39470455050468445,-0.8297503590583801,3.5028557777404785,-0.7766079306602478,-1.624178409576416,3.1759090423583984,1.9838236570358276,-0.5732814073562622,0.7348880171775818,2.200429677963257,-0.6042925715446472,-1.7528867721557617,2.0771539211273193,-4.197164535522461,-3.065706968307495,-0.8780348300933838,0.9478753805160522,-2.855081796646118,-2.133545160293579,0.44584760069847107,1.9867212772369385,-2.266674041748047,3.110213041305542,-0.19914209842681885,0.8340502977371216,0.8440601229667664,-3.410487651824951,2.345463275909424,0.9021570682525635,2.9021990299224854,-3.50604510307312,3.189669609069824,-3.0776922702789307,-4.311160087585449,-0.7972761392593384,1.4371516704559326,2.255154609680176,0.09104999899864197,2.1434218883514404,-0.7780441045761108,-0.5180483460426331,1.38498854637146,-3.660468101501465,2.1084861755371094,-7.201135635375977,1.5369420051574707,-1.6897526979446411,0.35840049386024475,0.8492326140403748,1.4926974773406982,-6.857591152191162,-0.056476254016160965,-6.3450236320495605,0.8358661532402039,8.653278350830078,-0.6930161118507385,5.678735733032227,0.6799460649490356,-5.893167495727539,-6.40424108505249,1.112639307975769,-0.538143515586853,2.982656240463257,-1.7489792108535767,-3.2248969078063965,-2.643742322921753,-1.3500769138336182,1.1783632040023804,2.5474870204925537,-0.17900224030017853,0.6015701293945312,1.0654369592666626,7.464672565460205,5.24327278137207,-0.2582364082336426,-3.009423017501831,4.788349151611328,3.206866502761841,0.3512078523635864,1.2398595809936523,-2.903484344482422,5.250776290893555,0.0985867828130722,-1.2501152753829956,3.269787549972534,-4.65095329284668,6.8891215324401855,2.285891532897949,-3.1109530925750732,3.211629867553711,0.11252178996801376,1.857977271080017,-3.3467302322387695,-1.7489674091339111,-0.3642643392086029,0.04990728199481964,1.8638132810592651,-0.12089040130376816,-2.10550594329834,1.0225403308868408,-2.9102022647857666,1.0501526594161987,1.4799964427947998,1.1228724718093872,2.197878837585449,1.0721899271011353,-1.6016074419021606,-3.765096426010132,0.11649622023105621,-3.0732555389404297,-1.9835261106491089,-0.30515459179878235,0.8922427296638489,0.39542630314826965,-1.8436530828475952,0.5155734419822693,0.3792411983013153,1.2242034673690796,1.2301183938980103,-0.01985657587647438,2.19041109085083,-0.5890922546386719,-2.3745479583740234,2.759516954421997,3.0241000652313232,3.298152208328247,-2.432509660720825,0.10437265038490295,1.446199893951416,-2.129791259765625,-3.0791471004486084,1.451499342918396,-0.19302760064601898,-0.7960959672927856,1.257216453552246,1.999924898147583,1.9335007667541504,-4.188626766204834,0.8651396036148071,5.2496562004089355,-4.4599223136901855,-3.0265302658081055,3.6443960666656494,0.6795146465301514,1.3104315996170044,-0.055338967591524124,0.652728796005249,0.9611504673957825,-4.89420223236084,6.880842208862305,2.1614723205566406,-2.259427547454834,4.776835918426514,2.332124710083008,-2.651810884475708,-4.4243879318237305,6.065981388092041,-0.6327710747718811,-0.8022419214248657,-1.7249399423599243,2.98462176322937,-2.9933886528015137,0.44108688831329346,2.5872907638549805,3.9466309547424316,-2.9981977939605713,7.29865026473999,0.716406524181366,0.06235615164041519,2.517042398452759,-0.708998441696167,5.77218770980835,4.148085594177246,0.2191358208656311,-1.1812937259674072,2.5800318717956543,-0.024516228586435318,0.12027324736118317,2.9719748497009277,2.7495179176330566,2.5940520763397217,1.453568458557129,5.6095404624938965,3.2609729766845703,-0.12792089581489563,-5.154574394226074,1.3849300146102905,-0.12235185503959656,1.8846880197525024,-2.2344350814819336,0.8471943140029907,-6.158717632293701,-0.14111116528511047,1.3352901935577393,-3.573227882385254,-0.4088192880153656,-0.8189665675163269,-0.13016967475414276,-2.057420492172241,5.363768100738525,1.449802041053772,0.2828497290611267,1.6777657270431519,1.0427154302597046,1.6801496744155884,2.309964418411255,3.343547821044922,1.781285047531128,2.7173101902008057,5.8975443840026855,4.48125696182251,-4.5323100090026855,-5.6856513023376465,2.5141854286193848,1.5803264379501343,-1.2326027154922485,1.4143295288085938,1.111586093902588,5.560510158538818,-0.8050411343574524,-0.09586489200592041,-1.5837234258651733,4.341332912445068,-0.7038642168045044,0.7316258549690247,2.2536680698394775,0.3950413465499878,-0.80140221118927,3.4998581409454346,1.367889404296875,-1.0530167818069458,2.2108757495880127,-5.59829568862915,-9.322609901428223,-1.2854706048965454,4.749965667724609,-4.932079792022705,4.295048713684082,6.574937343597412,-5.152671813964844,-5.760332107543945,0.33604785799980164,-6.743075370788574,1.5204358100891113,-6.897911071777344,-4.285843372344971,1.9399855136871338,9.176355361938477,1.0521272420883179,-4.233882904052734,0.9149062037467957,-9.151094436645508,-3.2043657302856445,6.414105415344238,-0.6094768643379211,-0.303810715675354,8.571775436401367,8.401612281799316,-0.08915191143751144,-2.930650472640991,-6.251913070678711,-5.791965007781982,-3.3776469230651855,3.9665894508361816,7.797678470611572,6.276577949523926,0.8842467069625854,1.3369122743606567,6.217556953430176,-4.32063627243042,3.195256471633911,-5.493162155151367,10.044462203979492,-2.137669563293457,-0.10215692967176437,-5.794065952301025,10.113800048828125,1.359858512878418,13.305187225341797,-2.9737370014190674,-1.6285200119018555,-6.208887577056885,-6.753623008728027,-0.9620710611343384,5.023592948913574,6.061338901519775,4.668785095214844,-11.770528793334961,-4.8051438331604,3.6856229305267334,-1.3542993068695068,-4.144543647766113,2.1847755908966064,2.6473748683929443,-0.15853959321975708,-2.950634717941284,-2.578136444091797,2.0689423084259033,-9.465903282165527,7.12362003326416,4.917239665985107,16.32025718688965,1.4634133577346802,-8.936420440673828,5.331852436065674,3.5739781856536865,6.276974201202393,-1.3578741550445557,-4.226865768432617,5.173726558685303,-4.178071022033691,14.343849182128906,11.840556144714355,6.57628059387207,10.668468475341797,6.200704574584961,-4.1096577644348145,-7.377674579620361,8.786674499511719,-1.8235642910003662,0.7203369140625,5.396773815155029,8.252723693847656,-3.102520704269409,15.467706680297852,2.9970855712890625,-3.1501762866973877,-0.8568882346153259,-0.29590684175491333,-1.4941099882125854,5.00921106338501,1.5136610269546509,1.1679534912109375,-0.922150731086731,2.4531595706939697,1.5655702352523804,-0.009901604615151882,-0.8230715394020081,6.685144901275635,0.16106757521629333,-0.05374655872583389,-2.2923641204833984,1.5214368104934692,-2.582246780395508,-1.9669413566589355,-9.414568901062012,1.3312023878097534,3.072113037109375,-2.997547149658203,-2.303555965423584,1.0767825841903687,-0.19270974397659302,0.5467036366462708,1.6219319105148315,-1.1040499210357666,-4.165205955505371,-1.414367437362671,-5.002384185791016,-4.368438720703125,-0.7844455242156982,-1.4696345329284668,-0.45471659302711487,-1.16881263256073,4.191361427307129,0.05518200248479843,1.4348210096359253,-4.116891384124756,-8.02297592163086,1.7313686609268188,-2.9503731727600098,-2.4664535522460938,-6.845202922821045,1.0013315677642822,-1.5843088626861572,1.7547187805175781,-3.6210837364196777,-5.5567097663879395,12.743579864501953,-13.057962417602539,-2.8457860946655273,8.473657608032227,-3.0306944847106934,4.336058139801025,-22.185596466064453,10.99078369140625,10.839104652404785,-4.828039646148682,0.5076984763145447,-1.1666207313537598,-22.699665069580078,-0.15792855620384216,-22.71820640563965,-26.576725006103516,-10.14979076385498,-7.7818474769592285,0.6472248435020447,-18.805065155029297,3.492417812347412,3.5455827713012695,-6.20888090133667,-10.108030319213867,-17.3321475982666,4.803730487823486,-8.90548324584961,-7.118259429931641,4.569431304931641,-21.51972198486328,6.11967658996582,2.840479612350464,13.010428428649902,8.64706039428711,8.472432136535645,-1.9031565189361572,9.429533958435059,11.75178050994873,-12.267387390136719,-8.900890350341797,-6.955356597900391,-17.07649803161621,-10.21668815612793,6.11806058883667,18.51978874206543,-6.723799705505371,1.048912763595581,-3.377364158630371,-0.4743734896183014,4.166141510009766,2.006389617919922,0.3938133418560028,-2.840587854385376,0.2997722625732422,4.066988945007324,0.6752930283546448,0.4468470513820648,-1.9909220933914185,3.421999454498291,0.15122222900390625,2.9200942516326904,3.3259127140045166,0.9452143311500549,-2.095900297164917,-1.1141458749771118,-3.1031334400177,-2.1099064350128174,1.7644734382629395,-4.726954460144043,-2.196704149246216,0.7474159002304077,1.2416378259658813,-1.3001099824905396,-3.1532952785491943,1.495141625404358,1.9350664615631104,-2.5011370182037354,3.7172274589538574,-0.42266130447387695,0.6734647154808044,0.2597931921482086,-0.9283648729324341,2.873734474182129,0.0723700001835823,0.07937076687812805,-4.21014928817749,0.3209562599658966,0.6053802967071533,-0.9123857617378235,-2.2177231311798096,-0.7106582522392273,1.6209796667099,1.3011505603790283,3.533317804336548,1.0354443788528442,-4.040666580200195,0.5705261826515198,-3.3384203910827637,-0.8079376816749573,-4.060453414916992,-2.7837109565734863,0.8703956604003906,1.9362508058547974,8.668184280395508,0.8208518624305725,-0.6995174884796143,2.4501466751098633,-1.0305674076080322,-0.21860943734645844,3.143224000930786,-0.5189102292060852,1.2425949573516846,0.4399946331977844,-6.045642852783203,-4.736393928527832,0.9657661318778992,0.5177639722824097,0.7902100086212158,-5.475391864776611,-0.2627604901790619,-2.0258498191833496,-0.9475669860839844,-0.8036004304885864,1.8622461557388306,-2.0059351921081543,-0.6601701974868774,0.45103809237480164,3.146822929382324,3.2896950244903564,-0.7303937077522278,-2.0765252113342285,3.9967570304870605,0.37543168663978577,1.6441736221313477,1.1180763244628906,-2.8561604022979736,2.1140100955963135,-2.410449504852295,0.9130874872207642,-0.42300087213516235,3.002833604812622,2.6193723678588867,-9.771764755249023,7.946906089782715,6.019519805908203,-6.338238716125488,-3.9514636993408203,1.7550781965255737,-3.6246633529663086,-2.257145404815674,-13.785110473632812,9.955811500549316,13.456772804260254,-10.354493141174316,-6.6824774742126465,2.478764772415161,4.999381065368652,-5.2898054122924805,-3.546696186065674,-0.5776500701904297,8.3236083984375,0.34235185384750366,-3.2887728214263916,-3.4928858280181885,10.198148727416992,13.440560340881348,-3.3709065914154053,-2.6797332763671875,-1.0112309455871582,16.54267120361328,-5.28529691696167,-7.623200416564941,-0.38468673825263977,0.7960811257362366,4.826575756072998,-4.949477195739746,-4.852919578552246,5.5121049880981445,-2.271925210952759,2.0735342502593994,-9.074907302856445,6.6759209632873535,-6.26051139831543,-9.886363983154297,8.625734329223633,-3.5847697257995605,4.568498134613037,-3.421572685241699,7.475821495056152,-0.8875346779823303,4.143758296966553,-1.2036758661270142,-2.5837931632995605,-10.519377708435059,-6.277668476104736,-7.837401866912842,-0.5051119923591614,-10.077691078186035,-9.006196022033691,5.249407768249512,3.464536190032959,-10.194230079650879,-0.4604370594024658,-1.3249398469924927,-0.4958639442920685,2.7076618671417236,4.0207672119140625,3.4029998779296875,4.243978500366211,3.851835012435913,0.31769508123397827,-2.340344190597534,11.67679214477539,6.3957085609436035,0.8438420295715332,4.35746431350708,4.999665260314941,11.377670288085938,0.8364468812942505,-15.806788444519043,-1.109902262687683,1.7581300735473633,-8.81003475189209,4.637275218963623,1.2466864585876465,10.227479934692383,-7.155120849609375,1.17798912525177,-2.3576769828796387,12.806897163391113,2.7956161499023438,-16.64306640625,9.580204963684082,-2.2566099166870117,6.119939804077148,4.761982440948486,12.420177459716797,0.006613320671021938,5.1387152671813965,11.287992477416992,-8.709782600402832,-12.69243335723877,-2.5545387268066406,0.7414738535881042,8.203429222106934,-12.524969100952148,-6.125182151794434,5.708966255187988,9.090120315551758,0.1711191087961197,-14.651947021484375,-6.033302307128906,-25.028656005859375,-6.831335067749023,-13.771925926208496,12.064399719238281,-9.455096244812012,12.970536231994629,19.096298217773438,-3.3846933841705322,24.12926483154297,19.29558563232422,13.624333381652832,5.383559703826904,-0.12784543633460999,-5.541055202484131,-16.7774715423584,-2.6442558765411377,18.5045223236084,-10.231328010559082,5.41677188873291,-8.048871994018555,8.705390930175781,-3.8919906616210938,-14.668986320495605,-6.094138145446777,-8.843378067016602,24.908266067504883,-9.242128372192383,-0.16430474817752838,3.986048460006714,12.945831298828125,-18.32596778869629,1.292206048965454,11.644341468811035,-6.712959289550781,-2.8232901096343994,1.2262245416641235,3.3100497722625732,2.971745014190674,2.4077489376068115,-1.2761640548706055,3.0093703269958496,-8.413097381591797,-2.2414708137512207,-8.88644790649414,-9.390167236328125,-3.588690996170044,-1.8072137832641602,-1.1638474464416504,6.241138458251953,1.3626422882080078,4.159175872802734,0.4172191917896271,7.326437950134277,2.2860655784606934,-2.528552770614624,2.4122707843780518,-0.42557623982429504,-8.194531440734863,7.256968975067139,-0.7594652771949768,-4.776875972747803,3.080275774002075,13.052879333496094,4.697669506072998,2.4984285831451416,5.521069049835205,-7.166889667510986,-1.7767819166183472,-7.215654373168945,-0.5062670707702637,-2.2189574241638184,-1.104457139968872,2.295161008834839,-0.04059058800339699,7.365496635437012,-0.2872767746448517,-0.4245876669883728,-3.913332939147949,13.578509330749512,-3.2891952991485596,-7.739407539367676,1.7331926822662354,0.4359246492385864,-2.645617723464966,0.1522115170955658,0.6874576210975647,3.928769826889038,-3.828899621963501,-1.0096588134765625,-4.573695659637451,2.2578213214874268,-1.9797642230987549,-4.7761664390563965,1.5199143886566162,2.3152828216552734,-2.84596586227417,0.2515321671962738,2.3269410133361816,2.101715087890625,2.7231979370117188,3.5592446327209473,-2.2745518684387207,-3.055429458618164,0.5925925374031067,-1.9733120203018188,-2.3694238662719727,2.386070966720581,1.7191765308380127,-3.2442808151245117,-0.6157152652740479,2.519726276397705,2.4324288368225098,2.7903454303741455,0.7706958055496216,-2.3299307823181152,1.4103655815124512,-3.8812289237976074,-3.131086587905884,2.1752240657806396,2.7368035316467285,2.3242011070251465,-2.6367430686950684,1.6704431772232056,1.1559053659439087,-2.154705762863159,-2.442180633544922,4.8237714767456055,0.3089261054992676,-3.8820974826812744,3.6209230422973633,6.964603900909424,-3.2388226985931396,-6.636049270629883,8.089787483215332,7.435887336730957,-2.6881816387176514,-7.5628838539123535,5.022270202636719,-1.7792689800262451,2.4200568199157715,5.8940653800964355,1.9899314641952515,3.664029359817505,-3.6854097843170166,-10.021689414978027,5.0814642906188965,4.4184699058532715,4.150925159454346,-13.300100326538086,-2.0022871494293213,-4.3862199783325195,-1.6380153894424438,5.728048324584961,1.4516563415527344,-2.9821975231170654,6.626676559448242,6.637701511383057,7.861896514892578,-7.798579692840576,4.266600608825684,-16.418941497802734,-4.905927658081055,2.9821536540985107,2.821662664413452,5.465897560119629,4.430863857269287,4.865705966949463,3.862480401992798,-7.353391647338867,1.2911038398742676,-7.641030788421631,7.721920013427734,2.685154914855957,-5.8063249588012695,-2.4141321182250977,6.231234073638916,3.6057252883911133,7.964951515197754,-14.02646541595459,3.3807060718536377,-0.5383939146995544,-18.157808303833008,-7.980997562408447,-0.39357268810272217,11.326845169067383,-2.85038685798645,-12.619878768920898,4.506866455078125,1.7668414115905762,-8.7842435836792,-4.668118953704834,10.703719139099121,-4.034588813781738,-6.957118511199951,-6.024899005889893,-5.682973384857178,-3.373556137084961,4.882540702819824,2.0491549968719482,-5.88182258605957,10.84967041015625,14.361970901489258,-2.5701427459716797,-16.62792205810547,4.328213214874268,14.555521011352539,1.1615257263183594,-6.153778076171875,3.4323878288269043,-4.5501389503479,-2.0977888107299805,-4.979173183441162,-3.3680825233459473,13.622476577758789,-3.7452280521392822,-3.5227041244506836,-13.019954681396484,15.870903015136719,-3.6624958515167236,-6.878035068511963,5.942180633544922,4.286929130554199,2.4644391536712646,-11.27408504486084,11.014338493347168,-1.7615176439285278,0.5239792466163635,-5.992690086364746,-3.990419387817383,3.014009952545166,3.698383331298828,-1.9965057373046875,-7.080484867095947,-1.0675721168518066,0.8706101179122925,-2.5706326961517334,-2.702925682067871,2.6218793392181396,6.775754451751709,-3.063750743865967,-0.9947209358215332,7.669332504272461,1.699130892753601,0.9607203602790833,-1.150098204612732,-2.4344847202301025,0.5243281126022339,2.3150930404663086,-0.546777606010437,0.07738763093948364,0.9996308088302612,5.469453811645508,4.174920082092285,-1.9128328561782837,0.7622931599617004,4.644555568695068,-2.4553778171539307,-1.6558884382247925,-1.9515727758407593,3.58261775970459,-0.9146212935447693,-0.6067031025886536,1.9483990669250488,-0.7897251844406128,-2.7042195796966553,-0.15655401349067688,0.7258533835411072,0.23000667989253998,0.6854820251464844,-2.9117701053619385,2.2467644214630127,4.439620494842529,0.11958897113800049,6.008771896362305,-0.2964836657047272,10.709465980529785,-3.1136622428894043,-0.8647488355636597,-18.620229721069336,-3.575565814971924,-0.5613738894462585,5.217358589172363,11.557430267333984,-9.352275848388672,10.118233680725098,-7.247279167175293,-9.308331489562988,-8.858304023742676,21.686161041259766,-3.690303087234497,1.2088911533355713,-9.593531608581543,14.412863731384277,13.453757286071777,-0.6484583020210266,17.07554054260254,-1.4423973560333252,-13.180084228515625,8.31614875793457,-7.518673419952393,-1.3959940671920776,4.0104289054870605,13.244921684265137,10.839946746826172,14.59121322631836,21.805599212646484,1.6302382946014404,-4.9872002601623535,-24.834020614624023,-8.008853912353516,-26.158029556274414,-9.473729133605957,11.481316566467285,9.50351333618164,8.815875053405762,-6.618964672088623,6.765372276306152,2.4890236854553223,11.732521057128906,-8.626194953918457,-8.113831520080566,-3.8843019008636475,5.143080234527588,-6.321614742279053,3.6335363388061523,3.942692518234253,15.01876163482666,-0.8194260001182556,-9.5330810546875,-0.5400528907775879,0.7000032067298889,5.023303508758545,3.337676763534546,-0.11990278959274292,1.4892034530639648,-2.0547547340393066,3.945425033569336,3.913177728652954,5.362065315246582,0.9941756129264832,-6.501940727233887,2.6978797912597656,-7.831718921661377,-4.451159477233887,-5.615918159484863,-4.954153537750244,2.692638874053955,-4.6560893058776855,-2.2167160511016846,-7.544088363647461,-3.949089765548706,-1.8873119354248047,0.9161291122436523,6.414181232452393,2.6088104248046875,5.048595428466797,2.967073678970337,-1.795547366142273,2.0762274265289307,8.197493553161621,12.131326675415039,-1.2107765674591064,-4.330242156982422,4.1625142097473145,-11.925803184509277,-6.962837219238281,-5.6444268226623535,-1.8122050762176514,8.182409286499023,8.70772933959961,-1.3132729530334473,9.702205657958984,2.9164676666259766,-6.163755416870117,-8.427475929260254,6.308355331420898,7.766623020172119,0.31068772077560425,2.812541961669922,9.638235092163086,-2.306520938873291,-3.8929803371429443,-18.847558975219727,8.17284870147705,0.27377480268478394,-9.085884094238281,-11.53586196899414,-7.446567535400391,-0.9039332866668701,11.852402687072754,-1.0709037780761719,-1.5241494178771973,-0.6022790670394897,4.604780197143555,-10.088397026062012,1.303796648979187,-3.6443166732788086,-3.762601375579834,6.764603137969971,-2.1475744247436523,4.189305305480957,2.3008131980895996,6.212751865386963,-6.784862995147705,-0.1640092432498932,-1.2054994106292725,-19.07698631286621,-3.942629337310791,-1.1605141162872314,-1.3131070137023926,1.8662779331207275,-6.366071701049805,11.121685028076172,4.264893054962158,-3.5153095722198486,-5.604196071624756,-1.2266128063201904,-3.1930596828460693,-0.5114593505859375,-6.464146614074707,1.1048659086227417,-0.049641553312540054,6.304501533508301,-6.41718864440918,-6.208430290222168,-2.720994472503662,0.014765335246920586,3.9676766395568848,-7.488544464111328,0.6847069263458252,6.421345233917236,0.6717507839202881,-0.17541994154453278,6.429306507110596,6.626374244689941,6.541937828063965,8.429201126098633,-6.238286972045898,-6.871281623840332,-0.14919576048851013,0.15441225469112396,0.0890302062034607,0.9990605115890503,6.354349613189697,-2.8099896907806396,0.3983146548271179,7.166901111602783,0.44540196657180786,-5.8119215965271,0.23559409379959106,-0.9296338558197021,6.341280460357666,-2.6164488792419434,-0.16589246690273285,6.082335948944092,6.528594017028809,-0.20331643521785736,0.017700765281915665,0.48897334933280945,6.032849311828613,0.12335476279258728,-6.677780628204346,8.28848934173584,6.212491512298584,-8.068719863891602,6.494931221008301,-5.66121768951416,9.17142105102539,5.842737197875977,4.5565900802612305,-8.484435081481934,7.5534138679504395,6.1726765632629395,-1.8204602003097534,-0.2690441310405731,7.025790691375732,10.295955657958984,-5.5273847579956055,-9.455617904663086,9.22314453125,-1.1418659687042236,-11.546871185302734,2.631735324859619,-9.760129928588867,-2.4419918060302734,18.913671493530273,-7.454021453857422,-6.8753767013549805,2.6647539138793945,5.600567817687988,5.2515950202941895,-3.8291895389556885,-4.252427101135254,9.427703857421875,-6.570277690887451,-8.84941577911377,-8.227136611938477,0.17013204097747803,-0.33420154452323914,-7.522293567657471,-9.7306547164917,-0.6629834771156311,-8.226812362670898,-1.112602949142456,1.8212658166885376,1.7282390594482422,-2.459235429763794,-5.75961971282959,-1.7830989360809326,4.006130695343018,8.253642082214355,-9.32529354095459,10.438111305236816,7.929238796234131,-7.285338401794434,-1.4394772052764893,16.601287841796875,-0.4888398051261902,4.46984338760376,-9.125484466552734,0.09298006445169449,10.53341293334961,4.7580647468566895,7.183750629425049,13.196211814880371,-2.640265464782715,1.393200159072876,-10.676151275634766,-16.396060943603516,5.308762073516846,-7.157445907592773,2.0048346519470215,-6.334981918334961,-8.249800682067871,-10.210347175598145,-18.595428466796875,-3.5594100952148438,5.846115589141846,-6.886056900024414,-7.227441310882568,3.6531429290771484,-1.025722861289978,-11.36299991607666,-2.1451237201690674,-1.7119885683059692,-14.289578437805176,14.32017993927002,6.13132905960083,4.49477481842041,-5.601353645324707,4.950366973876953,12.002202987670898,1.2212433815002441,-0.029095042496919632,-3.0979838371276855,0.8138392567634583,-3.82248854637146,-0.6392237544059753,-2.3906617164611816,1.3208086490631104,6.548952102661133,8.709524154663086,-7.951488494873047,-0.2523708641529083,-0.11046366393566132,0.3368329405784607,1.814152717590332,-1.5593701601028442,0.45357373356819153,-1.0408865213394165,-1.4371767044067383,4.959208011627197,3.842860460281372,-7.757534503936768,-1.622765064239502,0.48331382870674133,0.010706906206905842,0.492353618144989,-6.546069622039795,1.7565112113952637,-6.856112480163574,4.520390033721924,1.0737589597702026,-1.4384198188781738,0.16636626422405243,9.34890079498291,-4.522641181945801,-0.5305795669555664,1.3852760791778564,2.6828856468200684,4.197909832000732,0.5603844523429871,-7.562353610992432,-1.1278095245361328,4.2637529373168945,-5.974674701690674,6.342215538024902,2.0291597843170166,-4.983311176300049,0.4388897120952606,-4.244434356689453,0.6957896947860718,-4.408133029937744,-6.544135570526123,4.970247268676758,3.5864484310150146,-5.258270740509033,-5.5772175788879395,7.694254398345947,0.9301252365112305,14.649456977844238,9.851792335510254,-18.397796630859375,4.641731262207031,-13.359021186828613,14.880340576171875,-15.378215789794922,0.15904730558395386,7.387352466583252,-5.301388263702393,3.3007309436798096,15.422900199890137,-8.542729377746582,9.869658470153809,16.675926208496094,-2.7235348224639893,9.434557914733887,-9.886935234069824,14.319402694702148,12.788405418395996,12.917414665222168,5.5830559730529785,-11.821547508239746,-25.361980438232422,1.943123459815979,2.6751415729522705,-1.7454010248184204,-7.326819896697998,14.61568546295166,-6.427171230316162,6.934708595275879,18.895668029785156,-12.618790626525879,-19.25121307373047,-29.50639533996582,-1.3891502618789673,-10.129302978515625,-9.3621826171875,13.581829071044922,-5.868430137634277,20.49321174621582,-1.6738606691360474,-2.2163608074188232,-10.402506828308105,30.436124801635742,-2.8389205932617188,-12.857961654663086,-9.09859561920166,9.732707977294922,-5.052928447723389,-9.169197082519531,5.777336120605469,17.25598907470703,-11.05386734008789,-5.284311771392822,1.400471806526184,7.551174640655518,1.139022946357727,4.590096473693848,-0.58782559633255,5.834509372711182,-7.728031635284424,12.191869735717773,8.142642974853516,-1.1552083492279053,11.586115837097168,7.7356767654418945,-6.6882524490356445,-8.352598190307617,11.12683391571045,-8.479560852050781,-10.746736526489258,-2.7574570178985596,11.118173599243164,-6.343717098236084,-13.386517524719238,9.019630432128906,1.6170626878738403,-2.489943027496338,11.358819961547852,0.390830397605896,6.372832298278809,0.9182518124580383,-6.82634162902832,3.800253391265869,10.977601051330566,9.095534324645996,-8.064894676208496,9.772041320800781,7.408320426940918,-5.3475542068481445,1.6204274892807007,1.201716423034668,4.213545799255371,-6.556661128997803,3.792642116546631,2.9253695011138916,-4.263970375061035,-0.1390646994113922,1.6969172954559326,4.309604644775391,-5.427707195281982,-2.0754153728485107,1.7249093055725098,3.4080820083618164,0.645740270614624,-1.4400970935821533,6.177109241485596,4.082095623016357,-4.7928948402404785,0.8864968419075012,4.459711074829102,1.0456100702285767,5.585966110229492,0.5029787421226501,-4.775846004486084,1.7342650890350342,0.07596872001886368,1.387189507484436,-1.581838607788086,-1.5349318981170654,2.567502021789551,2.5864028930664062,0.7427520751953125,1.1498112678527832,-3.1741600036621094,1.608980417251587,0.2804188132286072,0.6180270910263062,4.180034637451172,1.0097758769989014,1.3369855880737305,-0.1528814136981964,4.868463039398193,2.4362993240356445,1.3019238710403442,5.67228364944458,4.8437089920043945,-4.286635398864746,-2.233167886734009,-0.6911216974258423,4.303976058959961,1.3580471277236938,4.9530744552612305,9.929685592651367,-11.025359153747559,-10.626751899719238,10.280116081237793,1.336073398590088,-8.325766563415527,-16.956239700317383,-4.654860496520996,-6.841253757476807,-5.452847957611084,-1.112829566001892,3.500138282775879,8.492467880249023,-7.587120056152344,1.8401731252670288,8.3074951171875,3.7464399337768555,3.9423553943634033,-3.589759111404419,-10.673755645751953,-0.7074427008628845,-5.34517765045166,3.2627804279327393,-10.917317390441895,2.2872679233551025,4.369576454162598,5.910097599029541,3.483698844909668,-0.10983709245920181,1.3167465925216675,-3.60483980178833,-0.0030461789574474096,-9.033266067504883,3.029925584793091,-9.898763656616211,5.182010650634766,2.876405715942383,0.2100376933813095,2.139469623565674,4.9653215408325195,-4.4794230461120605,12.650558471679688,-9.857893943786621,-6.845008373260498,2.9724369049072266,8.244874954223633,-4.314284324645996,-0.7892588376998901,-7.001718521118164,10.034159660339355,2.719757080078125,-10.138137817382812,-12.228477478027344,20.175931930541992,7.3285441398620605,-28.974746704101562,-10.587090492248535,-3.1854233741760254,11.550111770629883,6.292962074279785,-7.883269786834717,21.366127014160156,-5.49661111831665,-21.371055603027344,5.1730265617370605,-14.832090377807617,2.324249505996704,13.563122749328613,23.66493797302246,0.3121965527534485,11.265459060668945,10.087137222290039,18.70879554748535,-14.060898780822754,7.114926338195801,16.107351303100586,-4.7114033699035645,-0.4081389009952545,21.808517456054688,2.4906351566314697,-19.413963317871094,4.818292140960693,-11.679131507873535,5.539790630340576,-9.88675308227539,-14.668469429016113,-9.379348754882812,6.2775397300720215,-5.890661239624023,0.9505318403244019,-6.881387233734131,7.788495063781738,-4.627966403961182,-4.96348237991333,-12.785734176635742,-17.67197608947754,0.6274333596229553,-4.7689948081970215,-3.3841140270233154,-3.5791213512420654,5.0945515632629395,-7.360527038574219,-17.14403533935547,4.3605756759643555,6.918368339538574,10.323389053344727,2.9955461025238037,13.185218811035156,14.354768753051758,-6.774701118469238,9.337602615356445,6.651025772094727,2.5489230155944824,8.309614181518555,-1.317010521888733,-8.019427299499512,-4.47952938079834,11.352246284484863,-1.3444432020187378,-10.336470603942871,1.3487107753753662,23.254013061523438,-6.118319034576416,-4.236802101135254,-1.5842642784118652,1.5069341659545898,-6.409255504608154,3.1995418071746826,3.349250555038452,8.272822380065918,-1.5320934057235718,-9.896355628967285,1.755578637123108,6.0268659591674805,4.201060771942139,-7.548578262329102,2.9213802814483643,9.04095458984375,-2.0009796619415283,-6.351306915283203,1.7213655710220337,15.294981956481934,-4.195634841918945,-5.635420322418213,-3.977290391921997,4.256337642669678,3.964974880218506,-3.7645480632781982,1.6604281663894653,-2.1816811561584473,4.644404411315918,-7.378954887390137,3.59584379196167,-10.859698295593262,-4.2677836418151855,3.856235980987549,-4.452010154724121,-2.076700210571289,3.544147491455078,-4.2899932861328125,-4.439672946929932,2.4864375591278076,12.073119163513184,5.019373416900635,4.101551055908203,3.452749252319336,0.9789005517959595,-0.8238328695297241,11.360478401184082,-4.252862930297852,-5.145654678344727,-1.0020660161972046,10.619415283203125,11.635760307312012,3.521784543991089,6.620774745941162,-11.392864227294922,-4.652173042297363,-11.632344245910645,-5.60654354095459,-4.249176502227783,-3.5593509674072266,3.5777394771575928,1.9856255054473877,11.14426326751709,-1.4669420719146729,-1.0120775699615479,4.100714683532715,10.469600677490234,-4.359870433807373,-11.28959846496582,-3.431036949157715,8.572847366333008,-0.6289814710617065,-9.749505043029785,10.778031349182129,2.0762522220611572,-2.0708565711975098,-11.502676963806152,1.406074047088623,8.348094940185547,-2.799043893814087,-3.197296380996704,4.323980331420898,-0.321000337600708,-5.449885845184326,7.147181034088135,2.5756728649139404,6.461946964263916,-0.14284397661685944,1.2012735605239868,0.10826018452644348,-5.368094444274902,6.717031002044678,-7.327517986297607,-6.099982261657715,-4.120574474334717,6.666583061218262,-11.351855278015137,-8.109847068786621,5.51801872253418,5.175089359283447,-2.250389337539673,2.0564475059509277,0.8373064994812012,2.1762471199035645,-2.819355010986328,-3.1855628490448,1.9255671501159668,2.1133100986480713,4.1015753746032715,-4.020504951477051,6.913695335388184,-4.421639442443848,-3.2113356590270996,-3.3437328338623047,3.2683331966400146,4.8556928634643555,-2.417635440826416,4.7299885749816895,1.3639898300170898,-0.14927642047405243,-1.6399482488632202,-0.07408542931079865,-1.5085200071334839,2.198244333267212,-0.17035871744155884,-0.5949463248252869,-2.397017002105713,-2.8797049522399902,-0.524528980255127,1.017792820930481,-0.4871573746204376,-0.3905888497829437,1.753050684928894,-1.9743468761444092,1.9840259552001953,-0.5998139381408691,-0.21543756127357483,1.0367263555526733,3.589181423187256,1.285940408706665,0.9161102175712585,-1.405305027961731,2.775390863418579,0.14433327317237854,-0.9324921369552612,-0.4297414720058441,0.6051726937294006,0.7191488742828369,2.124445676803589,1.4428319931030273,-2.4559171199798584,-0.32023268938064575,-2.160961389541626,0.6104930639266968,-2.010465145111084,-1.7289193868637085,-0.2781042456626892,1.7048789262771606,0.10693896561861038,1.3160629272460938,-1.4401696920394897,-0.5941588878631592,0.4378873109817505,0.670117199420929,-0.8363352417945862,-2.7133843898773193,1.7747584581375122,-0.3495461642742157,-0.8743628859519958,0.24511416256427765,1.4678062200546265,-1.711846947669983,0.3017784655094147,0.01273655891418457,1.0831241607666016,-1.037295937538147,-1.3786152601242065,0.7552015781402588,0.85179203748703,-3.1463820934295654,0.2318817675113678,0.6085895895957947,-0.9843170642852783,-0.16906815767288208,0.18281696736812592,-0.9131864309310913,-0.24583852291107178,0.11575818061828613,-2.9636263847351074,-2.7937729358673096,1.6213487386703491,-0.9718934893608093,-2.0448544025421143,-1.4483592510223389,0.12560440599918365,2.809406280517578,-0.40274348855018616,0.2834945321083069,-1.5960627794265747,0.5633416771888733,-0.6814364790916443,-2.8749630451202393,0.6828017234802246,0.8204247951507568,2.484051465988159,-1.8731744289398193,1.499533772468567,-0.7345441579818726,-2.3324368000030518,-1.5943307876586914,0.3176300525665283,0.4070900082588196,0.7451843619346619,0.5436754822731018,-0.016586890444159508,-0.06433259695768356,-0.06117668002843857,-0.05665513128042221,-0.0578666627407074,-0.003472155425697565,-0.007320738863199949,0.024526305496692657,0.0381225161254406,-0.05918489396572113,-0.015765542164444923,0.02619507722556591,0.018255943432450294,0.04150340333580971,0.02716781198978424,0.017542527988553047,0.014468781650066376,0.04482429474592209,0.012521275319159031,0.002400957979261875,0.034825801849365234,-0.021182119846343994,0.06366320699453354,0.06613022834062576,0.057000771164894104,0.006044406443834305,-0.03478533774614334,-0.00781866256147623,-0.06623879075050354,0.0305924154818058,-0.007511546835303307,-0.04172014072537422,-0.04918499290943146,-0.03966917470097542,0.035805314779281616,0.06638377904891968,0.004043250344693661,0.03677573800086975,-0.06586316227912903,-0.012243573553860188,-0.061717502772808075,0.012144648469984531,-0.062198057770729065,-0.026786919683218002,0.030194319784641266,-0.05702167749404907,0.056845393031835556,0.03693828731775284]},"hiddenLayers":[{"inputMatrix":{"rows":20,"columns":48,"weights":[-0.8119598627090454,-0.030518770217895508,0.39622581005096436,0.48319950699806213,-2.213904619216919,0.6833052039146423,-0.45975691080093384,-1.6528149843215942,-2.9849064350128174,-2.0601706504821777,-0.8946157693862915,0.8537812232971191,0.8522533774375916,1.1659709215164185,-0.6288954019546509,-1.4267038106918335,0.422741562128067,1.2562127113342285,-1.046357274055481,2.5515990257263184,2.2826833724975586,-1.0072077512741089,1.8490290641784668,-0.1854894906282425,-1.0598704814910889,0.5826303958892822,1.601254940032959,1.186194896697998,1.8426003456115723,-1.2174007892608643,1.6828672885894775,-0.9446502923965454,-0.17853033542633057,-1.3660811185836792,-1.4772255420684814,3.934691905975342,-1.2469769716262817,-1.9566603899002075,-1.3882391452789307,2.5692479610443115,-0.49201691150665283,0.6829613447189331,1.6265032291412354,-0.7431551218032837,1.607795000076294,0.4449819028377533,1.365678071975708,-0.17418071627616882,1.6959824562072754,-1.6467775106430054,-1.1149611473083496,1.5372185707092285,0.7375699281692505,-0.023455779999494553,-0.696893572807312,0.051886267960071564,1.6838403940200806,-1.6384350061416626,-0.25532129406929016,2.009281635284424,1.4141244888305664,-1.0239734649658203,1.9440176486968994,0.07480823993682861,0.2339775562286377,1.4615157842636108,0.4157722592353821,-0.052473150193691254,-0.4845379590988159,1.1359859704971313,-1.4600296020507812,-2.178278684616089,-0.38153207302093506,1.3092033863067627,-0.5791330337524414,-1.9898494482040405,0.6041180491447449,0.41245755553245544,-0.7758646607398987,1.2467414140701294,-0.5133386254310608,-0.8519097566604614,-0.8879584074020386,-1.9371896982192993,1.2020641565322876,0.9670403599739075,2.506593704223633,-0.6396308541297913,1.5409321784973145,1.9448962211608887,-1.4958150386810303,-1.3954746723175049,-0.11840040236711502,0.687934935092926,-0.8857888579368591,-0.21888165175914764,-2.127936601638794,1.0836808681488037,0.18716385960578918,-0.41380488872528076,-1.9493223428726196,-0.3094746172428131,2.3288118839263916,-2.5515098571777344,-1.8166172504425049,-0.5052585005760193,-0.6844994425773621,-0.6440763473510742,-2.3210678100585938,2.126605987548828,0.9925479292869568,-0.8133748769760132,0.6516174674034119,0.7005451321601868,1.8085559606552124,1.694610834121704,0.36953023076057434,1.0029170513153076,0.8596683144569397,0.26329025626182556,0.2633320391178131,-0.5872841477394104,1.9643354415893555,0.9750242829322815,1.1185414791107178,0.17412026226520538,1.6504429578781128,1.3558200597763062,-0.24935229122638702,-1.9775735139846802,-1.0989469289779663,1.5405937433242798,-4.177760601043701,-0.2186361849308014,-1.0714192390441895,0.9809625744819641,0.4092825651168823,-0.04450470581650734,0.978910505771637,1.5748766660690308,0.8978847861289978,-2.1484780311584473,-1.2367234230041504,-0.4233383238315582,-0.45173782110214233,-1.3290629386901855,-1.1743489503860474,1.7261126041412354,1.5416728258132935,-1.7227835655212402,-0.7270970344543457,0.21088925004005432,2.147277593612671,-0.8339659571647644,0.41272351145744324,2.1676933765411377,0.4632633328437805,-0.277599960565567,0.5281090140342712,1.7586013078689575,-1.3172781467437744,0.27247893810272217,-1.0608576536178589,-0.43622973561286926,-0.0022791686933487654,-0.7401819825172424,-1.2678759098052979,-0.5474345088005066,-1.3307740688323975,1.2599104642868042,0.2888655662536621,-0.31694820523262024,0.9730702638626099,0.8266487717628479,-4.042643070220947,-1.467419147491455,1.8060551881790161,-0.5991138815879822,0.6043339371681213,-1.5850986242294312,0.5301592350006104,0.43197816610336304,-0.798162043094635,-2.4134740829467773,-0.8421816229820251,0.23024074733257294,0.2418365776538849,0.4196156859397888,-1.3891061544418335,-0.3898254632949829,-1.2091835737228394,1.4432969093322754,-2.007153272628784,0.7372686862945557,1.438301920890808,-1.340053915977478,-1.2629166841506958,0.6998592615127563,1.7638633251190186,-0.25700512528419495,-0.8607105016708374,-0.7507559657096863,1.610144019126892,-1.8512123823165894,-3.4483792781829834,0.6875240206718445,0.37266048789024353,-1.5586609840393066,-0.07328302413225174,-0.8236677646636963,0.781640350818634,1.0853315591812134,1.1309711933135986,0.7720147371292114,0.7295879125595093,0.7086675763130188,-0.13751280307769775,-0.47430357336997986,-0.8345277905464172,1.3645057678222656,0.9260768294334412,0.18586240708827972,1.1690969467163086,0.9048632383346558,-0.3614724576473236,-1.1318336725234985,0.015381506644189358,0.789128839969635,-1.8409981727600098,-1.0254325866699219,-0.40532898902893066,0.8753116130828857,0.5096036195755005,-0.45902904868125916,0.9865696430206299,1.0039823055267334,-0.10847225785255432,-1.0643501281738281,0.20905257761478424,-1.912800908088684,-0.00392514793202281,-0.3343152105808258,-0.9779531955718994,-2.1159911155700684,-0.980099081993103,3.0442121028900146,0.07666005939245224,-1.234610676765442,-1.622184157371521,-0.25810331106185913,1.8265535831451416,-0.20053383708000183,-0.29277145862579346,2.2397170066833496,-0.9472413659095764,-1.044886589050293,0.1488255262374878,-1.40773344039917,-1.7246547937393188,1.4057953357696533,2.4160168170928955,-0.21941012144088745,2.88486647605896,1.2363955974578857,-1.452148675918579,-0.21615147590637207,0.05017399415373802,2.2655463218688965,-0.968970000743866,-1.2533166408538818,1.0153645277023315,-0.9435665011405945,-0.6487308144569397,-0.8573518395423889,-0.17184405028820038,1.9209500551223755,-0.9959951043128967,-1.4042932987213135,-2.262493133544922,1.0976203680038452,-0.49952012300491333,-0.23833660781383514,0.07245605438947678,-0.6359654068946838,2.002103567123413,-0.25236237049102783,1.7074512243270874,-0.26914912462234497,-0.26261985301971436,-0.3744218647480011,3.2701337337493896,-0.07646556198596954,-0.45128709077835083,-0.899149477481842,0.723125696182251,1.049349069595337,-0.37956807017326355,2.2465264797210693,0.9638023972511292,-2.880401849746704,0.37734299898147583,-0.6020567417144775,0.37697866559028625,-0.20562425255775452,-0.6924876570701599,1.80976140499115,1.161399245262146,0.7793020009994507,-1.0932124853134155,-0.7828751802444458,0.4983123242855072,0.8665158152580261,-0.5732455849647522,-1.2929530143737793,-0.21847964823246002,0.5648871064186096,-0.4106084406375885,-2.373871326446533,0.636314868927002,0.8815450668334961,1.6603869199752808,0.710506021976471,0.3733801543712616,-0.054817941039800644,-1.4564381837844849,0.4144669473171234,0.6844378709793091,0.8475087285041809,0.552987813949585,-3.7843446731567383,1.2994211912155151,0.757995069026947,-0.2707550525665283,-0.32611164450645447,1.412440538406372,0.6583793759346008,-1.1090035438537598,-0.1130085214972496,0.097449891269207,-2.2126564979553223,-0.6144776940345764,0.7602319717407227,0.7125074863433838,-0.10917682200670242,-1.7460930347442627,0.8810976147651672,1.4680812358856201,-1.5502939224243164,-0.32956579327583313,0.888201892375946,-0.5451605319976807,-1.0766322612762451,0.48532330989837646,-0.15580534934997559,-1.0400629043579102,-1.0109614133834839,-1.2950457334518433,-1.0344332456588745,2.725679636001587,1.2849006652832031,-0.7273777723312378,-0.11319205909967422,0.2594921588897705,2.069606065750122,0.007891485467553139,-0.4563007652759552,-0.5287509560585022,-0.7385620474815369,0.8009412884712219,0.9846625328063965,0.8944985270500183,1.7322261333465576,-0.7642126679420471,-0.1804121881723404,-3.0582563877105713,2.3273203372955322,-1.530073881149292,-0.7239936590194702,2.463238000869751,0.5017671585083008,0.7639410495758057,-0.493112176656723,1.6402288675308228,-0.08071943372488022,2.9889981746673584,-0.6379188299179077,-2.200468063354492,1.7175383567810059,0.32778799533843994,-1.0022506713867188,-2.636836528778076,0.9522988200187683,1.5934488773345947,0.9454319477081299,0.20671594142913818,0.8370952010154724,1.3411298990249634,-1.5701982975006104,-0.7554129362106323,1.9263068437576294,1.3800978660583496,0.7390211820602417,-1.083250641822815,-0.988974392414093,-0.8066655993461609,-1.113092064857483,-0.516007125377655,0.22678738832473755,-0.8683971762657166,1.8476289510726929,1.0998377799987793,-0.48208537697792053,-1.1463326215744019,-0.706865668296814,-1.3615012168884277,-1.372715711593628,0.5975817441940308,0.9669414162635803,1.0642868280410767,-0.3916589021682739,1.8223117589950562,0.47591328620910645,0.9848295450210571,-0.16610319912433624,-0.9034330248832703,0.6182226538658142,-0.44931837916374207,-2.0000460147857666,-0.9791048169136047,2.422055721282959,1.1552449464797974,1.165903091430664,-2.914407253265381,-1.256828784942627,-1.1911399364471436,-1.131457805633545,0.3711869716644287,-0.9840229749679565,-0.4762101173400879,2.441866397857666,0.15217448770999908,-1.4135428667068481,2.43639874458313,-0.3585367202758789,1.002028465270996,-1.3166788816452026,-1.5620806217193604,0.5834383368492126,-0.10876770317554474,1.9753719568252563,-0.45503759384155273,-2.6405560970306396,-0.9477373361587524,0.8046745657920837,2.8831193447113037,1.3211331367492676,-1.3663601875305176,0.11546926945447922,0.466601699590683,1.4110925197601318,-2.628969430923462,-0.3205522894859314,-1.311557650566101,-2.3160147666931152,1.0260974168777466,1.1109228134155273,1.3242350816726685,0.7369780540466309,1.0248208045959473,1.2757062911987305,-1.7471877336502075,0.34653326869010925,-0.7798582911491394,0.3458779752254486,0.0924217477440834,-0.6855754256248474,0.3540538549423218,0.2773967981338501,1.0642914772033691,-0.10183883458375931,-1.3082531690597534,2.1174864768981934,0.13437603414058685,-0.6340802907943726,-2.447242498397827,2.060141086578369,1.3085434436798096,-1.6841175556182861,0.06926877796649933,-0.9506646394729614,0.37344464659690857,1.2669488191604614,-2.498112678527832,2.7319447994232178,-0.3130611479282379,-1.7397278547286987,-0.3430465757846832,-2.050576686859131,0.8557941317558289,0.6492652893066406,1.3454490900039673,0.8363119959831238,1.44197678565979,0.77056485414505,1.0124932527542114,-0.5194045305252075,-0.7948528528213501,-0.15453697741031647,0.7719893455505371,0.8383863568305969,1.6677480936050415,-0.1447654664516449,0.24365569651126862,-0.44425803422927856,-1.1722073554992676,-0.8846631646156311,-0.6505978107452393,-2.6547741889953613,-0.5286514759063721,-0.13592705130577087,0.325337290763855,-0.2160411924123764,0.1278163194656372,2.0019869804382324,1.729195475578308,-0.8031867146492004,-1.5563292503356934,-2.6633832454681396,-0.18792369961738586,-1.0907570123672485,-2.834451198577881,0.23987843096256256,-0.0008585104369558394,-0.1758091002702713,-0.24295076727867126,0.30340269207954407,-0.6852169632911682,-2.8777401447296143,-2.314922332763672,2.375955104827881,0.14144836366176605,-0.4576702415943146,-0.4887695014476776,0.3632722496986389,1.6376140117645264,-0.09271097183227539,-0.9390390515327454,0.29630133509635925,0.870299220085144,0.7238696217536926,0.8529684543609619,-1.5939793586730957,0.40503737330436707,1.3182532787322998,3.3017325401306152,-0.45227083563804626,-1.5190945863723755,1.083609938621521,1.1502561569213867,-0.7815089821815491,0.8084384799003601,0.1613464653491974,-0.06794795393943787,0.5254247188568115,0.6625657081604004,-0.41150909662246704,-0.4730018079280853,0.06356064230203629,-1.1898818016052246,2.3233745098114014,0.15198713541030884,0.718319296836853,-0.023211544379591942,0.3405008912086487,-1.2489569187164307,-0.23108695447444916,-2.4179141521453857,-0.3530608117580414,0.4182102084159851,-0.41279101371765137,0.3232880234718323,0.49591508507728577,0.9723179340362549,0.12882664799690247,-2.2025604248046875,0.7409552335739136,1.1562665700912476,-0.077793188393116,0.3944258987903595,0.4664709270000458,-1.485016942024231,-0.23297694325447083,-1.6858714818954468,-0.7994214296340942,-1.1059595346450806,0.3278788924217224,0.5231885313987732,-1.9977689981460571,1.254081130027771,2.07033634185791,-0.4445829689502716,-0.5661243200302124,1.1671942472457886,2.943030834197998,-1.396981120109558,-2.3249664306640625,-0.12858246266841888,-1.4019360542297363,1.213687539100647,-0.1843106746673584,-0.13370609283447266,1.8706990480422974,0.26822587847709656,-0.6431673765182495,-1.3850255012512207,1.8106900453567505,-1.6540616750717163,0.22313132882118225,2.3477745056152344,0.4062046706676483,-1.5218608379364014,-0.859393835067749,1.9106754064559937,0.3182222247123718,-1.4025275707244873,0.48620641231536865,-0.3663593530654907,-0.6986250877380371,-0.847482442855835,0.27552473545074463,0.4845937490463257,1.07926344871521,-1.3585585355758667,0.9541506767272949,2.3755686283111572,-0.5557159185409546,-1.1091892719268799,-0.5191981792449951,-2.0397238731384277,-1.295350432395935,-0.31095290184020996,0.21912406384944916,-1.5329089164733887,-0.13124537467956543,-0.23674243688583374,-1.767893671989441,1.5540624856948853,1.9514567852020264,-0.9008349180221558,0.9449654817581177,1.0768412351608276,1.5100475549697876,-2.3440723419189453,-1.6471556425094604,-1.81706702709198,-1.563666820526123,0.2760057747364044,0.30140775442123413,2.1684892177581787,1.0409703254699707,-0.1547229290008545,0.22606052458286285,-0.9749149680137634,1.5071479082107544,-3.0653460025787354,0.08405214548110962,1.5107625722885132,0.13484196364879608,-1.2746164798736572,0.26880520582199097,1.9142110347747803,0.5553114414215088,0.2887001931667328,2.0366129875183105,0.6945903301239014,0.9218980073928833,-1.7491226196289062,0.7145618200302124,0.01231289654970169,-1.927883267402649,-0.9914482831954956,0.2091059386730194,0.8104786276817322,-0.8950567841529846,-1.274405598640442,1.134559154510498,1.1317088603973389,-2.0339529514312744,0.9027577638626099,-2.1475095748901367,1.1229114532470703,2.376751661300659,0.18652229011058807,-0.07821641117334366,1.0362507104873657,1.2385450601577759,0.9542667865753174,0.03848359361290932,0.706970751285553,1.0263057947158813,-0.9033718109130859,-0.5733078718185425,2.4099183082580566,1.0235894918441772,-0.4339756369590759,-1.6205313205718994,-1.305589199066162,1.1055333614349365,-2.5948545932769775,-1.0200927257537842,-0.8383617997169495,1.487696886062622,-0.01598961278796196,-0.6603181958198547,0.46805161237716675,1.601878046989441,0.27114132046699524,-0.2488894909620285,-0.506824254989624,-2.636392593383789,1.9666231870651245,-1.2552787065505981,-1.2883611917495728,-0.21763090789318085,0.29188549518585205,0.03291946277022362,-0.17553293704986572,-0.19989699125289917,-1.9286361932754517,-1.2941830158233643,0.7733985185623169,2.054473400115967,0.5666190981864929,0.08136198669672012,-1.6617271900177002,-0.06161123141646385,1.1774698495864868,0.16923628747463226,-1.478896141052246,-0.19553662836551666,0.6106376647949219,-1.0363985300064087,1.4628746509552002,-0.4355415999889374,1.148607611656189,0.8790310025215149,3.4511830806732178,2.0257506370544434,-0.46283453702926636,-2.145901679992676,1.3271868228912354,-0.6026859283447266,-0.9561842083930969,0.9510267972946167,1.2348488569259644,2.063661575317383,0.6808685064315796,-0.7270926833152771,-1.0572547912597656,1.8112400770187378,-1.2714530229568481,3.219923257827759,-1.319857120513916,0.10778526216745377,-1.2165400981903076,0.6572378277778625,1.3603967428207397,-1.2030744552612305,-0.06212734058499336,-0.877499520778656,-0.9362859725952148,-2.348078727722168,2.4505796432495117,-2.4952290058135986,-0.053388647735118866,2.4153409004211426,0.40948691964149475,-0.9401481747627258,-0.09947074949741364,-0.010024283081293106,1.217442274093628,-1.454595923423767,-1.3025380373001099,2.2969017028808594,-1.3046696186065674,1.470694661140442,-0.6946923732757568,-2.2137255668640137,0.12008275091648102,0.058911725878715515,-0.24124188721179962,0.5531077980995178,-1.4926704168319702,0.5168710350990295,0.6831491589546204,0.9101364016532898,-0.013411704450845718,-0.10247726738452911,-1.2262554168701172,-0.11496534943580627,0.12029776722192764,1.6592869758605957,3.4020204544067383,0.20658251643180847,2.0261781215667725,1.1130101680755615,0.010444972664117813,-0.11429024487733841,0.10369236022233963,0.8248129487037659,1.097158432006836,-0.9061195254325867,-2.254892587661743,1.2414933443069458,1.1434800624847412,1.1989877223968506,-0.4472534656524658,-0.44824543595314026,-0.4239497482776642,-0.7993017435073853,-0.4653877913951874,-0.7135910391807556,-0.6158386468887329,0.722223699092865,-1.0281230211257935,0.8723204731941223,1.6407835483551025,-0.6062029004096985,-0.23932576179504395,-0.41125211119651794,-2.9494266510009766,0.08060416579246521,-1.5696076154708862,0.6275503039360046,-2.6160714626312256,0.703108549118042,-1.0392597913742065,-2.8189163208007812,0.05610554665327072,0.9145689010620117,-3.8071019649505615,0.11681773513555527,2.074559211730957,0.18374504148960114,-1.3572076559066772,-1.8676543235778809,-1.063472032546997,-2.351923704147339,1.0547281503677368,-0.29405513405799866,2.5660641193389893,-0.012836932204663754,0.8751603960990906,0.21841850876808167,-0.1636689454317093,-0.25629761815071106,-3.034898042678833,-0.6863749027252197,-0.03905608505010605,-1.274196982383728,-1.652090072631836,0.07185408473014832,1.944277048110962,1.3200112581253052,-0.7117882966995239,-0.8999618887901306,-3.2386081218719482,-0.5299468040466309,-0.14371570944786072,0.44748973846435547,-0.0362221822142601,1.4038525819778442,0.49163544178009033,-2.94852352142334,-1.5935165882110596,3.035315752029419,0.4167139530181885,0.39217591285705566,-0.4151840806007385,-0.1695866584777832,-0.25009796023368835,1.933640956878662,0.21167853474617004,-0.7138165831565857,2.678415060043335,0.21812579035758972,0.9215646386146545,1.0826408863067627,-0.9471672177314758,3.3185088634490967,3.41965389251709,-0.9194737672805786,0.6003792881965637,-0.43651196360588074,0.6086865663528442,-0.681235671043396,1.0363470315933228,0.32057854533195496,1.9501104354858398,0.5470276474952698,0.14137862622737885,-0.047653235495090485,-1.4974111318588257,0.9840424656867981,-0.2992900013923645,2.7519454956054688,1.1118558645248413,0.05470630154013634,-1.3973366022109985,2.6611549854278564,-1.2356982231140137,-0.6676385998725891,-0.2755220830440521,-0.27440935373306274,0.8542222380638123,0.3523311913013458,0.04059787467122078,0.8613899350166321,0.8542967438697815,-1.5106043815612793,-2.088304281234741,-2.820272445678711,-1.212065577507019,2.0261154174804688,0.8260207176208496,0.8380635976791382,-0.48823830485343933,-0.8423931002616882,1.0383349657058716,0.5026473999023438,-0.5107987523078918,-0.42969316244125366,2.617809772491455,-1.1320521831512451,1.1365017890930176,0.7937127351760864,0.807077169418335,1.363066554069519,1.5776252746582031,1.4391981363296509,-1.2507240772247314,-1.8121953010559082,1.649418592453003,-0.5892478227615356,-1.9606525897979736,0.45430660247802734,1.002276062965393,1.3699734210968018,0.8146381378173828,-0.6628476977348328,-1.8554202318191528,2.3096063137054443,-0.9986770153045654,1.2225903272628784,-0.9854720234870911,0.092692531645298,-0.27886706590652466,0.7219483852386475,1.9550354480743408,-2.3653416633605957]},"inputHidden":{"rows":20,"columns":20,"weights":[-0.05995789170265198,-1.1099541187286377,-0.7208498120307922,-0.20559006929397583,-1.1637383699417114,-0.32748767733573914,0.9934516549110413,-0.4523228406906128,-0.2971377372741699,0.8097570538520813,-0.16938398778438568,0.12157251685857773,-1.8679357767105103,-0.793818473815918,-1.3507906198501587,0.1280752718448639,-0.29840412735939026,1.3411892652511597,-0.3406081199645996,-0.11078126728534698,0.9193122386932373,0.6128870248794556,-0.41972583532333374,0.7567347884178162,1.3954919576644897,1.4797948598861694,-1.9138671159744263,-0.3038581609725952,0.6068032383918762,-0.07265200465917587,0.16082030534744263,0.8161889314651489,0.21455103158950806,0.5053268074989319,-0.5668756365776062,-0.15093617141246796,-0.3186739683151245,-1.2759745121002197,-1.037150502204895,-0.5810418725013733,-3.0821053981781006,-0.2466592937707901,-1.8497037887573242,-0.9157252311706543,0.5746377110481262,1.7994874715805054,2.3702392578125,0.7595531344413757,-1.0381754636764526,-0.573815107345581,1.9814966917037964,1.6712144613265991,1.118416666984558,-1.1152384281158447,-1.711687684059143,0.27301180362701416,0.9180830717086792,-1.0971031188964844,-2.5927953720092773,1.9906835556030273,-2.7955451011657715,-2.174952268600464,0.34519386291503906,3.1661195755004883,1.8866431713104248,-3.1587581634521484,3.195063829421997,-0.3651588261127472,-0.6961737871170044,-1.8623955249786377,3.613003969192505,0.4051264524459839,-0.5956350564956665,0.3579086363315582,0.8012971878051758,0.694962739944458,-0.6343688368797302,-0.0825396403670311,-3.619419574737549,4.153900623321533,2.533846139907837,0.10624714940786362,-0.21778851747512817,1.030476450920105,0.5601049661636353,-2.5860416889190674,1.3780863285064697,-1.619525671005249,1.8038839101791382,0.09665980935096741,-2.6885554790496826,-1.2130192518234253,-2.431110382080078,0.8829621076583862,-1.5068696737289429,0.4059392213821411,-1.7783596515655518,1.6013375520706177,-0.08843038231134415,2.8095474243164062,0.1733294129371643,-0.7007817625999451,-0.6654033064842224,0.7294633388519287,1.1021952629089355,-0.04628320410847664,-0.1343408226966858,-0.24638445675373077,-1.6018524169921875,-0.41541850566864014,-0.2758464515209198,0.630149245262146,-1.169309377670288,0.5146236419677734,-0.09421269595623016,-0.11531449854373932,-0.6731991767883301,0.2145366668701172,0.046430788934230804,-0.27499356865882874,2.1779773235321045,4.436504364013672,-1.867677092552185,-2.9940924644470215,-1.1442872285842896,1.0087114572525024,0.4084770381450653,3.0122392177581787,-2.1884052753448486,2.619494915008545,-1.0394808053970337,-1.90625,-0.577885627746582,0.9972445964813232,-0.33127301931381226,0.06108645349740982,-1.4243937730789185,0.20984378457069397,3.6345176696777344,-1.8463056087493896,0.20250219106674194,-0.2101508229970932,-0.6409226059913635,-0.8632189035415649,-0.09577911347150803,-0.29196178913116455,0.6509007811546326,0.3514825105667114,-0.2881756126880646,0.9100141525268555,-0.005319319665431976,-0.7653183341026306,-0.20456485450267792,-0.5605153441429138,-0.9944331645965576,0.3968643546104431,-0.6196209192276001,-0.19298046827316284,0.09041174501180649,0.07105390727519989,-0.28359273076057434,-2.0793368816375732,-0.4866049289703369,-0.929782509803772,0.011499075219035149,-0.4080255329608917,0.14632202684879303,-0.43682026863098145,-0.1393597573041916,-0.08831626921892166,-0.0620361790060997,-0.7551883459091187,-0.19614648818969727,-0.14384424686431885,-1.4296979904174805,0.7563433051109314,0.5852584838867188,-0.14774078130722046,0.8720912337303162,0.08620024472475052,-0.11909870058298111,-1.6066795587539673,-1.093713402748108,0.01411196868866682,-0.7332251071929932,-0.1974049210548401,0.16430458426475525,-0.014987336471676826,-1.556321620941162,0.7018458247184753,-1.1645398139953613,0.1541237086057663,0.34568455815315247,1.0201810598373413,-0.4833829402923584,-0.025257032364606857,-0.9605847597122192,1.1329511404037476,0.49922633171081543,-0.14242033660411835,0.010619936510920525,-0.7128041386604309,-0.45882096886634827,-0.7248598337173462,-0.14608198404312134,-1.2023067474365234,0.4958549439907074,0.9215927124023438,1.065582275390625,0.9435281157493591,0.047674812376499176,0.42901498079299927,-0.5675540566444397,-0.43488097190856934,0.4616257846355438,0.006841887719929218,-1.6763966083526611,0.5595781207084656,1.0585187673568726,-0.5257973670959473,-0.37046101689338684,0.5982546806335449,-0.40813279151916504,-0.8480297923088074,-0.2572123408317566,0.6751712560653687,-0.1127014085650444,0.18479451537132263,-1.2061318159103394,0.24583038687705994,0.13051098585128784,1.5670802593231201,0.006973456125706434,-0.8610414266586304,-0.26209649443626404,-0.059168342500925064,-0.6283741593360901,0.5579609274864197,-0.13740113377571106,-1.0657999515533447,-0.06146366521716118,0.13460275530815125,-0.8015883564949036,-0.3973769247531891,0.35951662063598633,-0.11622029542922974,-0.18774311244487762,0.025245703756809235,-1.0886093378067017,0.1838768571615219,0.48357439041137695,0.04779541492462158,-0.798197329044342,-0.24735790491104126,-0.40393662452697754,0.16448263823986053,-0.5483818650245667,0.13971729576587677,0.14494828879833221,-0.3062238097190857,-0.12410474568605423,0.7075619101524353,-1.607919692993164,-0.08084256201982498,-1.4525727033615112,-0.8872571587562561,1.3171565532684326,2.2713937759399414,1.0336735248565674,0.47995883226394653,-1.719563603401184,-0.5079774260520935,-0.7742202877998352,0.09631366282701492,0.4819417893886566,0.658036470413208,-2.3399126529693604,-0.7247542142868042,1.4223278760910034,0.663354218006134,2.1242363452911377,-0.9087986946105957,-2.1985042095184326,-0.8359216451644897,-0.8899754881858826,-1.5704665184020996,1.7041676044464111,1.8315898180007935,-0.4838064908981323,-0.2203175574541092,-1.8202989101409912,-1.201562523841858,-2.020613193511963,0.45080533623695374,-0.10822449624538422,-0.7928253412246704,-1.6371854543685913,0.22243642807006836,0.5602661967277527,-0.487750768661499,-0.8722079396247864,-0.2085772305727005,-1.3180941343307495,-0.3170640170574188,0.3280180096626282,-0.15592707693576813,-0.46379226446151733,0.16865716874599457,-0.9139320850372314,0.5051882863044739,0.5581521987915039,1.0566160678863525,-0.2827893793582916,0.14724676311016083,-0.9149969220161438,0.08548732846975327,-0.1595010906457901,0.15826310217380524,-0.03479793295264244,-1.1717090606689453,0.7405188679695129,-2.073648691177368,-1.4050570726394653,-0.26856690645217896,-2.0442235469818115,0.1010303646326065,1.3356431722640991,-1.0396088361740112,-2.8572800159454346,-0.6065688133239746,-1.7807843685150146,1.085442304611206,-2.651589870452881,1.376996397972107,-0.8686687350273132,0.08278506249189377,-1.2210822105407715,1.531003475189209,-0.2436901181936264,-0.2756286859512329,0.686728835105896,0.9615814089775085,-0.6062422394752502,-0.5242031216621399,-0.3244727849960327,-0.44009271264076233,0.4958157241344452,0.939003050327301,1.1776280403137207,0.5104861259460449,-0.23458899557590485,0.49694374203681946,0.014493881724774837,0.6205998063087463,0.2680996358394623,0.8651869297027588,-1.108540415763855,-0.38111892342567444,0.37136662006378174,-0.5910558104515076,-1.415313720703125,-0.7673871517181396,1.1366757154464722,-1.4718819856643677,0.4744511842727661,0.5495104193687439,-1.4631439447402954,-1.4053943157196045,-2.9918887615203857,-1.1371805667877197,0.7357783317565918,1.6919623613357544,0.6899474859237671,-3.0601274967193604,-1.4680309295654297,-1.1412670612335205,0.7085769772529602,0.15041887760162354,-1.3933805227279663,-2.5368540287017822,-0.3115462064743042,-0.7023482918739319,1.6409038305282593,1.07465660572052,-0.9220829010009766,-0.4277224540710449,1.380808711051941,-0.0933273434638977,-0.0693475678563118,0.6068346500396729,0.22960276901721954,-0.18290692567825317,-1.0006917715072632,0.3744465708732605,-0.4625084698200226,1.0187535285949707,0.08067358285188675,-1.299681305885315,0.40231531858444214,0.3779403865337372]},"inputBias":{"rows":20,"columns":1,"weights":[-0.2427879273891449,-0.8101693987846375,-0.1848844289779663,-0.33794450759887695,-0.3423825204372406,-0.5159285664558411,-0.4421636760234833,-1.004388451576233,0.26376113295555115,-0.28394776582717896,-0.4432655870914459,-0.2672155797481537,-0.30435821413993835,-1.0478384494781494,-0.0463489294052124,-0.21486902236938477,-0.2419123500585556,-0.6410759687423706,-0.5663861632347107,-0.2483638972043991]},"forgetMatrix":{"rows":20,"columns":48,"weights":[-1.5733642578125,0.5329809784889221,0.9420996904373169,-0.6736040711402893,-0.08700889348983765,0.0460057370364666,-0.04858342930674553,1.1062616109848022,-0.5700345635414124,-0.36950141191482544,-0.016573283821344376,-0.2384929060935974,-0.5979375839233398,1.3076080083847046,-1.843271017074585,0.37373024225234985,-0.15618568658828735,-0.7943770885467529,-0.17474009096622467,0.2590905725955963,0.4115701913833618,-1.7539985179901123,0.8342673778533936,2.4079174995422363,-0.9080697298049927,-0.4650510549545288,0.15568113327026367,1.8793596029281616,-0.9108349084854126,-0.6180257797241211,0.16741667687892914,-1.3631088733673096,0.46847596764564514,-0.07804529368877411,0.94874507188797,0.9386635422706604,-0.7012714147567749,-0.41164276003837585,-1.5883971452713013,0.7812755703926086,-0.9001562595367432,-1.390995740890503,2.5411126613616943,1.1916513442993164,0.27533644437789917,-1.7000834941864014,1.0807459354400635,0.19561465084552765,0.6805055737495422,-0.4418518543243408,-1.0696593523025513,-1.1156290769577026,0.8417648077011108,-1.2009022235870361,-0.9006336331367493,0.4769860804080963,0.46378853917121887,-1.0667444467544556,0.286099910736084,0.5313522815704346,0.4680469334125519,-1.8798515796661377,-1.375913381576538,1.7043856382369995,0.583454430103302,-0.11917178332805634,-0.9441701769828796,-0.3246880769729614,-0.9109669923782349,-0.12443502247333527,-1.2026336193084717,0.26844245195388794,-0.014302805066108704,0.7692528367042542,0.7854856252670288,-0.36104074120521545,-0.3498312830924988,1.1138888597488403,-1.7160096168518066,-0.7558773159980774,0.4260106384754181,0.6250552535057068,0.2593298852443695,-0.15702584385871887,3.5051028728485107,1.4682520627975464,0.31637489795684814,-0.8132305145263672,-0.6745613217353821,0.06154976412653923,-0.9903615117073059,-1.0200574398040771,-0.7226911187171936,0.3300904929637909,-0.701093316078186,1.339302897453308,0.14337079226970673,1.0749053955078125,-0.3843941390514374,0.3755166828632355,-0.3379899561405182,1.0712857246398926,0.9744933843612671,-0.48125317692756653,0.2144518941640854,-0.6829380393028259,-1.301318645477295,0.37021902203559875,-0.7541730403900146,0.5927906036376953,1.7521944046020508,-1.0446248054504395,0.09264539182186127,-0.8104935884475708,1.2203913927078247,0.43365001678466797,-0.0032861242070794106,2.034686326980591,-0.22374890744686127,-0.8755266070365906,2.713562488555908,-0.3379409611225128,-0.9109484553337097,-0.9383441805839539,1.2609269618988037,1.5163700580596924,0.6902673244476318,1.8653032779693604,-2.236591100692749,-0.14361226558685303,-1.0751091241836548,-0.5696355104446411,-0.6445333361625671,-0.4554242491722107,0.6205295920372009,-0.07429911941289902,0.461506724357605,0.11522302031517029,-0.7138887643814087,-0.04310711845755577,1.074534296989441,-0.5076731443405151,-2.1819820404052734,-1.050771713256836,0.18575099110603333,0.07476040720939636,-1.279971718788147,0.2304791361093521,0.008013280108571053,0.11373556405305862,-0.35970473289489746,-0.9566519856452942,-1.0957108736038208,-1.7520840167999268,-0.3072128891944885,1.2535814046859741,-0.08115538954734802,-0.06048009917140007,-0.4892584979534149,-0.13401320576667786,1.3551628589630127,0.07832847535610199,-0.22594133019447327,0.2739855945110321,0.44111356139183044,0.3384818732738495,0.7314530611038208,0.2928653061389923,0.2545304000377655,1.2967851161956787,0.7645272612571716,-0.218336284160614,0.2814430594444275,0.129132941365242,0.17026446759700775,-0.3286275863647461,-0.8411466479301453,0.019344810396432877,-0.04536642134189606,0.4470943510532379,0.29338306188583374,-0.3101910352706909,-0.22200363874435425,0.5133970379829407,-0.408674418926239,1.000394582748413,-0.22032430768013,-0.42171305418014526,0.36558666825294495,0.6691821217536926,-0.5922659635543823,0.025025807321071625,-0.4069313704967499,0.3122689425945282,-0.5905546545982361,-1.0293797254562378,-0.895539402961731,0.8710007071495056,0.6683782935142517,-0.25819486379623413,-1.463865876197815,0.23450133204460144,0.27416959404945374,-0.6074846982955933,-0.9069841504096985,0.5811716914176941,0.5912734270095825,-0.7526952624320984,-0.059485193341970444,-0.4966696500778198,0.15405060350894928,0.5501928925514221,0.13223445415496826,0.046582601964473724,2.1046183109283447,0.7112948298454285,-0.47664931416511536,-0.6132845878601074,-0.26717448234558105,0.7035186290740967,0.22700509428977966,0.5264132022857666,0.8432027697563171,0.4461408257484436,-0.3233610689640045,-0.40439164638519287,0.018409045413136482,1.0447626113891602,-0.9368128776550293,-0.9830278158187866,-1.131535530090332,2.211406707763672,0.06858421117067337,0.1775500476360321,0.9327035546302795,-0.39932817220687866,0.6878968477249146,-0.09822145104408264,0.7832964062690735,-0.7643624544143677,-1.8685251474380493,0.6449087858200073,0.9238435626029968,-1.1722846031188965,-1.3564298152923584,1.2571085691452026,0.23309782147407532,-0.25370731949806213,-0.8768466114997864,-0.3836425542831421,-0.04815226048231125,-0.07095079123973846,-0.4944837689399719,1.3564022779464722,-1.5614467859268188,-1.4381228685379028,0.1512405127286911,-1.1257163286209106,-0.358722984790802,0.7226171493530273,1.023012638092041,-0.7934935688972473,0.2979864478111267,0.4389590919017792,-0.3581135869026184,-1.1888984441757202,0.6113528609275818,0.8536194562911987,0.166781485080719,-0.8667711615562439,2.5093419551849365,-1.1656149625778198,0.4160029888153076,-0.4862672686576843,0.26163676381111145,0.9224047064781189,-1.0591052770614624,-1.5654696226119995,-0.9730022549629211,0.5885950326919556,-0.6170186996459961,-0.0794304832816124,0.2912711799144745,0.7359871864318848,-0.5134900808334351,-1.097432255744934,0.03740125894546509,-1.3177599906921387,-1.724400520324707,0.9412606954574585,-0.523867130279541,-1.9948813915252686,-1.2823607921600342,0.7890583872795105,0.4583413898944855,-0.7965208888053894,-1.0177146196365356,-0.2993394434452057,-0.2833472788333893,-1.356177806854248,-0.9827479720115662,1.2986714839935303,0.18674488365650177,0.10835239291191101,0.15487927198410034,-0.3243722915649414,1.0281261205673218,0.6078177690505981,1.0246069431304932,0.1619996875524521,0.42152339220046997,0.04619087651371956,-0.4652525782585144,0.06896738708019257,-0.48704221844673157,0.12756052613258362,0.2743830382823944,0.2508489191532135,0.5891796946525574,0.7200960516929626,0.23674267530441284,0.512067973613739,-0.198016956448555,0.5923238396644592,-1.8420219421386719,-1.3048415184020996,-1.0589592456817627,-0.005819329991936684,0.4272465109825134,-1.0018905401229858,1.3617814779281616,1.7820425033569336,0.16650225222110748,-0.1448553204536438,-0.4633125364780426,-1.2515138387680054,-0.6093106865882874,0.3051143288612366,-0.6851589679718018,0.1142430305480957,-0.5497233867645264,0.7088716626167297,0.1279619187116623,1.2985422611236572,-2.028826951980591,-0.8753150701522827,-0.4448947310447693,0.686396062374115,-0.07475543767213821,-0.0013610685709863901,-1.6229175329208374,-0.8885396122932434,0.41187527775764465,-0.6624909043312073,-1.145339846611023,1.6477601528167725,2.1121697425842285,-2.14007830619812,1.8147072792053223,-0.18971364200115204,-0.07728932052850723,-0.1778000146150589,0.45553499460220337,2.1728944778442383,-1.0529993772506714,-1.3390172719955444,0.010835843160748482,-1.5834518671035767,0.45841389894485474,-1.689693570137024,0.07403438538312912,1.7006711959838867,0.009866824373602867,-0.7586386203765869,-1.6450845003128052,1.0125688314437866,-2.2591047286987305,1.0805765390396118,-0.3894992172718048,-0.4616193175315857,-0.4756639897823334,0.5250856876373291,1.1749743223190308,-0.7622022032737732,-0.40536564588546753,-0.6902084946632385,-3.1887049674987793,2.9060704708099365,0.8906171917915344,0.31670430302619934,-0.6706797480583191,-0.5417575836181641,1.0772475004196167,-2.2747185230255127,-0.4562813639640808,4.5101237297058105,1.0957179069519043,0.12349967658519745,1.2494868040084839,0.7075375914573669,-0.5124465227127075,-1.2815086841583252,-0.4657481014728546,-0.18406356871128082,1.6626397371292114,0.4367520809173584,0.2445766031742096,-1.5038920640945435,1.0465140342712402,1.603518009185791,-0.5810585021972656,-0.5863298773765564,0.8872978091239929,0.8937892913818359,-1.0658031702041626,0.44134145975112915,-1.4211714267730713,-0.20617036521434784,-2.23390531539917,0.06770818680524826,0.5019158720970154,-0.8525887131690979,-1.1201539039611816,-0.03218352422118187,0.17767341434955597,1.7195924520492554,-0.24113263189792633,-0.2644791007041931,1.329534649848938,0.8586952090263367,-0.567353367805481,0.7709384560585022,-0.6062196493148804,-0.07436845451593399,3.130201578140259,0.8067979216575623,0.7863472700119019,-0.6896840333938599,0.06437969952821732,-0.13631190359592438,1.409999132156372,1.1458523273468018,0.011547989211976528,-1.6282764673233032,0.8204099535942078,-0.05923949554562569,0.16017724573612213,0.9032672643661499,-0.17361192405223846,1.0921956300735474,2.6433498859405518,-0.7911357879638672,-0.552892804145813,0.1254139393568039,-0.9002259969711304,0.7603336572647095,1.200911283493042,-0.2829107344150543,-1.6019269227981567,-0.07372988015413284,0.894052267074585,0.6277013421058655,0.32922011613845825,0.5979220271110535,-0.17275631427764893,0.20832906663417816,0.15195167064666748,-0.9274598956108093,0.5206863284111023,0.5367377400398254,0.6986079812049866,-0.20805467665195465,1.8491088151931763,-1.5544344186782837,-0.9506660103797913,-0.039451517164707184,0.5461796522140503,-1.4388525485992432,-0.08046407252550125,0.08994383364915848,1.8055778741836548,-0.8125491738319397,-1.1260432004928589,0.8062803149223328,1.9517136812210083,-0.7670905590057373,-1.4013482332229614,0.427035927772522,-0.0022060752380639315,-0.20450866222381592,-0.6871836185455322,0.20624743402004242,1.4400830268859863,-1.8931940793991089,-0.5797485709190369,0.4924177825450897,0.9801043272018433,1.8088034391403198,0.09072060883045197,-0.8366941213607788,-1.0107828378677368,0.030130283907055855,-1.0244600772857666,-0.4097447395324707,0.4169963598251343,0.7282940149307251,1.2508125305175781,0.13622386753559113,-0.6539437770843506,-0.8609604835510254,0.695356011390686,0.18692602217197418,-0.35272252559661865,1.099861979484558,-0.1228913888335228,-0.04051860421895981,1.071954369544983,1.8614344596862793,0.8424894213676453,0.6102186441421509,-0.4445275068283081,0.7100236415863037,-0.3178531229496002,-0.4113694131374359,0.15866386890411377,0.4568074643611908,0.689376950263977,1.2269995212554932,-1.4012583494186401,0.915505588054657,0.7841209769248962,-0.17863082885742188,-0.8454258441925049,0.664690375328064,0.6559810638427734,-1.6721092462539673,0.24606892466545105,-1.4019826650619507,-2.0680289268493652,0.8035923838615417,-0.015942387282848358,1.4050366878509521,0.6639360785484314,-0.535599410533905,-0.32350021600723267,-0.5932415723800659,0.6894459128379822,-0.2728561460971832,1.9271526336669922,0.9338386058807373,-0.6872915625572205,-0.5026067495346069,1.5879777669906616,-0.9954578876495361,-0.3061990439891815,-0.8294325470924377,1.978568196296692,0.06317806243896484,2.5844268798828125,-0.21292604506015778,-0.6211912631988525,-0.7709327340126038,-0.702616810798645,-0.4869939386844635,-0.7068894505500793,-1.251534342765808,0.8396690487861633,-0.2306850701570511,1.119127631187439,-0.04523077234625816,0.1989404708147049,0.9345172643661499,0.7656546831130981,-1.4022119045257568,-1.2728195190429688,-1.8571988344192505,-0.24976293742656708,0.16087990999221802,0.12657904624938965,0.45944011211395264,0.6868398785591125,0.24037927389144897,0.5647076964378357,0.30734801292419434,0.12567271292209625,-0.3200017809867859,0.7188413143157959,0.8616214394569397,-0.7883405685424805,-0.27149632573127747,-0.9639174342155457,-0.5261958837509155,-1.111440896987915,-0.8304583430290222,-1.0687099695205688,2.3265938758850098,1.3642290830612183,-0.05806124210357666,-1.3993240594863892,0.3302164077758789,-0.13682548701763153,-0.4518890678882599,-0.9657586216926575,-0.3396938145160675,0.3229858875274658,0.9132652282714844,-1.1767042875289917,-1.183764100074768,-0.42768895626068115,-2.1735966205596924,0.9553426504135132,-0.6519221663475037,1.0824979543685913,-0.8450595736503601,0.6502645611763,-0.026706544682383537,-0.8853222131729126,0.42918500304222107,-0.8997375965118408,-0.6184825301170349,-1.8863885402679443,-1.0048884153366089,-0.3355969488620758,-0.454372376203537,-1.504850149154663,0.34978315234184265,0.5997197031974792,0.8991025686264038,0.312057763338089,-0.1288544088602066,-0.11141000688076019,-0.9496760368347168,1.2455366849899292,0.7657673954963684,-0.06129474565386772,-2.312378406524658,0.47673270106315613,0.9777717590332031,0.5327433943748474,0.08699478209018707,-0.10202138870954514,0.6895634531974792,1.4858702421188354,-0.6790598034858704,-0.6767518520355225,0.7404642105102539,-1.3754299879074097,-0.6195725798606873,-0.1959206610918045,0.4127253592014313,-2.458974838256836,-1.0582795143127441,0.8142903447151184,0.4966374635696411,0.10742449760437012,1.0329078435897827,0.32057929039001465,-0.43653759360313416,-1.153014063835144,-1.2390061616897583,-0.12007766962051392,0.7589395642280579,1.2818163633346558,-1.1721659898757935,1.1974353790283203,-1.1638667583465576,0.15903779864311218,-0.0007334040128625929,1.3126379251480103,-0.23000523447990417,-1.1096374988555908,0.8136774897575378,1.6290273666381836,-0.9873837232589722,-1.606029748916626,1.9111303091049194,2.595738410949707,0.11867246776819229,-1.3918298482894897,1.6425572633743286,1.1394721269607544,0.008941039443016052,0.7244307398796082,-0.11123292148113251,0.5781481862068176,-1.9883573055267334,-0.08034173399209976,0.2720237374305725,0.5051428079605103,0.6386417150497437,0.5706342458724976,-0.4159420430660248,-1.6086814403533936,1.2013646364212036,-1.2759487628936768,0.6303964853286743,1.0206630229949951,0.6360010504722595,0.8015360832214355,-0.7635762095451355,-1.044386386871338,0.14651323854923248,-0.14637765288352966,1.0109589099884033,-0.2805064916610718,1.4252873659133911,1.3350415229797363,-0.30019569396972656,1.5225026607513428,1.4935705661773682,0.3165510296821594,-0.09714426845312119,0.4596916735172272,0.6075341105461121,-0.7219914197921753,-0.5825924277305603,-1.4425075054168701,1.1584810018539429,-0.45261821150779724,1.0771095752716064,-0.4806227684020996,0.5131279826164246,0.47959935665130615,-0.5668364763259888,-0.7007533311843872,1.265723466873169,0.6719194650650024,0.3318449854850769,0.14915283024311066,-0.7610827684402466,0.5025460124015808,1.347198247909546,0.13323216140270233,0.5523466467857361,-0.36259686946868896,-1.227015495300293,-0.9114351272583008,-0.5870944261550903,-0.5731059908866882,-0.22979307174682617,1.7445170879364014,-0.40179643034935,-0.4551432132720947,-0.4123515188694,0.405170202255249,-0.6753337979316711,0.4808700382709503,-0.720563530921936,-0.44311511516571045,-0.5251126289367676,0.1853146106004715,-1.2399234771728516,0.2607167065143585,-0.45711424946784973,0.6802212595939636,-0.3091288208961487,-0.3186267912387848,-0.7027527689933777,0.09487650543451309,-0.1987030804157257,-0.6217151880264282,-0.20344313979148865,-0.7830328345298767,0.17300018668174744,-1.0900776386260986,0.020557010546326637,0.38798677921295166,-1.8144469261169434,0.22891117632389069,0.6812026500701904,0.9978713393211365,0.38753992319107056,0.21277357637882233,0.5075101852416992,0.8879153728485107,0.2833784222602844,0.3906301259994507,-0.14876285195350647,0.09772011637687683,1.6667487621307373,-0.6839790344238281,0.2458694726228714,-2.525247097015381,-0.45650142431259155,-1.5769580602645874,-1.4570558071136475,-1.5711547136306763,1.9216468334197998,-0.30105024576187134,-1.301034927368164,-2.163975477218628,0.008468464948236942,-0.05278128385543823,-1.6975373029708862,1.1666507720947266,0.01830536313354969,-1.2826870679855347,-0.7892279624938965,-0.42850473523139954,-2.0208399295806885,0.5967901349067688,-1.6190693378448486,0.8794121146202087,-0.700383722782135,0.42508187890052795,-0.29080507159233093,1.6967192888259888,-1.0057529211044312,-1.4324681758880615,0.41291242837905884,-0.342173308134079,0.9540999531745911,-2.568786859512329,-1.4813746213912964,1.017012357711792,0.0342368558049202,-0.00044783923658542335,-0.19215889275074005,0.12040107697248459,1.0203584432601929,0.8298591375350952,0.8987025618553162,-0.15573348104953766,0.9520381689071655,0.02049952931702137,1.1241952180862427,1.5687795877456665,-0.9107971787452698,0.3645158112049103,-0.3936941921710968,-1.5541133880615234,0.10421650111675262,-0.19718393683433533,-0.02066728100180626,-0.3598763048648834,-0.0989527702331543,-0.16093602776527405,-0.9999195337295532,0.14429032802581787,0.8968077301979065,-0.6727423667907715,0.8129530549049377,0.3312138617038727,0.9759519100189209,-2.0190906524658203,-1.2340368032455444,-0.31187954545021057,-0.5883004665374756,1.1510757207870483,0.5686433911323547,0.9698262214660645,-0.15226289629936218,-0.1499599814414978,0.6434458494186401,-1.0274616479873657,-0.16009198129177094,-1.0073322057724,-0.32206612825393677,0.7418952584266663,0.6599020957946777,-1.2433010339736938,0.2536076009273529,1.1110048294067383,0.5539720058441162,0.029751529917120934,0.21677884459495544,-0.12853707373142242,-0.8977596759796143,0.29337888956069946,-0.4489259421825409,0.2807474732398987,-0.08200807124376297,-0.98226398229599,-0.1908050775527954,1.157776117324829,-1.0200419425964355,-0.6959755420684814,-0.3027137219905853,-1.079979658126831,0.2863585948944092,0.09638654440641403,0.7832546234130859,-0.5648188591003418,-0.6841867566108704,-1.0707801580429077,-0.44505006074905396,0.43369895219802856,2.5694236755371094,-1.4156311750411987,-0.2695980966091156,-0.699156641960144,0.6870308518409729,-0.8115159273147583,0.471609503030777,0.06481824070215225,-0.5694582462310791,0.515642523765564,0.4457830488681793,1.1510149240493774,0.8136488795280457,-0.6925735473632812,0.03374062478542328,-0.57899409532547,0.8439814448356628,-0.34140515327453613,-1.6090387105941772,2.3813490867614746,-0.2431599646806717,-0.7984523177146912,0.6817396879196167,-0.32701101899147034,0.7747024297714233,0.5189770460128784,-0.6604716777801514,0.7263796329498291,0.6420522928237915,0.9649624824523926,-0.4553413987159729,0.07479460537433624,0.052278146147727966,1.4232714176177979,0.651250422000885,0.18605928122997284,-0.14582914113998413,0.8300744891166687,-0.754194974899292,0.15623286366462708,0.2150232493877411,-1.2078964710235596,0.6804517507553101,0.8512053489685059,-0.6070426106452942,-0.725868284702301,0.21132759749889374,-1.7733066082000732,-1.0626904964447021,0.7489416003227234,-0.12771759927272797,-0.9910040497779846,-0.7616237998008728,0.26667654514312744,0.40630272030830383,-0.9126461148262024,0.15569305419921875,0.2918936014175415,0.4518980383872986,-0.4572817385196686,-1.2688343524932861,0.1786779761314392,0.5049045085906982,1.5856996774673462,-1.1205168962478638,0.7180912494659424,-0.3932904601097107,-1.3921959400177002,-0.22246140241622925,0.03754409775137901,0.3369249403476715,-0.3454681932926178,0.5427677631378174]},"forgetHidden":{"rows":20,"columns":20,"weights":[0.18624447286128998,0.6646365523338318,0.4778546094894409,0.735755443572998,-0.24071431159973145,-0.09066306799650192,0.9258061051368713,0.3197554349899292,-0.5760035514831543,0.51384037733078,-0.6425045132637024,0.9912545084953308,0.11233700811862946,0.28245750069618225,-0.18929076194763184,-0.904268741607666,-0.170828178524971,0.051794156432151794,-1.210790753364563,0.1603839248418808,0.18178196251392365,0.1314464956521988,-0.06737268716096878,0.611245334148407,-0.8513441681861877,0.20444704592227936,0.24372032284736633,0.1758827269077301,0.7927235960960388,0.7550958395004272,0.7813660502433777,-0.052172429859638214,0.1615740954875946,0.6752814650535583,0.29807648062705994,0.03186311200261116,-0.4889785647392273,-0.9077262878417969,0.20107614994049072,-0.2948669195175171,0.5122511386871338,0.21793965995311737,0.40627041459083557,-0.2003118246793747,-0.23024381697177887,-0.04796246811747551,0.8342924118041992,0.10019741207361221,0.4784438908100128,0.6194085478782654,-0.2824544310569763,0.11319587379693985,-0.1672607958316803,0.11104828864336014,0.07480797916650772,-0.1005314365029335,0.38176247477531433,0.1068766713142395,0.1304532289505005,-0.32602787017822266,0.7499361038208008,0.06408113241195679,-0.33657312393188477,0.549109935760498,-0.5771587491035461,-1.1259593963623047,0.8607364892959595,0.021587122231721878,-0.19539296627044678,1.116661787033081,-0.09692108631134033,-0.7245853543281555,-0.6160666942596436,0.15371926128864288,0.11245611310005188,-0.5055832862854004,-0.6948394775390625,1.0881805419921875,-0.3953305184841156,-0.6591839790344238,0.7904600501060486,1.1266896724700928,-1.54119873046875,-0.684711754322052,0.5108308792114258,-0.36388641595840454,-0.4298957586288452,0.24744291603565216,0.9978591203689575,1.6694663763046265,-0.8380942344665527,-0.0728132501244545,-0.7215520739555359,0.908006489276886,0.36337926983833313,-0.05856309086084366,-1.1661697626113892,0.07444947212934494,0.43953442573547363,0.4325375556945801,-1.7751582860946655,0.2977602183818817,1.4047657251358032,0.8684406876564026,0.7433110475540161,0.35152044892311096,-0.033139657229185104,-0.6160863041877747,-1.0868449211120605,1.7478439807891846,0.1221209466457367,1.071097493171692,0.7003260254859924,1.5970301628112793,-0.8751717209815979,-0.17524048686027527,0.659735918045044,-0.6467542052268982,-0.7195345163345337,-0.524095356464386,-0.211760476231575,0.5595518946647644,-0.27703049778938293,0.1900278478860855,1.07523512840271,-0.5152133107185364,-0.2147594839334488,-0.387323796749115,-0.3771517276763916,0.5680153965950012,0.2920651435852051,-0.9816960692405701,0.7243417501449585,-1.2264591455459595,-0.22706152498722076,-0.31868961453437805,1.2888984680175781,0.5000343918800354,-0.6875200271606445,1.126700520515442,0.17045605182647705,-0.3186926245689392,-0.28905466198921204,-0.35182106494903564,-0.3472037613391876,-0.289268434047699,0.24807937443256378,1.6864069700241089,-0.7461462020874023,0.9216343760490417,-0.0678635761141777,0.3734436631202698,0.8313936591148376,0.621129035949707,0.1842707395553589,0.1986697018146515,0.058448676019907,-0.5937286019325256,0.37445536255836487,-0.42773711681365967,-0.6011779308319092,-0.6348986029624939,0.20855611562728882,0.10466331988573074,-0.009422975592315197,0.4495983421802521,0.14625123143196106,-0.2749449610710144,-0.49640315771102905,-0.20177561044692993,-0.06069852039217949,0.16511251032352448,-0.15307003259658813,-0.09085052460432053,0.03907372057437897,-0.22894001007080078,-0.036212194710969925,0.10284187644720078,0.5314460396766663,-0.9251568913459778,0.6147500872612,0.5623059272766113,-0.8399817943572998,-1.51811683177948,-1.717289686203003,-1.1351369619369507,1.232114315032959,0.8130713105201721,-0.05344522371888161,-1.0802122354507446,0.5434731841087341,0.10048199445009232,0.38923516869544983,0.4223862290382385,0.713166356086731,-0.011423355899751186,-0.3191267251968384,-0.038404833525419235,-0.5915884375572205,0.10159309208393097,-0.18594208359718323,-1.560327172279358,0.0913717970252037,0.4320288598537445,0.08021832257509232,0.14492233097553253,1.342826247215271,0.724134624004364,-0.7779286503791809,0.3895489275455475,0.5950064659118652,0.2217685580253601,0.5887482166290283,0.27608850598335266,-1.2333928346633911,0.36455175280570984,-0.11296508461236954,0.14889904856681824,-0.8581168055534363,0.46481460332870483,-0.2601500451564789,0.6975922584533691,0.5740635991096497,0.5603392720222473,0.321958988904953,0.2769331932067871,-0.04836918041110039,-0.008328117430210114,0.10626702010631561,0.14467479288578033,0.692017674446106,0.4282008111476898,0.09285829961299896,0.6836439371109009,0.6184971332550049,-0.9131752848625183,0.2096530795097351,-0.8188082575798035,-0.9843944311141968,-0.48456618189811707,0.6993088722229004,-0.06441061943769455,0.3660244643688202,1.0788726806640625,-0.8294095396995544,0.12120193243026733,0.41106918454170227,-1.578001856803894,-0.0054391720332205296,-1.0994662046432495,-0.6218083500862122,0.1348808854818344,-0.9893997311592102,0.35088375210762024,-0.013553047552704811,0.0461575873196125,-1.7896429300308228,2.047062397003174,0.15918247401714325,0.4869047999382019,0.8185926079750061,-0.9074974656105042,0.01098224613815546,0.07624973356723785,-0.12884961068630219,0.04838334396481514,0.32471203804016113,0.083823062479496,-0.08613290637731552,0.012777132913470268,-0.22078029811382294,-1.2370539903640747,0.09065038710832596,0.6754308938980103,-0.42200571298599243,1.0028841495513916,-0.5369003415107727,-0.04428092762827873,-1.2014933824539185,1.0187121629714966,0.4979012906551361,1.3630894422531128,-0.34888792037963867,-0.2181083709001541,-0.8273096680641174,0.16278333961963654,0.5048179626464844,-0.03439348191022873,2.360959768295288,0.2845798134803772,0.4847649931907654,0.2717183530330658,1.6071661710739136,0.13765643537044525,0.8967303037643433,-0.02374865487217903,-0.09232570976018906,0.36708909273147583,-0.13632038235664368,-0.8366649150848389,-0.14557848870754242,0.9687802791595459,0.16475166380405426,-0.005215653218328953,-0.2532082498073578,0.06917280703783035,