{"type":"NeuralNetwork","sizes":[16,8,1],"layers":[{"weights":[],"biases":[]},{"weights":[[0.1615479290485382,-0.3309192359447479,-0.6570573449134827,1.2756825685501099,0.7911478877067566,1.223542332649231,-0.6471702456474304,0.28267258405685425,1.209784984588623,0.05858582630753517,-0.025887848809361458,-0.9538273811340332,0.11174672096967697,-0.09057165682315826,-1.567244052886963,-0.6399886012077332],[-2.636096477508545,3.1410129070281982,0.4478819668292999,3.7540409564971924,-4.061464309692383,-0.43461498618125916,-0.5171881318092346,-1.0958222150802612,0.4662512540817261,1.9458658695220947,-2.2690834999084473,0.5257776379585266,1.9471763372421265,-3.2172725200653076,1.046223521232605,-1.7496212720870972],[0.0817023441195488,0.1517517864704132,1.3038135766983032,-0.329811155796051,0.6131628155708313,-1.6245709657669067,-0.3336132764816284,-0.0770888477563858,0.2998512387275696,-1.4155330657958984,0.28760769963264465,-0.4890890121459961,-0.8002648949623108,-0.3836521506309509,-0.6869408488273621,-0.12972532212734222],[0.16795076429843903,0.22879116237163544,0.6475884914398193,0.26834508776664734,0.37934377789497375,0.4147379398345947,0.7810858488082886,0.07203394919633865,-1.3533602952957153,0.5580740571022034,-0.14821819961071014,0.922549843788147,-0.32676830887794495,-1.4814156293869019,0.7819988131523132,-0.05452439934015274],[0.5099751353263855,0.127081036567688,1.943200707435608,-0.11373921483755112,0.4969765841960907,-2.8150532245635986,-0.13811886310577393,-0.2116369754076004,0.9307242631912231,-2.4551939964294434,0.7859992384910583,-0.7756657004356384,-1.4484169483184814,-0.014851131476461887,-0.6702845096588135,-0.2292545884847641],[0.3699663281440735,0.1815374493598938,0.5479645133018494,0.578070878982544,-0.1303304135799408,-0.2647324800491333,-0.1257733702659607,-0.25358670949935913,-0.6131568551063538,0.48886528611183167,-0.28129881620407104,-0.2980040907859802,1.2189372777938843,0.1189364343881607,-0.6137511134147644,-0.36136096715927124],[0.5385195016860962,0.26855042576789856,0.6716453433036804,-0.3016699254512787,0.9817377924919128,0.4269537627696991,0.7914319038391113,0.8953794836997986,0.24451936781406403,0.06604773551225662,-0.10177527368068695,0.5419788956642151,-0.6495171189308167,-0.4333706498146057,0.7503143548965454,1.2138539552688599],[-0.2756386995315552,-0.6270330548286438,-1.0858243703842163,0.04487265646457672,-1.054010033607483,0.36453503370285034,-1.1953814029693604,-0.714005708694458,-0.8185815215110779,-0.1764470338821411,-0.3666470944881439,-1.070106029510498,1.7994282245635986,0.7390036582946777,-1.5962908267974854,-1.4225411415100098]],"biases":[-0.1864292472600937,0.9824835658073425,-0.6180403828620911,0.10951529443264008,-0.7948922514915466,-0.2915222942829132,-0.48180699348449707,-0.18477144837379456]},{"weights":[[-3.7084274291992188,7.635965347290039,-2.405393123626709,1.7570151090621948,-4.674992084503174,-2.300689935684204,1.9914907217025757,-4.29494047164917]],"biases":[-2.2283787727355957]}],"inputLookup":null,"inputLookupLength":0,"outputLookup":null,"outputLookupLength":0,"options":{"inputSize":0,"outputSize":0,"binaryThresh":0.5},"trainOpts":{"activation":"sigmoid","iterations":50,"errorThresh":0.005,"log":false,"logPeriod":10,"leakyReluAlpha":0.01,"learningRate":0.3,"momentum":0.1,"callbackPeriod":10,"timeout":"Infinity","beta1":0.9,"beta2":0.999,"epsilon":1e-8}}
