{"type":"LSTM","options":{"inputSize":47,"inputRange":47,"hiddenLayers":[20,20],"outputSize":47,"decayRate":0.999,"smoothEps":1e-8,"regc":0.000001,"clipval":5,"maxPredictionLength":100,"dataFormatter":{"indexTable":{"0":42,"1":5,"F":0,"r":1,"a":2,"n":3,"k":4,"L":6,"e":7,"o":8,"E":9,"x":10,"u":11,"s":12,"i":13,"A":14,"m":15,"y":16,"C":17,"h":18,"'":19,"S":20,"l":21,"v":22,"T":23,"N":24,"p":25,"d":26,"I":27,"f":28,"t":29,"H":30,"g":31,"b":32,"j":33,"M":34,"B":35,"c":36,"w":37,"J":38," ":39,"W":40,"š":41,"D":43,"stop-input":44,"start-output":45,"unrecognized":46},"characterTable":{"0":"F","1":"r","2":"a","3":"n","4":"k","5":"1","6":"L","7":"e","8":"o","9":"E","10":"x","11":"u","12":"s","13":"i","14":"A","15":"m","16":"y","17":"C","18":"h","19":"'","20":"S","21":"l","22":"v","23":"T","24":"N","25":"p","26":"d","27":"I","28":"f","29":"t","30":"H","31":"g","32":"b","33":"j","34":"M","35":"B","36":"c","37":"w","38":"J","39":" ","40":"W","41":"š","42":"0","43":"D","44":null,"45":null,"46":null},"values":[{"input":"Franka","output":1},{"input":"Leone","output":1},{"input":"Exusiai","output":1},{"input":"Amiya","output":1},{"input":"Ch'en","output":1},{"input":"SilverAsh","output":1},{"input":"Texas","output":1},{"input":"Saria","output":1},{"input":"Nearl","output":1},{"input":"Lappland","output":1},{"input":"Ifrit","output":1},{"input":"Hoshiguma","output":1},{"input":"Liskarm","output":1},{"input":"Skadi","output":1},{"input":"Ceobe","output":1},{"input":"Frostleaf","output":1},{"input":"Eyjafjalla","output":1},{"input":"Melantha","output":1},{"input":"Bibeak","output":1},{"input":"Manticore","output":1},{"input":"Sussurro","output":1},{"input":"Firewatch","output":1},{"input":"Scavenger","output":1},{"input":"Bison","output":1},{"input":"Jessica the Liberated","output":1},{"input":"Mayer","output":1},{"input":"Magallan","output":1},{"input":"Wiš'adel","output":1},{"input":"logos","output":1},{"input":"John","output":0},{"input":"Smith","output":0},{"input":"Lorem","output":0},{"input":"Ipsum","output":0},{"input":"Michael","output":0},{"input":"Sarah","output":0},{"input":"David","output":0},{"input":"Alice","output":0},{"input":"Bob","output":0},{"input":"Test","output":0},{"input":"Dummy","output":0}],"characters":["F","r","a","n","k","1","L","e","o","E","x","u","s","i","A","m","y","C","h","'","S","l","v","T","N","p","d","I","f","t","H","g","b","j","M","B","c","w","J"," ","W","š","0","D","stop-input","start-output","unrecognized"],"specialIndexes":[44,45,46]}},"trainOpts":{"iterations":100,"errorThresh":0.005,"log":false,"logPeriod":10,"learningRate":0.01,"callbackPeriod":10,"timeout":"Infinity"},"input":{"rows":48,"columns":47,"weights":[-1.5402127504348755,-0.4770759344100952,-0.17831014096736908,1.847173810005188,-0.24039405584335327,-0.6925798058509827,1.816596269607544,-1.5316725969314575,-0.2956286072731018,1.7476658821105957,0.7543449997901917,-0.1825263649225235,-1.080998420715332,0.28253763914108276,-0.6524559855461121,1.001294732093811,-0.9934535026550293,-2.09690260887146,0.8807512521743774,0.2523910403251648,0.2731263339519501,-0.5269575715065002,-0.31128382682800293,1.2185711860656738,1.2784472703933716,-1.528645396232605,-1.149819016456604,0.4923679828643799,2.7987983226776123,2.8085777759552,0.9083914160728455,-0.13171710073947906,1.995786190032959,1.0640257596969604,-1.5852137804031372,2.4265384674072266,-1.4691693782806396,-0.5727124810218811,-0.22015869617462158,-0.7333090901374817,0.9769131541252136,0.21872515976428986,-1.5636457204818726,0.022137733176350594,0.5195111632347107,1.1624163389205933,-1.0000996589660645,0.4376238286495209,-2.581672430038452,0.7073677778244019,-0.1431816667318344,4.583506107330322,2.743025541305542,7.454128742218018,-0.6623666286468506,-8.911492347717285,6.212301731109619,4.744717121124268,-1.3468657732009888,-3.457414388656616,0.6608673334121704,-1.5547295808792114,2.0556604862213135,-6.799471855163574,-6.4384236335754395,4.114123344421387,-15.150578498840332,9.512646675109863,-5.54946231842041,0.5016824007034302,-6.511878490447998,1.9713375568389893,3.710179328918457,-6.701931953430176,11.86782455444336,12.135677337646484,4.7302937507629395,0.6721474528312683,-3.0031020641326904,-0.629414439201355,8.417566299438477,-7.9404988288879395,-11.746451377868652,-1.5900843143463135,4.835169792175293,-3.541163444519043,5.700672626495361,-5.3182373046875,0.8939129114151001,-1.8299641609191895,9.754171371459961,-5.627965450286865,-5.4540910720825195,3.5863823890686035,5.937667369842529,-6.144473552703857,-1.8361201286315918,-0.2520800530910492,0.016216376796364784,2.233370065689087,-3.133181571960449,-1.0049651861190796,-0.33789804577827454,-2.137838363647461,8.20212173461914,0.4225417673587799,-6.19816255569458,-1.4633747339248657,3.9687867164611816,2.326411247253418,0.9469010233879089,0.07768318802118301,-0.4493654668331146,2.0565614700317383,3.6786139011383057,3.074925422668457,1.440424919128418,-3.070643663406372,4.2769927978515625,3.620229721069336,-1.122377634048462,6.9080491065979,1.9802870750427246,2.4827322959899902,-2.6953773498535156,-0.9241635799407959,0.6994660496711731,-6.014729976654053,-1.5442436933517456,-0.9911657571792603,2.0175976753234863,3.2160654067993164,1.9514824151992798,2.655160665512085,-0.40810826420783997,-1.7193104028701782,2.1928670406341553,-5.469242095947266,-3.7431833744049072,0.15030625462532043,0.6599709987640381,1.3160014152526855,-1.0278520584106445,0.8385214805603027,2.6699013710021973,-0.6058272123336792,2.311462163925171,0.06805769354104996,-2.8821372985839844,-1.8582175970077515,-3.025993585586548,0.42596226930618286,1.360026240348816,-0.6990979313850403,-1.5803468227386475,2.302438735961914,-0.3204305171966553,-4.88020133972168,0.2904995083808899,1.0387824773788452,1.3968167304992676,3.23868989944458,0.8184658288955688,4.46165132522583,4.319790363311768,-1.186423659324646,-3.5674502849578857,-3.3812427520751953,-2.342374086380005,2.9203133583068848,-0.5261852741241455,1.1626533269882202,-2.8584237098693848,0.1806676983833313,-2.9558725357055664,0.32540497183799744,2.0737719535827637,-4.6692633628845215,-4.016156196594238,-5.094938278198242,2.0500924587249756,1.0573431253433228,2.9409005641937256,0.9445764422416687,-5.86058235168457,3.9870452880859375,2.007392406463623,-2.6205804347991943,-5.060661792755127,-3.9049291610717773,-7.288265705108643,2.628868818283081,2.167989730834961,-2.6871590614318848,2.7310426235198975,-3.0279293060302734,-4.378674030303955,3.6557254791259766,2.983001708984375,-2.595938205718994,-3.3837053775787354,5.204076766967773,-4.407783508300781,4.691047191619873,0.5325658917427063,-4.047724723815918,0.8944352865219116,3.2957327365875244,-2.58951997756958,0.8565166592597961,-0.9123222827911377,1.4989776611328125,2.198406457901001,-0.9875777959823608,0.5973594784736633,3.574021577835083,0.9817853569984436,2.323436737060547,-5.166178226470947,-6.370339393615723,-0.9961404204368591,1.6618000268936157,-1.141000747680664,3.6150901317596436,-3.596264123916626,2.863687515258789,1.5298248529434204,1.32944655418396,-2.6583456993103027,-1.8371429443359375,-1.78322434425354,1.5980483293533325,3.6741552352905273,0.3405391275882721,-2.224256753921509,-2.4176175594329834,7.978837013244629,1.2874743938446045,-1.7028005123138428,1.4532065391540527,4.540011882781982,-1.6605514287948608,1.2123725414276123,5.07535457611084,4.5957465171813965,-6.229931354522705,6.810323238372803,7.4204912185668945,-0.17261402308940887,1.3606146574020386,-7.541264533996582,-1.5380158424377441,6.974348068237305,3.6730732917785645,-2.579313039779663,-1.9755967855453491,5.193254470825195,-1.0116783380508423,0.12730121612548828,-2.025421380996704,4.032411575317383,5.466955184936523,-4.970655918121338,-1.3816684484481812,-10.551549911499023,12.707140922546387,2.0365302562713623,-0.44319602847099304,3.5281155109405518,3.5911858081817627,-2.8501250743865967,6.8222503662109375,-1.5124281644821167,0.09844334423542023,-1.4655076265335083,4.62355899810791,0.10962115228176117,4.387044429779053,3.4352593421936035,-0.23404669761657715,-2.795586585998535,3.7781362533569336,1.648833155632019,-2.521486520767212,0.16976286470890045,0.24468357861042023,0.3378106951713562,-1.2092833518981934,-2.6316213607788086,-2.0445914268493652,-1.9663898944854736,-2.151247024536133,2.605152130126953,-2.6985292434692383,-0.7199419736862183,-1.7393217086791992,1.587931513786316,0.8824080228805542,-0.08522450178861618,0.6566888689994812,1.096545934677124,2.491309642791748,0.6196590065956116,2.1980581283569336,2.64304780960083,-0.7136258482933044,2.233900785446167,1.1270331144332886,-1.3859670162200928,3.8268723487854004,-1.1361163854599,-0.5167901515960693,-1.5993452072143555,2.601869583129883,0.45230406522750854,-1.7559378147125244,-2.2827000617980957,0.047524094581604004,-0.5112037062644958,0.3261577785015106,0.17545847594738007,2.0304715633392334,0.0798022449016571,0.7373201847076416,4.10888147354126,1.3732742071151733,-1.7858803272247314,-0.3537349998950958,-0.9930578470230103,8.49826431274414,-2.229891061782837,-3.678100824356079,7.284921646118164,-3.0006322860717773,3.2000808715820312,-1.5261235237121582,-5.659310817718506,4.1939921379089355,-5.169927597045898,1.8939836025238037,2.0201644897460938,2.0271811485290527,-2.2984087467193604,-2.9239416122436523,1.4370330572128296,-4.736402988433838,6.762503623962402,4.232585906982422,3.029663324356079,6.064939975738525,8.249494552612305,8.072796821594238,5.341660499572754,2.2433533668518066,-2.0981509685516357,-5.604476451873779,2.3186042308807373,-2.609269857406616,-1.5682882070541382,3.647509813308716,-0.19283612072467804,1.9017205238342285,1.117160677909851,5.448256015777588,1.0903863906860352,-1.8764687776565552,-0.19684234261512756,-9.647162437438965,-1.7388213872909546,4.29559850692749,7.8087968826293945,8.855828285217285,3.607517719268799,2.041503429412842,5.402458667755127,-4.121532440185547,-0.13806559145450592,0.11101274192333221,-2.274890661239624,-0.8649376630783081,1.2124831676483154,-4.624629020690918,3.237013339996338,0.47529399394989014,2.4372682571411133,-2.884570837020874,0.880124568939209,-2.8199965953826904,0.375163197517395,6.352574825286865,-3.733675718307495,2.172542095184326,8.463963508605957,-3.738685369491577,-0.2781831622123718,3.4658751487731934,-2.1364269256591797,0.4838085174560547,-3.999183177947998,1.2429680824279785,5.456242561340332,2.476796865463257,2.383913516998291,1.6137537956237793,-3.776383876800537,0.6675544381141663,-2.9380037784576416,-4.046417236328125,0.29023268818855286,-2.24939227104187,3.628507137298584,2.3651697635650635,2.8670880794525146,-1.0698063373565674,4.854062080383301,2.3410143852233887,-0.9646515250205994,-6.373883247375488,1.2614450454711914,-0.9984965324401855,-0.016532666981220245,-0.5581334233283997,-0.9534700512886047,1.279296636581421,-0.626486599445343,2.375717878341675,-4.399199485778809,1.9779380559921265,0.5361509919166565,-1.0965230464935303,2.73481822013855,-1.308321237564087,0.6068301796913147,1.778091549873352,-4.2336530685424805,-1.0915451049804688,-0.30326658487319946,0.9415429830551147,-1.9128373861312866,2.3461062908172607,-0.1423512101173401,-4.368947982788086,-2.5048604011535645,3.331545829772949,-2.991182327270508,-2.0113332271575928,-2.3632678985595703,-1.75511634349823,6.184889316558838,5.073451995849609,7.097322940826416,1.9082671403884888,-1.431983232498169,1.736965298652649,-1.872979760169983,-3.371273994445801,4.261966705322266,-1.5847867727279663,-2.0633230209350586,4.101011276245117,3.4417316913604736,3.468010902404785,6.5219526290893555,-3.3807294368743896,-4.9301934242248535,-4.522665977478027,4.998737335205078,-2.8594424724578857,-0.943061888217926,4.343441486358643,1.296377182006836,10.955343246459961,8.416182518005371,1.7949755191802979,7.60044002532959,12.586262702941895,-5.2706122398376465,-4.136323928833008,2.546783208847046,-10.722197532653809,-15.241910934448242,3.1363842487335205,6.005279541015625,-11.857987403869629,14.097065925598145,-12.046598434448242,-4.62927770614624,1.9766936302185059,2.5780913829803467,-7.284572124481201,7.8898491859436035,-1.6427812576293945,-0.977582573890686,3.9892115592956543,-15.879298210144043,0.6281696557998657,-3.791472911834717,-1.5693143606185913,-9.382637977600098,-13.156113624572754,12.923044204711914,8.106548309326172,-4.973475456237793,-2.587740182876587,7.849631309509277,4.256300926208496,0.48354434967041016,-23.80245018005371,0.6643585562705994,4.9153971672058105,-1.917588472366333,0.006762749049812555,-1.4453121423721313,-2.7761077880859375,2.467305898666382,-3.3821165561676025,-1.5806691646575928,-3.079225778579712,0.27446770668029785,3.493746757507324,11.167972564697266,-18.920299530029297,5.566699504852295,-0.7798275351524353,-8.223713874816895,5.688240051269531,-11.754558563232422,-5.350135326385498,-0.5404757261276245,11.271942138671875,-9.625205993652344,-3.6447062492370605,1.6259589195251465,4.649202823638916,7.022440433502197,9.750748634338379,13.035547256469727,5.209134578704834,14.686066627502441,5.68211030960083,16.873016357421875,-3.6341114044189453,-5.170318603515625,-4.63283634185791,-11.674239158630371,-2.167543888092041,-1.2351990938186646,4.654751777648926,-4.441962718963623,9.698753356933594,0.06721071153879166,11.55775260925293,10.34168529510498,-10.502312660217285,-9.338214874267578,-10.335726737976074,-9.99368667602539,10.631957054138184,1.4363174438476562,6.314816474914551,3.409907341003418,6.219939231872559,12.592938423156738,-14.0338716506958,5.4817585945129395,0.8151663541793823,-1.9783895015716553,3.658576726913452,-4.155866622924805,4.075522422790527,-5.049266815185547,-1.1788039207458496,8.134110450744629,1.9762457609176636,-0.5621302723884583,6.3395915031433105,5.364006996154785,2.5521974563598633,-3.890698194503784,-2.1739940643310547,-4.996342658996582,3.546142101287842,1.9399489164352417,6.872286319732666,-1.0241998434066772,5.096632480621338,9.53232479095459,0.0373050682246685,2.88435959815979,-1.4245487451553345,-2.4656333923339844,-7.201671123504639,-2.676980495452881,-4.1626200675964355,3.406275510787964,2.154491662979126,5.725593090057373,-3.3333702087402344,5.345131874084473,-2.5000534057617188,-1.4565095901489258,-4.232150554656982,-2.781108856201172,-7.532484531402588,5.3606390953063965,4.8107829093933105,12.227846145629883,-6.438569068908691,1.0813847780227661,7.607073783874512,-2.180800437927246,4.847255706787109,6.909628868103027,2.426095962524414,2.059169054031372,-4.696352958679199,1.4722890853881836,1.7859447002410889,-3.969635009765625,0.8903176784515381,0.5563684701919556,-5.503955364227295,-2.371619462966919,1.4602118730545044,-3.4738430976867676,0.06467991322278976,0.6979197859764099,-1.1914030313491821,-0.24277465045452118,2.457793951034546,0.8278238773345947,8.706342697143555,0.4671236276626587,2.065448045730591,2.237027645111084,-2.382141590118408,-3.441263437271118,-9.154707908630371,-4.073269844055176,-2.1198902130126953,-0.7557274103164673,0.4405231773853302,0.23199819028377533,0.6333152651786804,-0.4189545810222626,1.3936476707458496,3.208552122116089,-2.580515146255493,0.39921194314956665,-0.008776583708822727,-0.22289147973060608,-0.6975321173667908,1.5996160507202148,4.014576435089111,0.15278400480747223,1.4817732572555542,0.5094833970069885,-4.640192031860352,1.4867475032806396,1.487640380859375,-0.6459794640541077,2.8953230381011963,-1.6573258638381958,1.8834538459777832,3.9427926540374756,-2.593900203704834,3.7374792098999023,-1.7601511478424072,-0.20343424379825592,0.5052292346954346,0.048626858741045,1.1366196870803833,-0.874023973941803,2.8338992595672607,3.3210015296936035,-4.983748435974121,-0.7138011455535889,-1.1513861417770386,0.48426422476768494,-0.038117241114377975,-1.0493096113204956,2.8202855587005615,-2.3639872074127197,-1.6813185214996338,-4.24002742767334,0.7094244360923767,-1.5155353546142578,0.5992509126663208,-3.1887941360473633,-5.499138355255127,2.365656614303589,-4.164342880249023,1.4487367868423462,4.2664713859558105,-4.6715288162231445,-0.3074132204055786,0.12265211343765259,-1.811244249343872,-0.7998488545417786,-2.949753999710083,-1.9674582481384277,-5.606698036193848,-1.1993917226791382,1.7571748495101929,-4.100921154022217,0.19691675901412964,-1.5685149431228638,-3.7583587169647217,2.0488181114196777,-2.7068030834198,3.4956002235412598,1.1182526350021362,1.8012022972106934,3.639165163040161,6.509091854095459,-4.122477054595947,3.376801013946533,2.728041172027588,2.6177332401275635,1.763155460357666,-0.24198491871356964,5.360497951507568,-7.399658203125,2.4169442653656006,-4.216727256774902,3.1990468502044678,-5.808955192565918,-3.2421445846557617,2.4909508228302,-2.7798261642456055,3.30283260345459,2.2046265602111816,9.441452980041504,6.086134910583496,-2.017333984375,6.038389682769775,-6.5933380126953125,5.656921863555908,8.545759201049805,-0.28284597396850586,8.294325828552246,-2.9374375343322754,-1.7781331539154053,2.6601715087890625,-3.0908010005950928,1.8861056566238403,-8.794119834899902,-0.9829875230789185,11.542271614074707,1.8217647075653076,-5.55406379699707,-2.4374167919158936,1.0463392734527588,8.776448249816895,6.5230231285095215,-5.071943759918213,1.4553101062774658,-0.4518575072288513,-0.0738799050450325,4.274230480194092,3.61808443069458,-9.953265190124512,-4.553134918212891,-1.1751230955123901,4.663778305053711,0.568550705909729,-0.5096811652183533,-6.705900192260742,1.2527425289154053,6.659452438354492,-2.5151169300079346,-1.0897634029388428,3.6847803592681885,2.835888385772705,-3.599202871322632,-2.347644567489624,-6.620137691497803,2.1097919940948486,-1.3606492280960083,-0.3688221275806427,-9.842418670654297,-2.0512609481811523,3.4767825603485107,0.9825172424316406,-3.2065370082855225,-6.0947980880737305,7.4122419357299805,-3.0051493644714355,0.7549851536750793,0.14753863215446472,0.41463902592658997,-0.6045128703117371,2.7420108318328857,-2.0056190490722656,2.8502697944641113,-1.3946013450622559,-0.6603733897209167,-0.6517208814620972,-0.8337921500205994,-4.208453178405762,-1.1408251523971558,2.664344310760498,9.665879249572754,-0.27500826120376587,1.5034205913543701,6.387028694152832,-9.219771385192871,-5.554543972015381,1.7966808080673218,6.026130199432373,-3.2755167484283447,-2.174032688140869,-2.598935604095459,10.541027069091797,0.16026657819747925,-2.253558874130249,-4.707007884979248,16.199676513671875,-6.018405914306641,-0.17444302141666412,-4.5584306716918945,-7.480476379394531,-0.5712737441062927,1.9807552099227905,-10.817424774169922,-3.9099247455596924,2.714644432067871,8.054315567016602,2.8591935634613037,-2.9959189891815186,5.408059597015381,13.268732070922852,8.938142776489258,-1.721099615097046,1.6553231477737427,-5.529084205627441,2.834526777267456,0.29220151901245117,-11.320324897766113,-1.4646018743515015,-2.087266445159912,-0.9459357261657715,7.925895690917969,1.9295086860656738,-0.9304051995277405,-15.050461769104004,-6.084828853607178,-10.702913284301758,-3.3843722343444824,-8.568646430969238,2.1595563888549805,-5.444170951843262,6.063033103942871,2.5319204330444336,-7.015311241149902,4.303488254547119,6.790194034576416,-3.7000856399536133,-7.840100288391113,2.8459901809692383,-3.8306760787963867,-1.4210058450698853,2.2818689346313477,-8.123367309570312,3.8702573776245117,2.8245489597320557,-10.369985580444336,-11.614105224609375,-6.414712905883789,0.4738667905330658,11.941869735717773,-2.6846604347229004,11.147187232971191,-2.848475694656372,10.22380542755127,1.790020227432251,-13.495224952697754,-12.577092170715332,0.46301040053367615,2.4585607051849365,-15.325072288513184,-0.8765980005264282,-2.1057357788085938,-1.713563323020935,14.870908737182617,3.6696388721466064,-2.546584367752075,-5.325345516204834,0.6016026139259338,3.4503307342529297,-3.972884178161621,-3.5199480056762695,0.07586629688739777,-4.8152008056640625,-3.634489059448242,-3.0777814388275146,2.52458119392395,-2.43453311920166,-7.32729434967041,0.8738859295845032,-3.0235931873321533,-0.3305712640285492,1.337768316268921,-1.6501511335372925,-2.5711722373962402,-1.4701851606369019,6.508975505828857,-6.2149529457092285,2.7712242603302,1.1617815494537354,-4.352325439453125,5.1259307861328125,6.337027072906494,-4.984949588775635,-2.793142557144165,-2.2689545154571533,4.5009074211120605,3.3260281085968018,-4.130244255065918,3.799557685852051,-1.5536667108535767,1.2134813070297241,1.9002020359039307,-1.952392578125,-3.1929588317871094,3.592672109603882,0.6946200132369995,-1.4668108224868774,3.9108362197875977,-1.6879868507385254,-0.08610407263040543,3.86411714553833,-5.379194736480713,4.484683990478516,-0.49345704913139343,-4.506640911102295,-4.636603832244873,5.953415393829346,3.4575884342193604,-2.3569209575653076,15.432215690612793,10.177149772644043,-4.4515275955200195,12.100424766540527,-1.980330467224121,20.796630859375,-1.776286244392395,-11.595210075378418,7.333001613616943,-6.229501724243164,-8.085623741149902,8.732431411743164,6.989670753479004,3.766308307647705,6.258769989013672,-1.6340434551239014,-2.498741865158081,-10.036934852600098,8.394043922424316,2.505890369415283,-1.9712717533111572,8.423104286193848,-0.15402796864509583,3.450134754180908,-10.364316940307617,-1.9869376420974731,-4.509591579437256,-8.583504676818848,-11.023984909057617,-2.728342056274414,-2.1288514137268066,-1.9432958364486694,3.3969945907592773,-7.267706871032715,-1.2941293716430664,9.161401748657227,-1.8646903038024902,-5.8906779289245605,-3.7022507190704346,-2.5949299335479736,-0.03326626494526863,-1.0852227210998535,6.26605749130249,-2.9184305667877197,6.144594192504883,4.448058128356934,-7.195122241973877,-0.38747698068618774,-8.118338584899902,-8.172588348388672,-1.7444874048233032,-1.2369941473007202,-0.5563579201698303,3.455840826034546,3.2237703800201416,-5.317961692810059,1.0774613618850708,6.796135425567627,1.2511868476867676,-2.5781407356262207,4.836119651794434,-2.8262569904327393,7.308417320251465,-2.4998867511749268,-4.165020942687988,-2.9112534523010254,-2.18856143951416,-4.203889846801758,-1.2055031061172485,-0.8744999170303345,-2.3130855560302734,5.2968597412109375,-1.7233545780181885,0.46868133544921875,2.5924205780029297,3.330545425415039,4.277703762054443,-5.835691452026367,1.909921646118164,0.20124951004981995,-1.1977299451828003,-2.1283254623413086,-4.323455333709717,2.3181395530700684,0.3908255994319916,-2.8293843269348145,-2.7775025367736816,-3.652597427368164,-1.2028506994247437,2.640183448791504,-1.3896114826202393,0.366801917552948,0.6717734336853027,2.504760265350342,-0.4093351364135742,-0.44919148087501526,4.813160419464111,-3.4773318767547607,0.3276197016239166,6.901276588439941,-6.961112976074219,-0.6190986633300781,8.4859037399292,-3.0787110328674316,-4.3614654541015625,5.517881393432617,5.695638179779053,-5.285816192626953,6.214358806610107,-3.7945942878723145,-0.31733790040016174,-1.9290741682052612,0.394032746553421,1.0023541450500488,-3.887962818145752,7.219283103942871,4.740779876708984,-1.1685681343078613,-2.4072909355163574,1.5005980730056763,3.193528890609741,-4.2602386474609375,-2.2775444984436035,-5.99354362487793,0.13797606527805328,-0.8860304355621338,1.7540723085403442,1.8738030195236206,5.830248832702637,0.9237272143363953,2.1630516052246094,-10.133162498474121,-4.268099308013916,-0.33651813864707947,-0.3234323561191559,-4.691031455993652,-4.117220401763916,1.752478837966919,0.7279819846153259,2.7956271171569824,1.4109370708465576,-2.147451162338257,1.1015231609344482,9.62462329864502,-6.620373249053955,-4.582094192504883,4.541455268859863,-8.991767883300781,-3.2685952186584473,0.7902505993843079,-3.661996841430664,-6.069458484649658,3.138580799102783,11.427417755126953,-10.110726356506348,10.019890785217285,-6.752236366271973,-13.311484336853027,7.694588661193848,-5.327400207519531,1.32074773311615,0.8745459914207458,7.190662860870361,1.538002848625183,-0.10337360948324203,-4.6191911697387695,-0.04098153114318848,0.13990464806556702,-9.747302055358887,-4.397245407104492,-16.013778686523438,9.683113098144531,5.459299564361572,2.0715911388397217,2.3303892612457275,12.819437980651855,0.3714037239551544,3.547001361846924,-9.189620971679688,-6.748178482055664,-2.047553300857544,1.9037796258926392,13.39880084991455,3.384702682495117,3.596783399581909,4.015938758850098,-0.32880982756614685,1.0436699390411377,-1.3706480264663696,-9.572358131408691,-4.307354927062988,1.9826576709747314,1.8007121086120605,-12.651382446289062,9.089776992797852,-0.29123955965042114,-1.43081533908844,8.87164306640625,7.451100826263428,-8.828362464904785,-13.448156356811523,2.7467448711395264,-9.395672798156738,7.947502613067627,2.2661821842193604,-5.725066661834717,0.08263885974884033,-7.280869960784912,-1.9017126560211182,-4.538466930389404,1.448792815208435,-1.7763900756835938,9.389843940734863,-1.1716574430465698,-4.517421245574951,-4.3570122718811035,4.239743232727051,9.651493072509766,-7.392755508422852,-1.9472439289093018,-0.5504427552223206,-2.1010031700134277,-11.788649559020996,-3.0354137420654297,-0.3852497935295105,5.5834784507751465,-0.02297963760793209,-0.332098126411438,-7.3777923583984375,3.6331231594085693,-1.3940938711166382,-3.5329136848449707,-2.9851906299591064,4.664272785186768,-1.2384122610092163,4.679511547088623,12.02649974822998,4.548160552978516,-21.183441162109375,11.095012664794922,3.918973445892334,-15.686081886291504,10.125850677490234,8.165074348449707,-5.260322570800781,13.556540489196777,19.504436492919922,-10.170815467834473,1.2753530740737915,-0.13209639489650726,-14.455594062805176,7.610769271850586,3.1621134281158447,-7.732693672180176,-22.063236236572266,7.1046977043151855,-2.0094213485717773,-1.453300952911377,0.5156237483024597,-5.935295104980469,19.242374420166016,7.137645721435547,-4.284955978393555,-3.5710368156433105,-4.669210433959961,-9.778069496154785,1.034166693687439,-22.04967498779297,-2.9085707664489746,-4.235049724578857,-4.6214680671691895,7.970263957977295,6.828061580657959,-4.500731945037842,10.458401679992676,0.33138224482536316,-5.522369384765625,12.656562805175781,-9.06341552734375,-16.6157169342041,-5.064409255981445,7.4306960105896,-6.608970642089844,14.33903980255127,0.8789851665496826,-7.6885199546813965,-6.987277030944824,-8.978963851928711,3.988517999649048,2.118593454360962,7.813462257385254,-6.58709716796875,-5.124842643737793,-8.413814544677734,18.074872970581055,-1.5343132019042969,-1.8471349477767944,3.0532708168029785,8.803245544433594,-2.367088794708252,-9.211867332458496,15.831541061401367,8.365612030029297,5.096673011779785,-9.179265022277832,0.11331121623516083,-5.681527137756348,7.757383823394775,-3.7724673748016357,-5.010386943817139,-17.823015213012695,-4.308578968048096,-6.356271743774414,-9.949827194213867,-9.726580619812012,-8.475320816040039,11.63776969909668,-0.2319730967283249,2.1236002445220947,-0.22707581520080566,8.352567672729492,14.590681076049805,-2.312025308609009,-13.11551284790039,6.1200666427612305,0.2223283052444458,-4.512360572814941,12.084030151367188,5.111083030700684,7.234842300415039,2.720435619354248,-2.205512046813965,2.9288523197174072,3.84592604637146,0.8909009099006653,-5.968019962310791,5.950708389282227,10.340292930603027,0.035698577761650085,3.3124451637268066,11.763650894165039,2.613982915878296,6.824982166290283,0.8313869833946228,-2.188135862350464,7.400488376617432,3.1968181133270264,-7.074823379516602,-5.125013828277588,-3.974191665649414,7.664270877838135,6.213944911956787,2.617314338684082,-1.3438166379928589,10.124797821044922,4.241764068603516,5.37043571472168,-2.5413362979888916,-0.6807354092597961,-2.4773032665252686,-1.6041193008422852,-6.19010591506958,-6.1057915687561035,6.379937171936035,-2.659085750579834,-2.9209651947021484,6.225467205047607,-1.257995367050171,4.989616870880127,-1.3194749355316162,-3.2290945053100586,3.2257626056671143,-7.933323860168457,-6.208274841308594,-3.775001049041748,6.5835065841674805,5.019735813140869,1.0245213508605957,-12.058503150939941,-1.1000537872314453,-16.75177001953125,-14.165472984313965,0.4694826900959015,4.800934791564941,11.354320526123047,-1.8366944789886475,5.632944107055664,9.149362564086914,6.091917037963867,11.632905960083008,-6.113453388214111,7.489404678344727,11.57369327545166,-2.6609654426574707,2.988520622253418,10.021615028381348,-1.553004503250122,8.094415664672852,13.59243392944336,0.11689690500497818,4.7559709548950195,13.746922492980957,11.564225196838379,-10.521685600280762,-9.00866413116455,1.084139108657837,-4.173742771148682,-2.1825711727142334,4.265323162078857,-7.291191577911377,11.86398983001709,-5.1005401611328125,9.497001647949219,9.28271484375,1.5126210451126099,-8.433611869812012,11.84068775177002,9.536202430725098,0.6676844954490662,-3.388446807861328,-7.873123645782471,11.997291564941406,6.289744853973389,1.4715642929077148,-9.04669189453125,-3.8405840396881104,7.4397125244140625,-2.426159381866455,-3.0465173721313477,1.0833518505096436,-9.449220657348633,0.112420953810215,-3.2970519065856934,2.9066855907440186,-7.446998596191406,-3.4056220054626465,1.2976301908493042,-6.421569347381592,6.296807765960693,-1.9731591939926147,-0.9647156000137329,7.852384567260742,0.2718929052352905,7.850784778594971,-3.4066858291625977,4.663104057312012,8.546293258666992,7.163827419281006,-6.855684757232666,-5.085046291351318,5.312279224395752,8.255297660827637,10.25820541381836,0.7966570854187012,-0.049110833555459976,7.565363883972168,-4.208028793334961,-9.780396461486816,7.173586845397949,-8.272767066955566,3.6223056316375732,-4.179356098175049,0.009111549705266953,1.537001132965088,9.630875587463379,-5.0640459060668945,-4.83433198928833,6.1315178871154785,-1.014276146888733,-2.602266788482666,-4.794963836669922,-6.672419548034668,-1.5422886610031128,-0.9283302426338196,1.7251757383346558,-2.281432628631592,0.3376188278198242,-0.9449384808540344,-12.752264976501465,1.5101940631866455,5.092417240142822,-4.442769527435303,-9.459409713745117,1.5367789268493652,-0.4843086004257202,5.888546466827393,-6.350129127502441,-1.1867468357086182,2.0462756156921387,-2.717409610748291,1.0287518501281738,-6.617036819458008,5.782060146331787,-0.6456447243690491,7.932366371154785,-4.863042831420898,0.9471086859703064,-3.6818835735321045,2.1653950214385986,3.0733981132507324,-2.576749324798584,-2.0184648036956787,-1.6880348920822144,1.5740951299667358,-5.4534010887146,-1.9884034395217896,0.011562918312847614,1.8626493215560913,-3.2460224628448486,-2.108736753463745,-3.170900344848633,3.2107431888580322,-3.8568990230560303,-0.9306768774986267,-0.6809013485908508,-2.9061810970306396,2.7045063972473145,22.3599853515625,2.881711483001709,-21.71166229248047,-8.713369369506836,-10.455061912536621,-14.322339057922363,-1.5428880453109741,1.6092627048492432,6.509397983551025,-8.473072052001953,23.968904495239258,-7.682222843170166,-3.6708476543426514,8.946345329284668,-2.781337022781372,4.161288261413574,3.2692582607269287,0.8059729337692261,2.4034974575042725,1.2981703281402588,-2.2879109382629395,14.330266952514648,25.97226333618164,-3.3268821239471436,-2.9073996543884277,-0.6925209760665894,10.686734199523926,4.705485820770264,-11.729216575622559,6.995039939880371,-28.71678352355957,-4.739717960357666,-0.5652341246604919,-26.947551727294922,-4.715213298797607,0.9614447951316833,4.225197792053223,13.933032989501953,12.448392868041992,-3.0642292499542236,1.5584170818328857,11.058873176574707,0.7777736186981201,-18.72557258605957,-0.6840349435806274,1.9722899198532104,9.362967491149902,6.032679080963135,3.747426748275757,1.8616944551467896,8.077884674072266,-1.971303939819336,11.210506439208984,-4.430607795715332,-9.152956008911133,3.506223678588867,-4.818766117095947,-3.884032964706421,6.28727388381958,3.4557700157165527,-2.6792232990264893,6.893534183502197,-6.304771423339844,-3.566563367843628,4.698503017425537,2.7160561084747314,-4.550593376159668,6.227407932281494,4.186827659606934,15.142245292663574,-3.798737049102783,-7.368116855621338,-5.015379905700684,-4.393298625946045,-9.067485809326172,2.7881174087524414,-8.387776374816895,12.8709077835083,6.335312843322754,3.9613945484161377,-0.9362580180168152,5.963127613067627,-3.316593647003174,2.2692739963531494,-3.0382590293884277,-16.09493637084961,-1.2402324676513672,2.203152656555176,0.4303359091281891,-0.7504149079322815,-0.1415291279554367,6.164722919464111,1.4146888256072998,-4.5947675704956055,-9.169648170471191,-2.9250831604003906,-4.987708568572998,8.837873458862305,3.5776937007904053,-7.8257341384887695,1.7818670272827148,3.479360342025757,-8.771357536315918,2.875347137451172,9.95883846282959,-9.047135353088379,-5.341639041900635,2.199726104736328,-4.410794734954834,14.410233497619629,2.3685669898986816,4.528640270233154,-6.285064697265625,-4.023854732513428,1.0489352941513062,0.3704507052898407,10.542719841003418,-4.068576335906982,10.348705291748047,-2.9895124435424805,-4.972209930419922,-6.106362342834473,-1.1544480323791504,6.813663959503174,-6.355645179748535,-1.6875488758087158,-1.6172696352005005,7.280709743499756,-9.52392578125,-4.786911964416504,1.5814183950424194,11.209671974182129,3.1091034412384033,-1.2352209091186523,-3.4031879901885986,1.2822297811508179,2.2501509189605713,-1.472691297531128,-1.2371138334274292,1.1685209274291992,0.24204345047473907,7.383828163146973,3.0574791431427,18.39430809020996,7.729857444763184,-0.5643755197525024,17.960350036621094,-8.024335861206055,-11.111320495605469,2.8059351444244385,-21.369081497192383,-19.420434951782227,16.2176513671875,0.2893584072589874,-2.9111499786376953,29.83428192138672,-10.181683540344238,-0.11105908453464508,-11.294052124023438,9.306838989257812,6.5580153465271,-4.405309677124023,5.671130180358887,-6.483236789703369,8.594882011413574,-16.557422637939453,-1.0384994745254517,-3.226217269897461,-9.204442024230957,-9.709304809570312,-20.309844970703125,-2.143167018890381,1.3654147386550903,-3.524524688720703,-7.357958793640137,20.350996017456055,11.35373306274414,-8.498960494995117,-13.40317153930664,2.2719805240631104,3.339540481567383,0.3793962895870209,-5.992093086242676,-7.614606857299805,-16.317398071289062,4.200058460235596,1.0689016580581665,-11.44242000579834,-2.1659998893737793,-3.213385581970215,-5.227046966552734,3.7813827991485596,-6.753466606140137,-4.308270454406738,4.715506076812744,-4.641213417053223,3.736307144165039,0.682816743850708,4.795831203460693,-3.839482307434082,-0.7298540472984314,2.1888587474823,-8.469416618347168,7.0239362716674805,-0.7265493273735046,-5.8715033531188965,1.671761155128479,2.2507200241088867,-0.6665698885917664,-1.910521388053894,-1.136649250984192,1.844334602355957,6.353268146514893,-5.290443420410156,-2.973721981048584,-0.44321316480636597,1.74359130859375,5.649247646331787,-2.5721943378448486,-2.44443941116333,6.631968975067139,1.2045551538467407,-1.2007789611816406,2.7657806873321533,-5.415388584136963,7.160273551940918,2.8364322185516357,-5.616897106170654,2.5684688091278076,3.2072842121124268,-1.0175213813781738,1.401376724243164,4.856564044952393,4.975396156311035,-5.402958393096924,-5.484335899353027,-5.83904504776001,-0.017327897250652313,5.504856586456299,0.47555258870124817,-10.47934627532959,6.387260437011719,6.219308376312256,-3.2558040618896484,1.3957809209823608,5.170894145965576,-8.640291213989258,-9.526068687438965,-3.065310478210449,-4.50434684753418,5.007896423339844,1.0618029832839966,-3.0593390464782715,3.1931891441345215,-1.1542603969573975,2.1119182109832764,-3.5774288177490234,2.632854461669922,-5.637507915496826,3.823676824569702,-4.643172740936279,-1.6088972091674805,0.3900565803050995,-0.9645712971687317,6.11272668838501,-5.1759114265441895,-1.0819984674453735,-3.4361722469329834,10.076058387756348,-12.84766960144043,-6.790010452270508,4.774269104003906,7.62855339050293,7.971242904663086,-1.065704345703125,-1.5465975999832153,-2.0893776416778564,-0.209262415766716,6.625426769256592,-0.3482840955257416,2.727795124053955,2.6826114654541016,2.5056400299072266,-1.5416877269744873,3.9181275367736816,-2.5515568256378174,8.451042175292969,3.4969427585601807,-1.9567242860794067,5.025924205780029,-2.999748706817627,-4.758936405181885,2.771355152130127,-1.2818005084991455,-4.234041213989258,-6.693857192993164,1.135941743850708,-5.819007396697998,1.0353240966796875,-2.324526309967041,-13.42225170135498,-9.417093276977539,-7.556521415710449,3.747981071472168,1.0836108922958374,-5.151033401489258,-2.4008419513702393,11.24886417388916,7.491990566253662,0.6580651998519897,-0.21474787592887878,2.8328847885131836,2.4999349117279053,0.4421374201774597,-8.986560821533203,3.4389302730560303,-0.09546437859535217,-2.096839427947998,-0.21816058456897736,-0.5373584032058716,2.416092872619629,7.997148513793945,-3.185065507888794,-4.488210201263428,-5.815824031829834,4.06606912612915,-5.766280651092529,-9.46369743347168,8.8274564743042,2.337390422821045,6.664332866668701,-7.583071708679199,-9.290635108947754,27.595422744750977,-2.0482678413391113,-1.6975451707839966,2.683060646057129,-16.474674224853516,5.224333763122559,-13.33564281463623,5.830315589904785,-9.362587928771973,-2.0690231323242188,-9.437888145446777,-1.5151503086090088,8.883708953857422,0.7318674921989441,-10.00966739654541,-10.638298034667969,-7.806085586547852,2.0942201614379883,-23.668895721435547,-16.03484344482422,-0.7745106816291809,3.2812631130218506,11.73405647277832,-1.389301061630249,11.604022026062012,-0.9069744348526001,-0.5574904084205627,-11.707901954650879,-7.584282875061035,13.39285945892334,-3.518160343170166,-14.001195907592773,28.685943603515625,0.425462931394577,11.603511810302734,-2.754377841949463,-16.218965530395508,-14.572487831115723,0.18577875196933746,17.809484481811523,2.3155832290649414,-5.610918045043945,17.922040939331055,-9.885708808898926,-6.759044170379639,-12.058194160461426,5.861066818237305,1.056861162185669,-7.518810272216797,9.970373153686523,3.534592390060425,-6.032400131225586,2.319110155105591,4.258750915527344,-11.446816444396973,0.3433249592781067,-3.007288694381714,-17.931377410888672,6.626797199249268,2.4000635147094727,0.4553779363632202,-0.34256330132484436,-1.3575016260147095,-1.514634370803833,-6.353115558624268,-0.513961136341095,-2.284045934677124,15.109857559204102,-2.27717924118042,0.39815497398376465,0.4047735035419464,7.4696736335754395,14.350061416625977,-4.730020523071289,-0.24411320686340332,0.6199067234992981,11.40937328338623,-16.645008087158203,0.33992475271224976,1.708611249923706,1.1471534967422485,4.9142231941223145,-6.381518840789795,-1.5654261112213135,-0.8257050514221191,-1.9371309280395508,9.812894821166992,2.2417547702789307,-7.45810604095459,-0.9771586656570435,-4.7388176918029785,-3.2891857624053955,-5.8708109855651855,9.491482734680176,-8.161827087402344,1.524743914604187,9.682955741882324,-11.085493087768555,-9.51966381072998,-1.4476075172424316,8.846583366394043,-11.465950965881348,-10.41698932647705,7.536585807800293,-0.5606029033660889,10.398114204406738,-5.738377571105957,-5.093515872955322,10.136155128479004,7.2812395095825195,0.5584893822669983,-2.0397450923919678,-7.489865303039551,8.64628791809082,6.9871721267700195,-5.996510028839111,-11.549103736877441,0.5500500202178955,9.180183410644531,8.279693603515625,-10.893622398376465,-7.196590423583984,6.937593936920166,2.0407631397247314,-17.196794509887695,7.107840061187744,-9.849705696105957,10.238329887390137,4.308213233947754,-2.0735604763031006,6.310125827789307,3.4962081909179688,-4.940221786499023,-6.404814720153809,8.689743995666504,7.164332389831543,-8.528022766113281,-11.676992416381836,-15.927078247070312,-2.2675294876098633,-13.904769897460938,15.832500457763672,-4.292154312133789,-0.8030432462692261,15.062032699584961,-12.97940731048584,1.0478521585464478,12.593348503112793,-5.367740631103516,-3.999655246734619,7.305623531341553,-1.9190490245819092,5.731215000152588,12.51080322265625,-8.951269149780273,-6.484193325042725,-3.931842565536499,-5.856598854064941,-12.090726852416992,3.6112449169158936,-9.72892951965332,13.248896598815918,4.5254011154174805,20.322002410888672,8.323410034179688,7.127394676208496,14.673327445983887,-9.194671630859375,9.612810134887695,10.2431001663208,-1.5349229574203491,-4.773104190826416,-0.8391266465187073,16.79912757873535,3.965325355529785,8.820258140563965,0.5427508354187012,12.150646209716797,-3.405761957168579,-4.097414493560791,-2.5443363189697266,-4.085780143737793,-14.603251457214355,4.603579044342041,-11.410351753234863,-8.369462013244629,-15.096144676208496,0.8476637601852417,0.34844833612442017,-12.586671829223633,16.37413787841797,0.2914915084838867,-6.603851318359375,9.867076873779297,14.011063575744629,-15.399651527404785,-4.833773612976074,8.745362281799316,-27.99763298034668,16.135700225830078,-1.519327998161316,-3.846390962600708,-8.377193450927734,-3.380047559738159,-17.839143753051758,-15.433853149414062,-7.013795375823975,3.2520668506622314,22.11425018310547,-13.424946784973145,-8.801902770996094,-11.407125473022461,-1.3922913074493408,20.71953773498535,-12.630542755126953,-3.8522980213165283,-1.778476357460022,9.679595947265625,-15.33653736114502,3.240755558013916,-2.98622989654541,0.7683519721031189,-2.8455724716186523,-7.375024318695068,-3.6376724243164062,-3.931915044784546,-1.250396728515625,5.7537946701049805,5.461592197418213,-7.026122093200684,-1.600678563117981,2.5417730808258057,-0.6215571165084839,-4.994359493255615,-1.2347419261932373,-1.7465307712554932,-1.2486075162887573,-0.10703537613153458,1.7598414421081543,3.761504650115967,-0.9240471124649048,2.396250009536743,-1.4771662950515747,1.818625569343567,3.666192054748535,-3.4441890716552734,2.7323050498962402,2.2959415912628174,0.7509969472885132,-0.22063200175762177,3.868319272994995,-2.968440055847168,0.4167618751525879,1.9931814670562744,-0.6592023968696594,1.5113365650177002,1.2590397596359253,3.8709664344787598,0.9135794043540955,-3.6651690006256104,1.8265703916549683,-0.7118126749992371,-2.7980849742889404,3.087268590927124,-1.1433024406433105,1.0386475324630737,-0.47982001304626465,1.8731969594955444,1.9880783557891846,2.140465021133423,-2.285646677017212,1.5918633937835693,1.4416254758834839,4.753368377685547,0.04733416438102722,-0.6009776592254639,-0.6231143474578857,2.64803147315979,4.686389923095703,-7.556001663208008,3.0527055263519287,-1.4495431184768677,-8.49159049987793,1.9613139629364014,-3.5539498329162598,-4.900643348693848,6.379112243652344,-1.5830634832382202,1.3901379108428955,4.114968299865723,7.519718647003174,-1.465916633605957,4.499580383300781,-0.3182426393032074,-14.025816917419434,18.693172454833984,-1.6597018241882324,3.903113603591919,-1.2160176038742065,14.01219367980957,12.700170516967773,8.665448188781738,-6.005060195922852,2.640660047531128,3.524158000946045,-2.835192918777466,-4.651587009429932,-10.705042839050293,12.402443885803223,-3.6210215091705322,8.633977890014648,-7.488316059112549,-1.6980030536651611,-2.848231077194214,-3.7024271488189697,-4.4552531242370605,-18.43753433227539,-9.588698387145996,5.301593780517578,12.309250831604004,12.687195777893066,-5.927279472351074,-1.385413646697998,0.8225448131561279,-5.29182767868042,0.33524787425994873,0.4783342480659485,0.8059476017951965,1.3975365161895752,1.434816837310791,2.3905489444732666,0.6435861587524414,-1.4188323020935059,-2.8699567317962646,0.07634645700454712,-1.2524675130844116,0.26157641410827637,0.7528425455093384,-2.0022456645965576,-0.4990391731262207,0.5796732902526855,-1.7087656259536743,-0.4227083921432495,-1.0686484575271606,-0.865146279335022,0.4072272777557373,0.04277192801237106,-0.788632333278656,1.7201495170593262,-0.7706170678138733,0.4853633642196655,-2.6842832565307617,2.0103743076324463,1.7387243509292603,0.45205655694007874,1.5559991598129272,2.4696571826934814,-0.0709269642829895,3.2401959896087646,-0.7310318350791931,-1.5867304801940918,-3.266756296157837,-1.2742398977279663,-0.7679599523544312,0.17294210195541382,-2.7127654552459717,-0.817490816116333,-0.5903758406639099,5.826529502868652,2.001985549926758,-3.914740562438965,-0.49056699872016907,1.6899646520614624,0.6213182806968689,2.764888048171997,0.8905258774757385,0.2915342450141907,2.206825017929077,-1.2811784744262695,-1.9403393268585205,-2.7258543968200684,-2.130798816680908,-2.1928799152374268,-0.04912257939577103,2.5144500732421875,-3.7318451404571533,1.1016513109207153,-0.8659508228302002,-4.231581687927246,2.0352835655212402,0.15570510923862457,-1.3082740306854248,4.229494094848633,0.7139512896537781,0.8503677248954773,0.5570427179336548,-0.9229443073272705,-1.3708977699279785,-3.9929914474487305,-0.1943446546792984,0.019506752490997314,-1.0607692003250122,0.09222499281167984,0.9097089767456055,0.4325009286403656,1.4162594079971313,0.32855233550071716,-0.07027826458215714,-0.34216323494911194,-0.5721014142036438,-2.07063364982605,0.2146821916103363,-0.46152961254119873,3.4139678478240967,0.6440132856369019,1.7407907247543335,1.5387728214263916,-0.5432509183883667,0.655543327331543,0.030015423893928528,0.0007069468265399337,0.029654841870069504,-0.0035544580314308405,-0.06326167285442352,0.002352420473471284,-0.011800759471952915,-0.03168976306915283,-0.05786091089248657,-0.03510579466819763,-0.033767443150281906,-0.05782085284590721,0.04637063667178154,-0.0061217849142849445,0.057315513491630554,-0.06257638335227966,0.010977406054735184,0.04438799247145653,0.03746965527534485,-0.02677893079817295,0.021820180118083954,-0.04111845791339874,0.02065320685505867,-0.0273525882512331,0.04762737452983856,0.03652064502239227,0.019162185490131378,-0.053034160286188126,-0.03754820302128792,0.004654897842556238,0.028222428634762764,-0.021565167233347893,0.03790463134646416,0.028872299939393997,0.0639353096485138,0.008525146171450615,0.018996164202690125,0.0161890871822834,0.02037198469042778,0.06770793348550797,-0.07034306228160858,0.010524610988795757,0.037249062210321426,-0.029146645218133926,-0.05386172980070114,-0.027057290077209473,0.03180511295795441]},"hiddenLayers":[{"inputMatrix":{"rows":20,"columns":47,"weights":[4.092815399169922,0.6477087736129761,-1.1120555400848389,-0.46761345863342285,1.163960337638855,0.7590786814689636,-0.583686888217926,0.03139013797044754,1.7153323888778687,-1.267957329750061,1.0197374820709229,1.6911005973815918,0.8992270827293396,1.2427151203155518,0.5473707914352417,0.2438604086637497,0.006998934783041477,-0.8449010848999023,-1.278947353363037,0.5629279613494873,-0.660432755947113,2.2199573516845703,0.48882192373275757,-0.8637452125549316,0.7984505295753479,1.8350417613983154,0.26988011598587036,2.1527087688446045,-2.048889636993408,0.049663349986076355,-0.9880942106246948,0.4733346402645111,-0.08103691786527634,-3.2888221740722656,1.3616784811019897,-0.8759557008743286,0.8988332152366638,0.25525644421577454,0.8992068767547607,0.5815396904945374,-1.375128149986267,-1.3325282335281372,1.9130902290344238,-2.2917966842651367,-2.229668617248535,-0.7981491684913635,0.2347104251384735,0.012523584999144077,-2.0739407539367676,-0.5579342246055603,0.9372172951698303,0.791436493396759,-0.19640277326107025,1.958146095275879,0.020124826580286026,-1.3930281400680542,1.7468945980072021,2.425571918487549,-1.14347505569458,-1.8271573781967163,0.18046830594539642,-0.11940966546535492,1.842659831047058,-1.29683518409729,-3.3982083797454834,-0.988974392414093,-0.7760651707649231,-0.4851292073726654,-1.211500883102417,-1.3171765804290771,-0.8235813975334167,1.65865159034729,0.4864078164100647,-0.8526723384857178,3.1460886001586914,1.875795841217041,2.5879147052764893,0.2528133988380432,1.5156667232513428,0.7228537797927856,0.1447562575340271,-2.614636182785034,-0.304758220911026,0.24213503301143646,0.8385942578315735,1.6195653676986694,-0.8750752806663513,-1.4155218601226807,-1.1454392671585083,-1.0719435214996338,0.24710005521774292,-0.31777817010879517,-1.2000620365142822,-0.7231585383415222,1.061813235282898,1.1358004808425903,2.332324266433716,0.616311252117157,2.3147082328796387,3.083889961242676,0.40550896525382996,-1.5461910963058472,-1.3369911909103394,-0.6059507131576538,-3.430469512939453,-0.1716025471687317,1.2080919742584229,-2.9808361530303955,1.3747096061706543,-1.625566005706787,-3.270474433898926,1.2843528985977173,1.0951389074325562,-1.306901454925537,0.09940802305936813,2.2635014057159424,1.5494426488876343,-0.19734157621860504,-0.02338750846683979,-1.2746018171310425,-1.6244534254074097,0.5042606592178345,0.3129228949546814,-0.5191457867622375,2.0634469985961914,2.002011299133301,-0.4786422848701477,-0.1319454163312912,-0.4261094033718109,0.20377592742443085,-1.0355799198150635,-2.4985644817352295,-2.2455620765686035,1.412241816520691,-0.566292941570282,-0.6319234371185303,1.7492049932479858,0.6902114748954773,2.0291426181793213,-2.912412166595459,-1.6033741235733032,-1.2849658727645874,-0.5072025060653687,-3.420609474182129,-0.9229370355606079,-0.9428566694259644,-3.4146828651428223,0.387078195810318,1.7915608882904053,-0.10885008424520493,0.3068939447402954,1.875443458557129,-0.024924006313085556,-2.1738102436065674,1.7270396947860718,-2.1206748485565186,0.7501306533813477,1.4762747287750244,1.1790099143981934,-2.013368844985962,1.0810209512710571,-1.4856759309768677,-0.3540997803211212,0.08803750574588776,-0.6691303849220276,1.1303820610046387,0.30737221240997314,2.897167205810547,-0.07351435720920563,-0.15284809470176697,0.3156168758869171,-3.2011258602142334,-0.5597209334373474,-0.10778496414422989,-1.1265208721160889,0.32372376322746277,-1.039154052734375,2.135629177093506,0.853512704372406,1.8806426525115967,-0.5516389608383179,0.190190851688385,-0.6816419959068298,-0.6497060060501099,-0.09743256121873856,-1.2083414793014526,0.20663248002529144,0.3347083032131195,-0.6314142942428589,-3.4113192558288574,0.7980349659919739,0.4014159142971039,-0.25461485981941223,0.40970268845558167,3.1718242168426514,-0.5555496215820312,-0.19014783203601837,1.233627438545227,1.7457157373428345,-1.3597936630249023,-0.853172779083252,1.3901909589767456,0.7381793856620789,1.7708712816238403,-0.45026785135269165,-2.4481077194213867,0.5534688234329224,-0.5185561776161194,1.3947246074676514,-3.068301200866699,-0.21168166399002075,0.6193935871124268,1.416452169418335,-0.23662211000919342,-1.6876322031021118,1.358036756515503,1.966154932975769,1.0266705751419067,0.3515884280204773,-0.47263842821121216,-0.11745793372392654,0.8831960558891296,-1.7650210857391357,0.11126429587602615,-0.9583479762077332,0.8277841806411743,-1.1614187955856323,1.0425106287002563,0.1304030418395996,-0.29094183444976807,0.13074414432048798,-0.21224191784858704,-0.09099534153938293,0.011626108549535275,-0.9883943200111389,-1.3555808067321777,-1.9643802642822266,-1.230225920677185,-0.30425506830215454,1.253963589668274,-1.4360193014144897,1.0790842771530151,-0.44792699813842773,-0.791933536529541,3.0383548736572266,0.47517138719558716,-2.030411958694458,-0.5300540924072266,0.9330528974533081,-0.6132020354270935,0.9775229692459106,0.703428328037262,-0.644101083278656,-0.26271548867225647,0.07501193135976791,-1.361879587173462,-1.354013442993164,-0.3057151436805725,-1.5096980333328247,2.934415340423584,-0.7231917381286621,0.550697386264801,2.8073301315307617,2.0918047428131104,1.021080493927002,-0.6862115263938904,0.473943293094635,-0.09320200234651566,2.0147852897644043,-2.1680588722229004,0.16012774407863617,-0.014143824577331543,0.26731956005096436,1.0237126350402832,1.1137638092041016,-0.7902756333351135,0.6945868730545044,-1.7129274606704712,1.9636226892471313,-0.6625782251358032,-1.4192975759506226,-0.16016356647014618,-2.3078012466430664,0.3408501446247101,-0.8987866640090942,0.030090883374214172,-0.14680036902427673,-1.328231692314148,0.8844729661941528,0.25418612360954285,-1.9841744899749756,0.9762946367263794,-0.8841089606285095,-1.6619365215301514,-0.07558862864971161,-0.15199056267738342,-0.5825697183609009,1.6431833505630493,-2.2250466346740723,-0.26195377111434937,-0.04786275327205658,-1.4372353553771973,-1.4634933471679688,0.1886862814426422,-0.10115092992782593,0.30053743720054626,1.3276007175445557,-2.081353187561035,0.36369070410728455,-2.261612892150879,0.7324097156524658,0.9728227257728577,-0.38274329900741577,1.757153034210205,0.4898671507835388,0.23336072266101837,-0.7579840421676636,-2.110297441482544,-0.8406444787979126,-0.5431665778160095,-1.2388412952423096,-0.41978803277015686,-1.5853811502456665,1.4264172315597534,0.3406127095222473,-0.4875895082950592,0.7433234453201294,-0.951964795589447,0.43412116169929504,-0.8641098141670227,2.899705171585083,1.6722691059112549,0.6296325325965881,-0.1249212920665741,0.4102192223072052,0.09857886284589767,-1.5240625143051147,-1.466592788696289,-0.6258165836334229,-2.764681577682495,-0.271983802318573,-0.11249218881130219,-1.4658458232879639,0.4990844130516052,-1.4329618215560913,-0.6684436798095703,-0.23881350457668304,0.5041239857673645,-0.05560167878866196,0.6855805516242981,-1.7210643291473389,-2.3745107650756836,0.761753261089325,-2.4666831493377686,-2.4117283821105957,-0.9604415893554688,-1.8761014938354492,-0.29527443647384644,-1.1459003686904907,0.06879492104053497,-1.6010022163391113,-1.7833861112594604,-0.04715486615896225,2.148547649383545,2.3581597805023193,-1.4221605062484741,-0.7840484380722046,1.0655566453933716,1.876325011253357,-0.6288606524467468,-2.620166301727295,-1.1864497661590576,-0.17526808381080627,1.4141262769699097,0.4755953252315521,-0.16450932621955872,2.120316505432129,-0.20010733604431152,2.13706111907959,1.3119810819625854,1.4259802103042603,1.3733112812042236,-0.7371863722801208,-1.1606909036636353,0.7508861422538757,-1.3680603504180908,-0.1461031138896942,0.03553510084748268,0.2034202665090561,-0.723170280456543,3.620436191558838,-1.0108935832977295,-1.7209445238113403,0.6930261850357056,-0.5540710687637329,-2.3204638957977295,0.07105690240859985,0.1254580318927765,1.562703013420105,0.20564287900924683,-3.437068462371826,-0.5874350070953369,-1.687986969947815,0.48423269391059875,0.012099368497729301,-0.6725776195526123,1.2196898460388184,1.175925612449646,-0.0790427029132843,-1.723654866218567,-0.5873690843582153,0.5626601576805115,-1.041182518005371,-1.861552119255066,-1.3603626489639282,1.2528719902038574,-1.6420960426330566,0.9984115362167358,0.6181217432022095,-1.9250340461730957,-0.15486817061901093,-1.4540737867355347,-0.9503138065338135,-2.791832208633423,-1.1936089992523193,-1.3516823053359985,2.312126636505127,0.2152501940727234,-1.4883549213409424,2.111480236053467,0.22126123309135437,-2.3910112380981445,0.3410831391811371,0.7685526609420776,-1.1315760612487793,-2.074937343597412,0.9377219676971436,-2.6003952026367188,2.764894723892212,0.11692696809768677,-2.253575325012207,-0.44962677359580994,-0.9766823053359985,-1.2345752716064453,-0.6131011247634888,-3.824036121368408,0.345853328704834,2.2580573558807373,1.0794541835784912,-0.11213384568691254,1.0215888023376465,1.019901990890503,3.5045502185821533,-1.3119635581970215,-0.9055541157722473,0.2658875286579132,1.5456629991531372,-2.1395962238311768,-1.2491754293441772,-0.9182975888252258,0.10141759365797043,0.36882102489471436,-0.370271772146225,-0.4676905870437622,-2.0036048889160156,-2.880563497543335,1.3133739233016968,-0.0189284048974514,0.46248167753219604,0.04989666864275932,0.7882049679756165,1.361250638961792,1.8345701694488525,-0.4599420130252838,-0.2549322545528412,-0.16845771670341492,-2.308872699737549,-0.23067502677440643,0.07877043634653091,-0.6439030170440674,-2.6882474422454834,-0.025388967245817184,1.2202430963516235,-0.5189363956451416,0.8539661765098572,-2.6776318550109863,-0.46026378870010376,2.4175736904144287,1.3788797855377197,1.6258747577667236,0.33511289954185486,0.02806236408650875,1.5425595045089722,-0.21510286629199982,-0.3254084885120392,-0.08075397461652756,-0.4940333366394043,-2.4885544776916504,-2.061267375946045,-2.6143314838409424,0.6188210844993591,0.3206275701522827,0.49831709265708923,-2.4748549461364746,1.3059602975845337,-0.1323569267988205,0.8312337398529053,-0.9065845012664795,-0.37193867564201355,0.4248797595500946,0.8924561738967896,2.300475835800171,1.9248151779174805,-1.349176287651062,0.03141438215970993,0.6170782446861267,0.5877451300621033,-0.4551575779914856,1.0773632526397705,1.117972731590271,-2.1186959743499756,0.727750301361084,1.256758451461792,-0.4559383690357208,2.094183921813965,1.0676435232162476,1.511345624923706,-0.9557967782020569,0.1922529637813568,1.627994179725647,-0.2864750325679779,0.308387815952301,-0.5415067076683044,0.7400593161582947,-0.4625520408153534,-0.2287994623184204,-1.315873384475708,-0.8394284844398499,-0.4205174446105957,-2.0975866317749023,-0.8108503222465515,-1.472227692604065,1.8072707653045654,1.5378670692443848,1.2835824489593506,-0.21084633469581604,-0.33225148916244507,1.3144928216934204,0.5736329555511475,-0.5250493288040161,1.0104432106018066,1.3486571311950684,-0.29204967617988586,0.331633061170578,-1.051709771156311,0.3405561149120331,-0.18937793374061584,0.9099466800689697,-3.1954126358032227,-1.1685398817062378,1.5775688886642456,-0.024777507409453392,-0.7232891321182251,1.3109678030014038,-0.2562163174152374,-0.0928945317864418,-0.5420003533363342,0.5261759161949158,-0.13220782577991486,-0.4464850425720215,1.3210574388504028,-0.9695419669151306,-2.2013518810272217,1.9122304916381836,-0.3594915568828583,-1.2198232412338257,-0.10544699430465698,0.3208153247833252,-0.9652678966522217,0.45608967542648315,-1.5078668594360352,0.06132643297314644,-0.08855313062667847,-1.3604882955551147,2.1446375846862793,-1.6648110151290894,-1.3276082277297974,0.14316757023334503,0.6635679006576538,-0.798301100730896,-1.787165641784668,1.957418441772461,1.1743110418319702,1.1386334896087646,-0.5393661856651306,0.8071037530899048,0.5263939499855042,1.8988240957260132,-0.7355637550354004,-0.3046591579914093,0.5362793803215027,1.4147456884384155,1.153389573097229,-0.2401508092880249,-0.809309720993042,0.7429592609405518,-1.1727337837219238,1.9311269521713257,0.2311142235994339,-1.112048864364624,0.4538728594779968,0.14374646544456482,1.9257830381393433,2.5093116760253906,-1.6838053464889526,0.6628154516220093,1.761734962463379,-0.6314236521720886,1.2946245670318604,0.5238932967185974,-0.7769643664360046,-1.8598575592041016,0.6653749346733093,1.0080024003982544,-1.8492730855941772,1.7338216304779053,-2.200490951538086,0.09905651956796646,-0.23005743324756622,-1.7614836692810059,-2.465846538543701,-0.3003579378128052,0.8232834339141846,-1.8969300985336304,-0.05460139736533165,-3.842552900314331,2.163071870803833,1.466356635093689,-0.6932374835014343,-1.3573262691497803,-1.701678991317749,2.3261773586273193,-0.20134291052818298,-0.8572878837585449,0.9311814904212952,2.159024715423584,-0.406048446893692,-1.8312203884124756,-0.8102173805236816,-0.29016804695129395,0.52116459608078,-0.858191192150116,-1.5372469425201416,-0.6425917744636536,1.489346981048584,-0.3294421434402466,-0.20822222530841827,0.49154770374298096,0.5156922936439514,1.5008591413497925,1.6856111288070679,1.8204096555709839,0.8559367656707764,0.6109963059425354,1.183188796043396,0.4358586370944977,-3.9858248233795166,0.08774461597204208,-1.8866057395935059,-0.14017599821090698,-0.8863431811332703,0.3898235857486725,1.1265698671340942,-0.44866079092025757,0.4027787744998932,-0.5321189761161804,0.8706545829772949,-2.6960859298706055,2.7320058345794678,-1.3648933172225952,-1.6123019456863403,-0.08503575623035431,-1.3697823286056519,-2.073096990585327,-1.8300034999847412,-0.29105478525161743,2.403252363204956,0.47613799571990967,0.0175231471657753,0.41622212529182434,-1.9467817544937134,-1.2814180850982666,-2.071489095687866,-0.851911187171936,-1.2776504755020142,-0.501144289970398,-0.09721402823925018,0.49761486053466797,-0.872879147529602,-1.4369895458221436,-1.2872875928878784,-1.0588074922561646,1.1995222568511963,-1.2771559953689575,0.13641858100891113,-0.435562402009964,-1.051918864250183,-1.0987772941589355,0.5117138028144836,0.4831632077693939,-0.28844305872917175,0.36833539605140686,-0.7817849516868591,-2.4695959091186523,2.9336071014404297,0.9418849945068359,-0.38221850991249084,-2.1541366577148438,0.7285930514335632,0.041484665125608444,1.1044255495071411,-0.261755108833313,-2.2676451206207275,0.5598635077476501,-0.5415587425231934,-1.8367774486541748,-0.7652176022529602,-0.1587028056383133,-1.0348458290100098,1.3007975816726685,0.09119503945112228,0.6799971461296082,2.298661231994629,2.934375524520874,2.045936107635498,0.09448947012424469,-0.10867779701948166,1.1216543912887573,1.893325924873352,-0.2504621744155884,-1.381929636001587,-1.341228723526001,0.3085744380950928,0.3943115770816803,-0.5755214095115662,0.24773718416690826,-0.5504722595214844,-0.9774648547172546,1.956446886062622,-0.5472450852394104,-0.46049293875694275,-0.3941543400287628,-2.507190227508545,1.1979961395263672,0.4202422499656677,-1.0752687454223633,-0.2660825550556183,-1.0423495769500732,-0.8336808085441589,1.9745509624481201,2.2252299785614014,0.8750879168510437,-1.6968368291854858,1.272996425628662,0.666373610496521,0.8759421706199646,0.667526364326477,-0.9639201164245605,0.482571542263031,0.10550372302532196,-1.6229450702667236,1.339901089668274,-0.6036571264266968,-0.7411894202232361,-0.8101891875267029,-0.26866209506988525,-0.3988017141819,1.6413538455963135,2.0075700283050537,-1.4192641973495483,-1.8268738985061646,-0.8512591123580933,1.3218797445297241,0.392898291349411,-0.15387041866779327,-1.2668479681015015,2.1956276893615723,0.0748806744813919,1.575541377067566,-0.887387752532959,0.9898739457130432,-0.35254305601119995,0.8039631247520447,-0.08145175129175186,-0.8865114450454712,-2.501866579055786,-1.2659192085266113,0.7809569835662842,1.3671302795410156,1.2646363973617554,0.8301035761833191,1.2020095586776733,-1.4129902124404907,0.41462022066116333,2.0733602046966553,-0.4020249843597412,-0.9684324860572815,-2.013044834136963,-0.7913249731063843,-1.19120454788208,-0.9208719730377197,-0.5764614939689636,-3.0920302867889404,1.5312719345092773,-0.7645381689071655,-0.30564647912979126,1.5348495244979858,-0.6367727518081665,0.8698113560676575,0.6795179843902588,1.7032785415649414,-0.7209721207618713,-1.5703283548355103,-0.7611979246139526,1.0488648414611816,-1.4048590660095215,1.5307215452194214,0.22956353425979614,-1.3213770389556885,0.5340093970298767,-0.03202473372220993,-0.28773418068885803,0.29796963930130005,-0.5357416868209839,-0.6586923599243164,0.5443252921104431,-0.051453206688165665,0.7051019072532654,1.7358665466308594,-0.7121047973632812,-0.8638662099838257,1.0363624095916748,2.8393189907073975,-1.0369267463684082,-0.06458714604377747,-0.40349051356315613,-0.6491119861602783,-0.278196781873703,1.7512365579605103,0.7304133772850037,-1.1043190956115723,0.4565501809120178,-1.6041916608810425,-1.7342582941055298,0.11309204995632172,-0.42655149102211,-0.7742619514465332,0.19585682451725006,0.35801634192466736,-1.5618321895599365,0.8556877374649048,-0.6673080921173096,-3.0071792602539062,1.22041654586792,1.1086058616638184,1.035341739654541,0.7374653816223145,1.0079033374786377,0.6651656627655029,1.2739101648330688,-0.6773534417152405,-0.5802106857299805,0.30621492862701416,-1.8206253051757812,0.5930564999580383,-0.9413349032402039,3.409938097000122,0.8599189519882202,0.963407576084137,-0.05965971574187279,1.051948070526123,-0.0762096494436264,-0.7781898975372314,-3.1058268547058105,-1.015062689781189,-1.6670297384262085,0.7118172645568848,2.4880006313323975,-0.3777102530002594,-0.32568708062171936,1.8367390632629395,0.6905516386032104,-0.8321941494941711,2.537062168121338,1.0868172645568848,2.2008650302886963,0.07328300178050995,0.701754093170166,-0.19736841320991516,-2.164839029312134,0.29658710956573486,0.42183375358581543,-1.0880895853042603,-0.6289442777633667,0.5646520256996155,0.9106824994087219,-1.053112268447876,2.077066659927368,-1.9497331380844116,0.9138030409812927,0.8965967297554016,-1.0960466861724854,-1.4286832809448242,0.9285191297531128,1.2735066413879395,-0.11133662611246109,-1.3802341222763062,-1.761729121208191,2.210799217224121,0.6742051243782043,-0.3287625312805176,-1.3719130754470825,-0.3280435800552368,0.15642261505126953,-0.303340345621109,-0.7330394387245178,-1.0703495740890503,0.5119926333427429,-0.6398738026618958,1.221501350402832,0.27697697281837463,0.5969797372817993,0.7803868651390076,-0.6121972799301147,-1.0467220544815063,1.6045167446136475,-0.7959995865821838,-1.8610702753067017,0.13268594443798065,1.3581786155700684]},"inputHidden":{"rows":20,"columns":20,"weights":[0.07939080148935318,-0.3061543405056,-1.302119493484497,0.7566944360733032,-1.5336426496505737,-0.8290761709213257,1.0363386869430542,-3.0282630920410156,1.263694167137146,-0.37215468287467957,-1.0086016654968262,-1.382672905921936,0.0608641617000103,3.375131368637085,-1.759972095489502,0.3833571672439575,-0.24930889904499054,-1.9733250141143799,-0.06590969860553741,-1.6836613416671753,0.018063081428408623,-0.5928460955619812,-1.1375056505203247,1.2046366930007935,0.8278935551643372,1.7957757711410522,-0.08029861748218536,-0.4626716077327728,-0.036124035716056824,0.11287219077348709,-0.04357172176241875,-1.5293009281158447,-1.8565016984939575,1.8327051401138306,1.2116279602050781,-0.7284232378005981,0.47716963291168213,1.2881853580474854,-0.6660801768302917,2.10541033744812,0.9044098258018494,-1.0605937242507935,0.29438915848731995,1.8598309755325317,-1.9377981424331665,-0.5348639488220215,0.5143285989761353,0.33701902627944946,0.5276225805282593,-0.3023013770580292,-0.9075397253036499,0.16737361252307892,-1.7568509578704834,-0.11566422134637833,0.9607696533203125,2.0966222286224365,0.6833109259605408,0.19734130799770355,-0.6421553492546082,0.9215877056121826,0.4621943533420563,1.387041449546814,0.9016262888908386,1.881181001663208,-0.4735565185546875,-0.47412383556365967,0.7515711784362793,-0.0005430224700830877,1.3153860569000244,4.470166206359863,0.053563278168439865,-0.07026971131563187,-1.1084243059158325,-1.3661329746246338,-3.5244414806365967,2.290781021118164,-1.3297102451324463,-1.8611644506454468,0.30948469042778015,-0.6531233787536621,0.3160984516143799,0.8889805674552917,-0.40057820081710815,-1.028151035308838,-4.261687278747559,1.2517204284667969,-0.6036725640296936,-0.7238365411758423,-0.021370451897382736,-2.295016050338745,-0.7382891178131104,1.3975214958190918,-1.0071444511413574,-0.4802744388580322,0.19469858705997467,-0.16047964990139008,0.337322473526001,-0.15581318736076355,-0.12706358730793,-0.8203449845314026,0.7426855564117432,-0.34679239988327026,-0.6614958047866821,-0.6728838682174683,-1.7074530124664307,0.10663343220949173,-0.9938821196556091,-1.2053327560424805,-0.5595418214797974,-1.2966084480285645,-1.117493748664856,0.2851019501686096,-1.2781709432601929,0.8385329842567444,-0.9394402503967285,-0.24217240512371063,1.2523969411849976,0.3667694330215454,1.034064531326294,-0.3976832330226898,-0.7866711616516113,0.6674151420593262,-0.6221073865890503,-0.7735157608985901,1.146740436553955,0.03050813637673855,0.40246090292930603,1.0926764011383057,0.6539384126663208,-0.022156380116939545,0.9264419674873352,-0.747534453868866,0.30423298478126526,0.3364490270614624,2.9503259658813477,-1.4764331579208374,0.9643293619155884,0.5711293816566467,-1.2128243446350098,0.15071800351142883,-1.5589754581451416,0.531661331653595,-0.5937204957008362,-0.8640096783638,-0.39755672216415405,-0.3515322506427765,-1.3283021450042725,-0.6322124600410461,-0.8496943116188049,0.6326800584793091,-0.3135788142681122,-0.7968197464942932,-2.262826681137085,1.956394910812378,3.0136399269104004,-1.2485681772232056,2.0459444522857666,0.9229748249053955,0.6201596856117249,-0.7962490916252136,-0.43033188581466675,-0.7440324425697327,0.9326986074447632,1.1113823652267456,-0.4245481789112091,0.08154968917369843,-0.20770053565502167,0.25869283080101013,0.025330761447548866,0.06813793629407883,0.25544941425323486,-0.24560654163360596,-0.3063260018825531,0.7773723006248474,1.710766077041626,-0.4524240493774414,0.19751669466495514,0.323304682970047,-1.0616178512573242,-0.21377044916152954,-0.5551860928535461,0.5534219145774841,-1.3741816282272339,0.08194009214639664,-1.0158363580703735,0.7336549758911133,-1.8578879833221436,-0.2358856052160263,-0.2855589687824249,-3.1036276817321777,-0.1698400378227234,0.750451385974884,-0.4074915051460266,-0.560584306716919,0.21636900305747986,-0.5058609843254089,1.9931743144989014,0.8339762091636658,-0.07231611013412476,0.21705439686775208,0.16214710474014282,-0.5070177316665649,1.174887776374817,-0.4468212425708771,0.09214071184396744,-1.9997820854187012,0.45885950326919556,-0.8441104292869568,0.6492700576782227,1.379278302192688,0.04977749288082123,-1.0456327199935913,1.0056878328323364,0.3615618050098419,-0.8896278142929077,0.882068932056427,-0.42212817072868347,0.12223832309246063,1.1802250146865845,0.7180187702178955,0.15252599120140076,1.0504587888717651,0.2790851593017578,1.0529695749282837,0.9192425608634949,-0.2070092111825943,1.8822765350341797,-0.7920196056365967,0.5218281149864197,-0.962346613407135,-2.724811315536499,-0.6000641584396362,-0.1149604395031929,0.6445735096931458,0.5934847593307495,1.631966471672058,1.7080543041229248,0.7913282513618469,0.14927643537521362,0.7469674944877625,-0.385793536901474,0.8568709492683411,0.5752909183502197,2.160996913909912,-0.6291843056678772,-1.5586299896240234,2.1394405364990234,-0.1015947088599205,-0.35073044896125793,1.5941716432571411,-0.6872315406799316,0.3998628258705139,-0.611711323261261,0.9325798749923706,-2.0091354846954346,2.744903564453125,-0.16317276656627655,0.5524406433105469,0.31768596172332764,-1.2894035577774048,-1.064415693283081,-0.7903783917427063,-0.19877801835536957,-0.06164887920022011,-1.082847237586975,-0.05171182006597519,-0.0328376442193985,0.11223813891410828,-0.9304248690605164,0.037089843302965164,0.4529460370540619,-0.13312655687332153,0.3424941301345825,-0.6678634285926819,-0.5182244181632996,0.5518202185630798,-0.5784464478492737,-0.006722189486026764,-0.5177492499351501,0.23377399146556854,0.6929507851600647,-0.5459004044532776,-2.119460105895996,-0.49678364396095276,-1.5673702955245972,-1.182005763053894,-1.1893105506896973,-1.699034333229065,0.4907826781272888,-0.8662434220314026,-1.5928460359573364,-0.11297335475683212,-1.9336031675338745,2.9101760387420654,0.26362764835357666,-1.0601831674575806,0.42703256011009216,-0.22102749347686768,1.1694684028625488,-0.25487858057022095,0.464148610830307,-0.253633052110672,-0.93511563539505,1.64106023311615,-1.7415359020233154,0.2453993856906891,0.4878259003162384,0.3407835364341736,0.07516704499721527,1.4552645683288574,-0.5293782949447632,0.4601116478443146,2.0411694049835205,-1.4599817991256714,0.5521971583366394,-0.6520711183547974,0.16808374226093292,-1.5843054056167603,0.25933337211608887,-0.04842396080493927,0.6671445369720459,-1.7225369215011597,-0.7160347700119019,-1.8042575120925903,2.6246845722198486,2.002533197402954,-1.6833134889602661,-2.6065711975097656,1.843644142150879,-1.1142855882644653,-3.099489688873291,-0.32634133100509644,0.08506469428539276,1.6946500539779663,1.2996771335601807,-1.349413275718689,1.0343912839889526,0.912513792514801,2.2504682540893555,0.47743985056877136,1.4203063249588013,0.8456115126609802,-0.0986306220293045,4.355836868286133,1.3895071744918823,-1.2198749780654907,4.561341285705566,-1.202597975730896,0.5348367094993591,2.0407063961029053,-1.2679649591445923,-1.1609808206558228,0.3591458201408386,-0.7358548641204834,-1.034180998802185,-0.20272612571716309,-0.7770073413848877,0.4747355580329895,0.47583872079849243,0.8062357306480408,-1.1883350610733032,-1.2575229406356812,0.029730716720223427,0.09175446629524231,-0.5057180523872375,0.4935241937637329,-0.7578651309013367,-0.816967248916626,-0.6828603744506836,0.31757214665412903,-0.8000001311302185,-0.06691361218690872,0.7154651880264282,0.5913102030754089,-1.5111035108566284,-0.3920852243900299,-1.2229902744293213,-0.638583779335022,0.9233784079551697,-0.5406075716018677,1.519607663154602,-0.9540369510650635,-0.5825099349021912,0.07809629291296005,-0.969927966594696,0.5356180667877197,1.7358406782150269,-1.5172053575515747,1.9236860275268555,-1.1654270887374878,-1.8947021961212158,0.4383116066455841,-1.0314037799835205,-0.31554296612739563,-0.4373113512992859,-0.4712243378162384,0.89763343334198,-1.2137460708618164,1.0452734231948853,-0.3731684386730194]},"inputBias":{"rows":20,"columns":1,"weights":[-0.09415075927972794,-0.5742409825325012,-1.0541709661483765,-0.5996981859207153,-0.14983592927455902,0.03918149694800377,-0.5039706230163574,1.6010743379592896,-0.4836587607860565,-0.016691505908966064,0.6910499334335327,-0.5300729274749756,1.4966508150100708,0.08801640570163727,-0.43805423378944397,-0.5351614952087402,1.4367496967315674,-0.6580891609191895,1.5286176204681396,-0.4370593726634979]},"forgetMatrix":{"rows":20,"columns":47,"weights":[-0.9561795592308044,-1.2667804956436157,-0.35177889466285706,-0.24654923379421234,2.1880202293395996,-0.618104100227356,-0.2109367847442627,0.8949328660964966,-1.2373902797698975,2.177851676940918,0.9727076888084412,0.6218816041946411,-0.6419556140899658,0.4939405024051666,0.44020700454711914,1.0273029804229736,0.5862417221069336,-1.530853033065796,-0.7522406578063965,-0.8840672373771667,-2.6703033447265625,0.181781604886055,0.9940556883811951,-1.7245562076568604,1.5162161588668823,0.819618821144104,2.0856449604034424,0.10551595687866211,0.7725434303283691,0.8548884987831116,-0.628180742263794,-0.05149488151073456,-0.4182283878326416,1.1364941596984863,-0.8295013308525085,-0.7099677324295044,1.9508241415023804,0.6256861090660095,0.4360559582710266,0.45748287439346313,-0.7034103274345398,-0.3939826786518097,-0.7653843760490417,0.2960670292377472,0.08354276418685913,-0.7128778100013733,0.7231009602546692,-2.667848587036133,-1.0353400707244873,0.13926537334918976,0.0645420253276825,0.4308675527572632,-1.6522886753082275,2.2771108150482178,-0.401120662689209,-1.0654217004776,1.2908358573913574,-0.3530162274837494,-0.8645086884498596,0.12253911793231964,0.052500396966934204,-1.0262608528137207,1.1610065698623657,0.6842260956764221,-0.9705567955970764,0.4912615120410919,-0.47743991017341614,-0.7392845153808594,-1.5039407014846802,-2.6429150104522705,0.16954195499420166,0.577043354511261,0.25488942861557007,0.38769176602363586,1.0886108875274658,0.518726110458374,1.234820008277893,-0.6548532247543335,-0.5413573384284973,0.48642146587371826,1.6444590091705322,-0.5746846795082092,0.7933076024055481,0.7669863104820251,0.18083976209163666,1.4590617418289185,0.35663583874702454,0.034545205533504486,-1.1125069856643677,-1.982234239578247,1.320133924484253,0.6086990833282471,-0.5330476760864258,-0.24473430216312408,-0.08672381192445755,-0.11021651327610016,0.9366117119789124,-1.22732675075531,-1.307063341140747,-0.37255871295928955,-1.4630738496780396,2.1583926677703857,1.6903069019317627,0.9885222911834717,0.3327743709087372,2.2709739208221436,0.33241766691207886,0.7750023007392883,0.571377694606781,-1.9499802589416504,-1.2849984169006348,2.1959922313690186,0.3060494065284729,0.4859715700149536,-1.541314721107483,0.4464164972305298,2.1657168865203857,0.6974825859069824,0.06704242527484894,-0.8938011527061462,1.6396805047988892,-1.279361367225647,-0.14951471984386444,-1.1025601625442505,2.465047836303711,0.713351309299469,0.711924135684967,-0.2732159495353699,1.8804664611816406,-0.38186508417129517,0.20707820355892181,-0.30631667375564575,-2.7201497554779053,-2.445542335510254,1.4296334981918335,3.0985231399536133,0.48177018761634827,-0.6349225044250488,-0.25755149126052856,1.1341303586959839,1.034785509109497,0.39707207679748535,-0.8280566930770874,-1.5744314193725586,-0.6247496604919434,-2.265763282775879,-0.7978074550628662,-0.667003870010376,-1.245151162147522,1.1075854301452637,-0.6473362445831299,1.4074245691299438,1.6865649223327637,-1.0704381465911865,0.444648414850235,0.9324480295181274,0.18733203411102295,0.5999459028244019,-0.9472271203994751,1.9175279140472412,2.6889050006866455,-0.12153793126344681,0.4130471646785736,1.4180591106414795,0.26919126510620117,0.38521361351013184,-0.15492784976959229,0.873598039150238,0.9800820350646973,-0.361533522605896,0.2987985610961914,-1.6755226850509644,-0.21093277633190155,1.7167476415634155,-2.2823827266693115,0.6235941052436829,0.9546499252319336,0.03484245762228966,0.22525031864643097,-0.5946826934814453,-0.04199192300438881,1.2611653804779053,-0.3759380877017975,0.07848603278398514,-0.47760018706321716,-0.7315590381622314,2.6917872428894043,0.4103134274482727,0.3985412120819092,-0.5068126320838928,0.5884732604026794,0.09425778687000275,1.7259306907653809,0.7674958109855652,-0.5518190264701843,1.4440456628799438,-1.7908732891082764,-0.26795658469200134,1.3835729360580444,-1.1931521892547607,-0.7529247999191284,-1.3086572885513306,0.3463841378688812,-0.27829602360725403,-1.619368553161621,-0.31299883127212524,-0.5514962673187256,-1.9814059734344482,1.2691646814346313,0.008556496351957321,1.012918472290039,-1.7013580799102783,0.7364316582679749,-0.1498161107301712,0.2994571328163147,-0.46387404203414917,1.095931887626648,0.042980972677469254,0.6118676066398621,0.8668192625045776,-1.054494857788086,2.736562490463257,-0.45985764265060425,-2.6663360595703125,1.41603684425354,0.44439399242401123,-0.22299128770828247,0.2656046152114868,-0.4319131374359131,1.791151523590088,-1.3608002662658691,0.9360625743865967,-0.8332067131996155,-1.5276756286621094,1.5905349254608154,-0.44697898626327515,-0.21617491543293,-1.260517954826355,0.8588148951530457,-1.018436074256897,-0.5247476100921631,0.7269975543022156,1.9836000204086304,0.7337364554405212,1.1877171993255615,0.8527380228042603,0.02145312912762165,0.23310884833335876,1.1436172723770142,-0.04162805899977684,0.0375404953956604,1.1337300539016724,-0.5948947668075562,0.7512288093566895,0.31589770317077637,-1.095033049583435,-1.8662701845169067,-1.0336586236953735,-0.1479893922805786,0.7061986923217773,0.024175753816962242,1.251600742340088,-0.7571677565574646,0.2642402648925781,0.318261981010437,-0.9087867140769958,-1.1124978065490723,1.230324625968933,0.2826152741909027,-0.43987366557121277,0.36803704500198364,0.4546205401420593,0.9476101398468018,1.3247084617614746,-1.0833284854888916,0.7091474533081055,-0.8762754797935486,-0.8137335777282715,-0.3900275230407715,-0.24740761518478394,-0.013310766778886318,0.7154150605201721,-0.3226097524166107,-0.2534743845462799,0.23077428340911865,1.1433188915252686,-0.43382588028907776,-0.6848960518836975,0.8658133149147034,-1.4291791915893555,-0.7737331986427307,0.17047128081321716,-0.7608798742294312,-0.8993752598762512,-0.10880295932292938,0.5604724884033203,-0.6699191331863403,0.40633624792099,-0.9500110149383545,-0.8889656662940979,0.6778098940849304,0.8540416955947876,-0.036892108619213104,-0.3600066304206848,0.4493770897388458,0.6908218860626221,-0.2944718599319458,-2.448511838912964,-1.9382469654083252,-0.06892146170139313,2.258267402648926,0.25607943534851074,0.35471493005752563,0.3090346157550812,-0.28926628828048706,1.3956925868988037,-1.9860117435455322,-0.9260112047195435,-2.0401434898376465,-0.5833045244216919,-0.5068607330322266,0.14503629505634308,0.014828501269221306,1.9510514736175537,-0.20788823068141937,0.8419966697692871,2.066610813140869,1.1048681735992432,-0.14662624895572662,-0.9839500784873962,1.5641065835952759,-0.4638458788394928,-0.7309505343437195,0.3725946247577667,-0.7118229866027832,0.6024327874183655,2.4845879077911377,0.2190970629453659,0.9376301765441895,-1.139197587966919,-0.008526653051376343,1.6836726665496826,1.6466745138168335,-1.0933477878570557,-1.2583452463150024,0.39169827103614807,1.5788482427597046,-2.307701349258423,-0.8301852941513062,-0.25076279044151306,0.23979926109313965,-2.5233328342437744,-1.024064302444458,-0.9795470237731934,1.9436190128326416,0.5894720554351807,0.24264593422412872,-2.5205020904541016,-1.3894789218902588,0.6319460272789001,2.076134204864502,-1.2876224517822266,0.8435261845588684,0.49553242325782776,-0.5978045463562012,2.8520565032958984,0.5890766978263855,0.4831545650959015,0.26832306385040283,0.5558120012283325,1.2853820323944092,1.3255482912063599,1.2914609909057617,-0.30658888816833496,-2.6415045261383057,1.6590330600738525,2.3018617630004883,-0.4001646339893341,1.1554170846939087,2.056490421295166,0.778207540512085,0.6583573818206787,-1.0979833602905273,-1.611165165901184,-0.5233899354934692,-1.353816032409668,0.6871268153190613,1.774882197380066,-1.3715931177139282,-0.4404878616333008,2.0611987113952637,0.25640490651130676,-0.5173999667167664,-2.1709959506988525,0.3607809543609619,-0.10858818888664246,-0.5705611705780029,1.0665457248687744,2.5718061923980713,1.0146304368972778,-1.1485650539398193,-1.1088300943374634,-1.3654173612594604,0.962060272693634,-0.25353580713272095,0.8731322884559631,-0.9449011087417603,0.04321601241827011,0.2167896032333374,-0.4782603979110718,0.12849211692810059,1.1411799192428589,-3.5369060039520264,0.5187442898750305,-1.22046959400177,0.7250387668609619,-0.8199097514152527,-0.5934613347053528,-0.9525613188743591,-0.6196224093437195,-0.4018250107765198,1.6717225313186646,-3.1068713665008545,-0.08817154914140701,2.44449520111084,-0.1331113874912262,0.08885940909385681,-0.795014500617981,-0.5491793155670166,-3.0606911182403564,-0.4433004856109619,1.2202985286712646,-0.056526780128479004,-2.2832369804382324,1.7909337282180786,0.25536268949508667,0.6599737405776978,-0.606838583946228,-1.7155158519744873,-0.2246018797159195,2.597926378250122,-0.17585448920726776,-0.4452938735485077,-2.5001139640808105,1.4678367376327515,1.3923356533050537,-1.6531686782836914,-0.8179805278778076,0.009948896244168282,1.3768162727355957,-2.280254364013672,-0.9937713146209717,-1.527450442314148,0.5249648094177246,0.31697916984558105,-0.6696184873580933,-0.4824795722961426,1.6355807781219482,-1.8763822317123413,0.9892953634262085,-0.1673073172569275,-1.3316128253936768,-1.6208610534667969,0.7739018797874451,-1.6242903470993042,-0.7134497165679932,0.32043924927711487,-0.5345871448516846,1.2364351749420166,0.8299704790115356,-0.18070970475673676,-1.7642656564712524,-1.3128376007080078,0.09503329545259476,-0.46864521503448486,-0.6463761925697327,0.6108702421188354,-0.11740490049123764,0.6638911962509155,0.545522153377533,2.1736769676208496,0.5511845946311951,-0.6370535492897034,2.1235475540161133,-0.15400302410125732,2.0265719890594482,2.337193727493286,-2.5506176948547363,0.36305713653564453,0.5157607793807983,-1.895447015762329,-0.42306751012802124,-0.20261681079864502,-1.496901512145996,1.1710829734802246,0.6566450595855713,1.3938922882080078,1.3077707290649414,1.0633403062820435,0.4353465735912323,-2.0666799545288086,-0.1987462192773819,1.4179964065551758,-0.5648823380470276,-0.23229791224002838,0.2902664542198181,0.5269535779953003,0.8546478748321533,0.4401567876338959,-0.794222891330719,0.36615806818008423,-1.1273796558380127,-0.2007187306880951,-0.847184419631958,-1.3988869190216064,0.24749790132045746,-0.27797096967697144,0.4620243310928345,-0.2508304715156555,-1.5352182388305664,0.09231793880462646,-2.161105155944824,0.15991856157779694,0.4313369393348694,-0.680492103099823,1.280112862586975,-0.49560147523880005,0.16111809015274048,1.3582372665405273,-0.580119788646698,0.5780367255210876,0.010640157386660576,1.4275665283203125,1.4164022207260132,-1.1992559432983398,1.2057527303695679,1.471516728401184,0.6677026152610779,0.5519250631332397,-0.0828942358493805,2.4617457389831543,0.33865711092948914,-0.3457852900028229,-0.730670154094696,0.7519906163215637,-0.6225388050079346,1.136425256729126,-1.650114893913269,-0.9814774394035339,1.1898871660232544,-1.4484564065933228,0.6527654528617859,1.4163873195648193,-1.2967896461486816,0.6681949496269226,0.8422108292579651,0.005828969180583954,2.236470937728882,0.10673699527978897,0.8811490535736084,-1.4891935586929321,0.03119000978767872,1.7276896238327026,-1.4130840301513672,-0.3122694194316864,1.6553962230682373,-0.12201027572154999,-0.059825751930475235,-0.15357832610607147,-0.4305228590965271,-1.3348013162612915,1.6195275783538818,2.626669406890869,0.6207572817802429,0.48060381412506104,2.1081483364105225,-0.5036651492118835,0.8984360098838806,0.1867743283510208,-1.0093621015548706,0.033069316297769547,1.6437838077545166,-0.6632521748542786,0.08495624363422394,-1.1118351221084595,1.518636703491211,1.064928650856018,-1.1983251571655273,-0.9459109306335449,1.5992305278778076,1.3619434833526611,-0.9605141282081604,-0.8777551651000977,-0.6396118998527527,0.789067804813385,-0.47559890151023865,-0.7758104205131531,-1.3245309591293335,1.8545310497283936,-0.8427067399024963,0.6098229289054871,0.3189921975135803,-1.4703562259674072,-0.8352569341659546,0.4213451147079468,-0.6562477350234985,0.6457915902137756,-0.5294198989868164,-1.7229591608047485,0.8273653388023376,1.3980880975723267,2.828662633895874,-0.130549356341362,-0.8974690437316895,1.9452147483825684,-1.4208025932312012,0.1742267608642578,0.0038955379277467728,-1.0831270217895508,0.10292302817106247,-0.09082144498825073,0.6837062835693359,0.15813420712947845,0.43972036242485046,1.4219369888305664,-0.15118218958377838,0.5954804420471191,0.7303029894828796,-0.9392747282981873,0.27564769983291626,1.4681559801101685,0.7674520611763,0.6853333115577698,0.9950721263885498,0.9371165037155151,-0.0038096210919320583,-0.2134362906217575,-0.22373996675014496,2.1751434803009033,0.28553506731987,0.5687196850776672,-0.9746566414833069,-0.958043098449707,1.2353293895721436,-2.3566653728485107,1.1141788959503174,1.5330792665481567,-0.3759981393814087,0.5989283919334412,0.9541674256324768,-0.7953770756721497,0.4027469754219055,-1.1621031761169434,0.520588755607605,-1.5246185064315796,-1.097783088684082,1.5207223892211914,-1.2248270511627197,0.9183809161186218,0.22588856518268585,0.8632084131240845,-0.6714339256286621,-0.8926610350608826,-0.7969145178794861,-1.5735116004943848,-0.5896753072738647,0.463814377784729,-2.0296790599823,-0.6565180420875549,0.45867761969566345,0.9814100861549377,-0.23163942992687225,1.2820589542388916,-1.2498657703399658,-0.3686520755290985,1.663231372833252,-0.46908634901046753,-0.2047327756881714,1.1972191333770752,1.4103269577026367,1.2366220951080322,0.2704489231109619,-0.21828095614910126,0.4066116213798523,-0.5465314388275146,-0.7140437364578247,-1.6814947128295898,-0.49096375703811646,-0.18698537349700928,1.259972333908081,-0.2970885634422302,-1.7368254661560059,0.9731348752975464,0.29668840765953064,0.5527341365814209,-0.7591213583946228,-0.6996193528175354,0.14687354862689972,0.6300533413887024,0.8001747727394104,1.340285301208496,-1.0273754596710205,-0.5856450200080872,0.016109168529510498,-0.2930929660797119,0.6044031381607056,0.016103239730000496,0.06361459940671921,0.9350873231887817,-0.7083911895751953,0.4958052337169647,0.19895245134830475,-1.2831099033355713,-1.2477301359176636,0.9711619019508362,0.929502546787262,0.47461968660354614,-0.008458382450044155,-0.2994261384010315,-0.1364913433790207,0.9761753082275391,-0.6797763705253601,0.5432993769645691,0.8599633574485779,0.705668568611145,0.3564348518848419,-0.6477410793304443,2.1986241340637207,0.37508252263069153,0.710963249206543,-2.2315070629119873,-1.1043363809585571,-0.32118141651153564,1.4557089805603027,0.7680073380470276,0.14454114437103271,1.7570565938949585,0.8293898105621338,0.5671685934066772,-0.36669185757637024,-0.3384963572025299,-0.7456077337265015,0.02497994713485241,-2.0591161251068115,-0.1949530392885208,-0.508071780204773,2.212015390396118,0.5438003540039062,0.7805920243263245,1.0083286762237549,-0.026220276951789856,-0.7498934268951416,1.1893302202224731,0.23481474816799164,1.6980997323989868,-0.2339516133069992,1.3200111389160156,0.7527060508728027,-0.14858952164649963,-0.4312778413295746,-0.8417822122573853,-1.1798522472381592,-0.29106223583221436,0.06295672059059143,0.41790249943733215,-1.2493884563446045,2.2811312675476074,-1.3192929029464722,-1.1259825229644775,-0.2698465585708618,-1.0111967325210571,-0.9686664342880249,0.1804651916027069,0.671909511089325,-1.3797777891159058,-1.6337958574295044,-0.005729764234274626,1.096086025238037,0.5872139930725098,0.6616680026054382,1.2601641416549683,-0.25094911456108093,0.24724909663200378,2.105591058731079,-0.7280667424201965,0.15783700346946716,0.003452371107414365,-0.550774335861206,1.5310994386672974,-0.3403448462486267,-0.020830895751714706,0.14158496260643005,-2.118062973022461,0.34647712111473083,-0.6256709694862366,0.38384369015693665,-0.3842919170856476,-1.966522455215454,0.5030270218849182,-0.4413259029388428,0.6987544298171997,0.8673354387283325,-0.5333016514778137,0.30141282081604004,-0.3929929733276367,-0.23245500028133392,1.0009675025939941,0.9552878737449646,-0.3822630047798157,-1.3868117332458496,0.21844081580638885,0.3719021677970886,0.4831623136997223,-0.14145538210868835,-0.8543488383293152,1.216188669204712,-0.120877206325531,-1.2215490341186523,-0.37385544180870056,-0.4622012972831726,-0.24407042562961578,-1.7258987426757812,0.758991003036499,-1.2156635522842407,0.8970165848731995,1.5924701690673828,-0.17876359820365906,-1.6516146659851074,-1.2843202352523804,0.18878594040870667,-1.1710658073425293,0.34420499205589294,0.1203710213303566,2.050243616104126,0.42465129494667053,0.03075624816119671,-0.9627692103385925,0.7925936579704285,0.28714051842689514,-0.3463000953197479,-1.961351990699768,-1.4693330526351929,0.03661205992102623,-0.24286706745624542,0.16855308413505554,-0.3435221016407013,0.008149213157594204,-1.4180262088775635,-2.047074794769287,-2.2087087631225586,1.0841299295425415,-1.4255300760269165,0.7382793426513672,-0.1284347027540207,1.128022313117981,0.12512090802192688,2.6003901958465576,-0.8339601159095764,-0.9723496437072754,3.074263572692871,-0.9571589827537537,1.7224961519241333,0.027244577184319496,-0.662388026714325,-0.642631471157074,-0.004821198992431164,-1.6821554899215698,-0.8224262595176697,0.1102733314037323,0.6818999648094177,1.461552619934082,0.3393159806728363,2.405301809310913,1.717490792274475,1.1372746229171753,2.0588507652282715,1.0070117712020874,-1.3163583278656006,0.28249073028564453,0.5179091095924377,-1.9807846546173096,0.8863626718521118,-0.009785611182451248,0.5084728598594666,0.9399586915969849,0.18129275739192963,0.5224433541297913,1.7013763189315796,-1.3402307033538818,-0.4694294035434723,-0.30286768078804016,-0.5275027751922607,0.03287995606660843,-0.37024015188217163,0.24539485573768616,0.7591555118560791,1.2636959552764893,0.7651463747024536,0.9371811151504517,0.12377308309078217,-0.3455379605293274,-2.880974054336548,1.3234868049621582,0.838010847568512,-1.0068702697753906,-2.0114035606384277,-0.3562625050544739,0.026339692994952202,0.010831095278263092,-0.8479360938072205,-1.2219221591949463,-0.7937500476837158,-2.427865743637085,1.033480167388916,-1.2377561330795288,0.7880123257637024,-0.20700904726982117,-0.8043349385261536,-1.168268084526062,-0.6566306948661804,0.5641928315162659,1.9112671613693237,-0.05464879050850868,0.3637993037700653,0.9048455357551575,-0.28987550735473633,1.7187005281448364,-2.2514703273773193,-1.6826788187026978,-0.5815469622612,0.5495700836181641,-0.09144768863916397,-0.0937141627073288,-1.1910251379013062,0.5588151216506958,-1.698691487312317,1.7764414548873901,-0.07493572682142258,-0.2053057998418808,0.27350255846977234]},"forgetHidden":{"rows":20,"columns":20,"weights":[1.1782331466674805,-0.2358740121126175,0.6046672463417053,-0.362429141998291,0.2844880223274231,-0.10146764665842056,-0.3916853666305542,-0.07065988332033157,-0.11695446074008942,-0.6019452214241028,-0.5463584661483765,1.0290435552597046,0.1130080446600914,-0.14140906929969788,0.057271040976047516,-0.2366640418767929,-0.1510641723871231,0.16988536715507507,1.1369479894638062,-1.946508526802063,-0.16882935166358948,-1.2594325542449951,0.20232780277729034,-0.38365259766578674,-0.44976937770843506,0.29235726594924927,-0.15246404707431793,0.5360767245292664,-0.21126198768615723,-0.5779974460601807,-0.06776288151741028,0.6909670233726501,-0.15042753517627716,1.6676549911499023,0.17891398072242737,-0.7764331102371216,-0.030634336173534393,0.02308471128344536,-0.2842596769332886,0.2291855365037918,-0.2856268882751465,0.14125987887382507,1.265042781829834,0.020822301506996155,0.08300081640481949,-0.9182330369949341,-0.30054551362991333,1.4507147073745728,-1.1676143407821655,0.28420403599739075,1.5234957933425903,0.3203343451023102,2.114957094192505,-0.5760111212730408,-1.0132826566696167,0.14143452048301697,-0.8764683604240417,0.14097808301448822,-0.17303189635276794,-1.042012333869934,-0.882834255695343,-0.38457298278808594,-0.7681897282600403,1.9339901208877563,1.3982504606246948,0.7407035827636719,1.5304875373840332,-0.11944853514432907,0.06598111242055893,2.642116069793701,0.34924957156181335,-0.6981834769248962,0.05778971314430237,-0.26180654764175415,-0.5755323767662048,0.9106783270835876,-0.2804178297519684,1.179465889930725,-0.7158376574516296,0.6096737384796143,0.6496259570121765,-0.4474918246269226,-0.7809731960296631,0.24049825966358185,-0.530251145362854,0.2980065643787384,-0.6093648672103882,0.2530031204223633,-0.3272748589515686,-0.03601651266217232,-0.32021307945251465,0.8133572936058044,-0.5476028323173523,-0.35615599155426025,-0.055488746613264084,-0.708560049533844,0.213790625333786,0.4533589482307434,0.2506910562515259,-0.32615622878074646,0.48493048548698425,-0.4914703071117401,-0.07159388810396194,0.6050871014595032,-0.1301380693912506,1.3984489440917969,0.11744927614927292,-0.12649159133434296,0.5509880781173706,-1.045856237411499,-0.42060142755508423,-0.9007056951522827,-0.9691749811172485,0.9038703441619873,0.2951284646987915,-0.8325918912887573,0.9807300567626953,0.6528080701828003,0.48492252826690674,0.9324250221252441,-0.26393866539001465,1.9152950048446655,0.9288548231124878,1.5839567184448242,1.2441827058792114,-0.8028277158737183,0.7321116924285889,-0.5978301763534546,-0.34580501914024353,0.44622480869293213,-0.8647186756134033,-0.9234611392021179,1.0268181562423706,0.33163562417030334,-0.1066540777683258,0.6155690550804138,0.17345096170902252,0.8653323650360107,-1.4760297536849976,0.704556941986084,0.4943123161792755,-0.540732204914093,0.39116454124450684,0.06975948065519333,0.2269241213798523,-0.3583880066871643,-0.9407323598861694,-0.3652327060699463,-0.5795598030090332,1.6490081548690796,-0.19112049043178558,0.7951135039329529,2.4883835315704346,-1.9828813076019287,1.5528483390808105,-1.7885148525238037,-2.4701144695281982,-0.457118958234787,-1.1865054368972778,-1.0628738403320312,-0.6538130044937134,1.2200474739074707,-0.2934570610523224,0.8009877800941467,0.26481950283050537,-0.4756234288215637,0.9358071684837341,0.639441728591919,0.14260733127593994,0.2188735008239746,0.6258093118667603,-0.9756413102149963,0.6566105484962463,1.0206743478775024,-0.8519657850265503,0.4217020869255066,0.6454071402549744,0.49154114723205566,0.020572222769260406,1.524369716644287,-0.11360220611095428,0.48436427116394043,2.2103421688079834,1.8457902669906616,1.6654345989227295,-0.28136172890663147,1.725753903388977,1.9806349277496338,0.12294693291187286,2.2363290786743164,3.2910897731781006,-0.5720369219779968,2.145495653152466,0.35499122738838196,-1.993312954902649,1.0990614891052246,-1.357177972793579,0.4022396504878998,-0.7168541550636292,-0.25950902700424194,1.2812660932540894,-0.6477850675582886,-0.5594226121902466,-0.08446475863456726,-0.27613726258277893,-0.21061588823795319,-0.621023952960968,-0.2999977767467499,1.0495548248291016,-0.012982484884560108,-0.6453109383583069,0.46415215730667114,-0.9531145691871643,-0.2870461642742157,0.8782551884651184,-1.141685128211975,0.6778325438499451,-0.7430750131607056,-0.0013848651433363557,-0.586213231086731,0.2181556671857834,0.6618292331695557,0.590050458908081,0.18463976681232452,0.07304787635803223,0.6077013611793518,-0.1767965853214264,-0.1227312982082367,-0.08399428427219391,0.5407389402389526,-0.22904753684997559,-0.3299316465854645,0.12020044773817062,-1.426268458366394,1.1474061012268066,0.06685518473386765,-0.25074973702430725,0.18661463260650635,0.5675188899040222,-0.8178860545158386,1.0050983428955078,-0.12864373624324799,-1.1123799085617065,0.6695911884307861,-0.32374289631843567,1.163090705871582,-0.12132938206195831,-0.8149962425231934,1.8824690580368042,-0.6588616371154785,-0.41893333196640015,0.06084512174129486,-1.7622897624969482,0.14640671014785767,0.17360718548297882,-0.7186902165412903,2.377624988555908,-0.11183284968137741,-0.37101441621780396,-0.1696275770664215,0.47458621859550476,-0.3249315023422241,1.0475265979766846,0.2976318299770355,0.5408924221992493,1.0603172779083252,0.7746124863624573,-0.8450567126274109,1.0931929349899292,0.14913366734981537,-0.9965769648551941,0.2722129821777344,-1.1789970397949219,1.0157145261764526,-0.4717651903629303,-0.041953831911087036,1.2351336479187012,0.6124884486198425,-0.8174316883087158,1.284653902053833,-1.2738714218139648,0.2614137530326843,2.039320707321167,-0.06800726801156998,0.23191338777542114,-1.6544489860534668,0.4479866921901703,1.6473037004470825,-0.29015234112739563,0.9333457350730896,1.135244369506836,0.0026455000042915344,1.7327651977539062,0.2006336748600006,-0.6191107630729675,0.5369583964347839,-2.0129120349884033,0.3328484892845154,-0.8362823128700256,0.026762181892991066,-0.35175636410713196,1.5705934762954712,1.172768473625183,0.27341195940971375,0.5250001549720764,-2.1204068660736084,1.7437658309936523,1.240333080291748,-1.282646656036377,1.428848385810852,0.8813532590866089,-0.48273220658302307,1.3572479486465454,1.5410923957824707,-1.8763327598571777,1.0010679960250854,-1.4932494163513184,-0.14255109429359436,0.32066571712493896,1.1761969327926636,0.3856543004512787,0.45794081687927246,1.0319231748580933,0.3077731728553772,-0.4403194189071655,-0.6582448482513428,0.05740366131067276,1.138823390007019,0.11362887918949127,1.3289096355438232,1.4679465293884277,0.6252411007881165,-0.10468395799398422,-0.45995551347732544,-0.6651335954666138,0.48253780603408813,-0.19699180126190186,-0.6790095567703247,-0.9086753129959106,-0.218340203166008,-1.0307244062423706,0.3195921778678894,-0.3793191611766815,0.26845961809158325,0.748699963092804,0.4061080515384674,0.6652842164039612,-0.18472397327423096,0.4794241487979889,0.14336857199668884,-0.6496288180351257,-0.47447285056114197,-0.22662830352783203,0.24207504093647003,-0.2486232966184616,0.4293842017650604,-0.20621591806411743,0.7935940623283386,0.11006814986467361,0.028798872604966164,1.4834738969802856,0.4742230176925659,1.4341188669204712,0.8976284861564636,1.53632390499115,-0.4106484651565552,0.22251760959625244,0.44553664326667786,-1.2940585613250732,2.379767656326294,0.36740779876708984,-0.31298404932022095,1.9232840538024902,-2.6885101795196533,0.6198721528053284,0.3044682443141937,-1.6172666549682617,0.022756721824407578,0.23437979817390442,-0.3386458158493042,-0.3487531542778015,0.6341330409049988,-0.9150716066360474,1.0401580333709717,1.9499889612197876,-1.5230331420898438,0.5887247920036316,-1.0973891019821167,1.9117748737335205,1.3709124326705933,0.06007254868745804,-0.6940783858299255,-0.6439662575721741,1.44338059425354,0.23570409417152405,-0.3157214820384979,-0.9200984835624695,1.6128780841827393,-0.5982344150543213,0.20829518139362335]},"forgetBias":{"rows":20,"columns":1,"weights":[0,0,0,0,0,0,0,0,0,0,0,0,0,0,0,0,0,0,0,0]},"outputMatrix":{"rows":20,"columns":47,"weights":[1.2085639238357544,-0.17560236155986786,-2.3333442211151123,2.5336272716522217,0.05878983810544014,-0.4316597282886505,1.7019431591033936,0.06271824985742569,2.184499740600586,-2.0131494998931885,2.6558890342712402,-0.3529604375362396,0.1617349237203598,0.28024378418922424,-0.9701234698295593,1.7198678255081177,0.24168536067008972,0.09450051188468933,-0.2182442843914032,0.521921694278717,0.5208761096000671,1.7173067331314087,0.4540867805480957,-0.5474905967712402,0.4539656639099121,-0.11156215518712997,-3.012441635131836,0.5264506936073303,-2.590076446533203,1.9895819425582886,-0.3501373827457428,0.2536560595035553,0.14610563218593597,-2.773406505584717,0.09034568816423416,-0.3205015957355499,-0.6381999850273132,1.7793117761611938,0.11003578454256058,-0.04138694331049919,0.3097653090953827,-0.1523280143737793,2.522179126739502,-0.8047587275505066,0.361263632774353,0.8416387438774109,-1.5052528381347656,0.5366120338439941,-0.23178674280643463,