{"type":"LSTM","options":{"inputSize":27,"inputRange":27,"hiddenLayers":[20,20],"outputSize":27,"decayRate":0.999,"smoothEps":1e-8,"regc":0.000001,"clipval":5,"maxPredictionLength":100,"dataFormatter":{"indexTable":{"0":19,"1":5,"F":0,"r":1,"a":2,"n":3,"k":4,"L":6,"e":7,"o":8,"E":9,"x":10,"u":11,"s":12,"i":13,"A":14,"m":15,"y":16,"J":17,"h":18,"S":20,"t":21,"I":22,"p":23,"stop-input":24,"start-output":25,"unrecognized":26},"characterTable":{"0":"F","1":"r","2":"a","3":"n","4":"k","5":"1","6":"L","7":"e","8":"o","9":"E","10":"x","11":"u","12":"s","13":"i","14":"A","15":"m","16":"y","17":"J","18":"h","19":"0","20":"S","21":"t","22":"I","23":"p","24":null,"25":null,"26":null},"values":[{"input":"Franka","output":1},{"input":"Leone","output":1},{"input":"Exusiai","output":1},{"input":"Amiya","output":1},{"input":"John","output":0},{"input":"Smith","output":0},{"input":"Lorem","output":0},{"input":"Ipsum","output":0}],"characters":["F","r","a","n","k","1","L","e","o","E","x","u","s","i","A","m","y","J","h","0","S","t","I","p","stop-input","start-output","unrecognized"],"specialIndexes":[24,25,26]}},"trainOpts":{"iterations":2000,"errorThresh":0.005,"log":true,"logPeriod":100,"learningRate":0.01,"callbackPeriod":10,"timeout":"Infinity"},"input":{"rows":28,"columns":27,"weights":[0.9345064163208008,0.1292835921049118,1.6641285419464111,0.4889940917491913,-0.23214514553546906,0.41274991631507874,0.01734812930226326,0.12658396363258362,-0.38807448744773865,0.32820942997932434,-0.39473956823349,0.3985072374343872,-0.1393522173166275,0.08083575963973999,-0.6601385474205017,0.08151954412460327,0.20797744393348694,0.030967509374022484,0.28321465849876404,0.09060797095298767,0.13187697529792786,0.35987746715545654,0.35098040103912354,0.1729665994644165,-1.357409954071045,-0.09781739115715027,-0.05227624252438545,0.9908738732337952,-1.9012234210968018,1.1960015296936035,-2.7624356746673584,1.2229859828948975,1.84380304813385,0.9235252737998962,3.0903916358947754,-1.209609031677246,-1.509760856628418,1.3399940729141235,-1.9641733169555664,-2.125944137573242,1.8874824047088623,-0.4575214087963104,0.42552393674850464,-1.470615029335022,-1.294165849685669,-0.9671592712402344,-0.6708069443702698,-2.023656129837036,1.00664484500885,0.7279103398323059,0.8777457475662231,2.5369584560394287,2.2197470664978027,1.3845585584640503,-0.45123621821403503,-1.2921923398971558,-2.487198829650879,-0.9231141209602356,1.9608525037765503,0.2336849570274353,-0.4436376392841339,-0.4476933777332306,2.433035373687744,-0.7022935152053833,-0.6011984944343567,1.0364800691604614,-0.8629408478736877,0.999437689781189,-0.21463054418563843,0.4477788209915161,0.8355328440666199,1.4489325284957886,4.35561466217041,2.293793201446533,-0.07745848596096039,-1.4076656103134155,4.446427822113037,-4.489543437957764,0.5629899501800537,0.11712360382080078,0.5176993608474731,1.3718218803405762,0.45551154017448425,1.292486310005188,1.0532233715057373,-0.14075808227062225,-0.07613833993673325,2.043027877807617,-0.8194873332977295,-1.699501395225525,-0.2524572014808655,1.0682293176651,0.036434486508369446,0.8976776003837585,-0.3690403401851654,-1.8470600843429565,1.3471757173538208,-0.4188011586666107,-2.1360316276550293,-3.0519542694091797,-2.8372743129730225,0.44654154777526855,1.2327011823654175,-0.8013070225715637,2.2399942874908447,-0.7295661568641663,-0.3539111912250519,0.004253789782524109,-1.1701090335845947,-0.5917053818702698,-1.8400788307189941,-0.6721951365470886,-1.6188867092132568,0.823552668094635,-1.4623674154281616,0.9679627418518066,1.5928940773010254,-0.6588258147239685,0.5428764820098877,-0.4740292727947235,-0.7535736560821533,0.8250386714935303,1.1428287029266357,-0.9428673386573792,-0.7892595529556274,-0.3102949857711792,1.6249197721481323,1.322901725769043,-0.8034811019897461,-1.9931210279464722,-1.1933200359344482,-1.3995814323425293,0.4910113215446472,0.7983418703079224,0.7236591577529907,2.561332941055298,-3.6595959663391113,3.113250494003296,-1.8734710216522217,2.516310214996338,3.417027711868286,2.944723129272461,1.229554295539856,-2.9607772827148438,-1.8278241157531738,2.650437593460083,-3.707850933074951,-3.391960859298706,2.7627062797546387,-3.0128769874572754,2.9684786796569824,-3.4132442474365234,-2.944432020187378,-3.6104917526245117,-1.9692891836166382,-2.565791368484497,-3.7130942344665527,2.4764699935913086,3.039255142211914,-0.5042605996131897,0.3026678264141083,1.2987350225448608,1.0935049057006836,-0.7802711725234985,0.9951176643371582,0.008705366402864456,0.7682319283485413,0.8765996098518372,1.0774123668670654,-2.066781520843506,-1.010595440864563,-0.7350150942802429,1.0596306324005127,-0.7039170265197754,-0.4117826521396637,0.9658984541893005,-1.2092896699905396,1.0081716775894165,-0.6272368431091309,-0.8235607147216797,-1.0762839317321777,-0.983874499797821,-0.789401113986969,2.217712640762329,1.2433778047561646,1.1069670915603638,0.6674569845199585,1.1839385032653809,0.586799144744873,-0.6954556703567505,-0.8439476490020752,-1.9668428897857666,-1.3111530542373657,-0.6356068253517151,1.4434078931808472,-0.37495285272598267,1.3477542400360107,2.0723650455474854,-0.48203372955322266,2.014204978942871,-2.1383042335510254,-1.3209868669509888,1.290448784828186,0.7505466341972351,-0.21619592607021332,-1.7231990098953247,-2.247305154800415,0.15645311772823334,0.18073901534080505,-1.5294618606567383,-2.145747661590576,-0.6106729507446289,0.15510618686676025,2.009608745574951,1.7405563592910767,1.1964285373687744,-0.3834535777568817,1.4242708683013916,0.08063342422246933,1.2369693517684937,0.3113289773464203,-1.1886475086212158,-0.06202894449234009,-0.6703526377677917,-0.10635308176279068,1.393870234489441,-0.6524412631988525,0.3797115981578827,1.2229105234146118,-1.2762064933776855,0.744911789894104,-0.2459181845188141,0.5849400162696838,-1.6279842853546143,-0.568109929561615,-0.5860155820846558,0.8148618340492249,-0.5848556756973267,-1.1726218461990356,-0.2236991673707962,0.07023711502552032,-0.8509114980697632,-1.2831521034240723,-0.23296521604061127,0.02276255562901497,-0.12861976027488708,0.5440937876701355,0.9029203653335571,-0.47801196575164795,0.15968959033489227,0.02564542554318905,-0.14703549444675446,-0.09721875190734863,-1.1908929347991943,0.996219277381897,0.4492812752723694,-0.5050868391990662,0.16963142156600952,-0.2124752700328827,0.8654553294181824,-0.2681960165500641,0.3917892575263977,-0.1259191334247589,0.8651379346847534,0.16488023102283478,0.5316570997238159,-0.4042983055114746,-0.5222923755645752,-0.9086726903915405,0.1667800098657608,-1.8310027122497559,2.2170698642730713,0.40337124466896057,2.362536907196045,-1.5952470302581787,-2.3900983333587646,-1.2412208318710327,-2.2901179790496826,1.2586956024169922,2.5126752853393555,0.9513562917709351,3.5281572341918945,2.383760929107666,-2.4708480834960938,0.406419575214386,0.00889942143112421,2.2712795734405518,2.1905019283294678,-0.3906298279762268,0.12282371520996094,2.3119382858276367,0.16140532493591309,-1.7919062376022339,-0.13168486952781677,-2.264186382293701,-2.5650529861450195,-2.4925785064697266,0.07708475738763809,-0.007164436392486095,1.595664620399475,0.37523409724235535,2.142807722091675,-0.2984279692173004,0.0594489760696888,-0.7076914310455322,-0.2740306258201599,0.8546068668365479,1.1289972066879272,-0.17865906655788422,0.8769316673278809,-0.7697333693504333,-1.562658667564392,3.0756733417510986,0.020662542432546616,-0.20768475532531738,-1.8051345348358154,-3.1821134090423584,0.08080672472715378,-2.164360761642456,2.0617990493774414,1.5712517499923706,1.939064383506775,-0.328906774520874,-0.9265950322151184,1.8203545808792114,-0.3823903501033783,1.3515985012054443,-0.440032035112381,2.062666654586792,0.6089493036270142,1.5176935195922852,-0.2202719897031784,-1.8573715686798096,-0.7374038696289062,1.8955307006835938,-0.6004214882850647,-0.03372723609209061,0.10226797312498093,-2.6511218547821045,2.5100765228271484,-1.2353203296661377,-1.3740708827972412,-1.716111421585083,-2.8524348735809326,-0.35650554299354553,0.38279786705970764,2.5433123111724854,2.257485866546631,0.7844780683517456,0.2806839942932129,1.4701931476593018,-0.6237131953239441,-0.6780849099159241,0.7607725858688354,0.5795639157295227,0.2206675261259079,-0.07548199594020844,0.15334708988666534,0.28266358375549316,0.11917458474636078,-0.5496654510498047,-1.5441703796386719,2.016462564468384,0.5165321230888367,-0.10443152487277985,-0.008241970092058182,0.12557019293308258,1.7575228214263916,0.8733415007591248,-0.4598487913608551,-0.4922252297401428,1.3910373449325562,3.134378671646118,0.30353692173957825,0.35942211747169495,-1.9991909265518188,-2.211738348007202,0.41886088252067566,-1.945919156074524,-0.4750688970088959,-0.17084704339504242,-0.549491822719574,-0.2842767834663391,-0.19693158566951752,-0.147322416305542,0.2462948113679886,2.904066562652588,-0.29786622524261475,-0.9935272932052612,-0.1859063059091568,-0.24329893290996552,0.08065035194158554,2.5953197479248047,-2.511225938796997,0.3567574620246887,2.723191738128662,2.442946672439575,2.7236714363098145,0.11248239874839783,0.38092103600502014,0.355962336063385,-2.7905313968658447,0.5385239124298096,-0.1892470270395279,-0.0036168561782687902,3.217543840408325,-1.5585150718688965,1.9102975130081177,-1.2984066009521484,3.7838799953460693,1.5651944875717163,3.8447232246398926,-0.7561336159706116,-3.0499191284179688,0.5786303281784058,2.4989748001098633,-1.4533765316009521,-0.6991676688194275,1.2410613298416138,-3.510610580444336,2.2656869888305664,-1.369240164756775,-2.845792293548584,-3.1083552837371826,-3.3366308212280273,-1.5251727104187012,2.3599624633789062,3.7248733043670654,3.1655666828155518,0.8945373296737671,1.2374159097671509,0.980009138584137,-1.070518970489502,1.1590136289596558,-0.5956944823265076,0.5463540554046631,-1.2331639528274536,-0.737297534942627,-0.9387430548667908,0.1742793172597885,0.8618344664573669,0.9359928965568542,-0.7086322903633118,1.1113747358322144,0.9132905602455139,-1.0253742933273315,0.8682997822761536,-0.9196333885192871,0.8870105147361755,0.9553871154785156,0.9852128624916077,0.7066240906715393,0.9410005211830139,-0.3957231938838959,-1.2638837099075317,-0.8423308730125427,-0.40898993611335754,-0.9604771137237549,-0.6761312484741211,-2.5510358810424805,0.5462362170219421,-2.1300864219665527,0.1410091370344162,-0.6107181906700134,-1.408047080039978,-2.499176263809204,0.279952734708786,2.985144853591919,-0.5984119772911072,-1.827702522277832,2.099029302597046,-0.37059876322746277,-0.37775683403015137,1.8077465295791626,-1.1789577007293701,2.4020726680755615,2.3150172233581543,3.577282667160034,2.304790496826172,1.3394765853881836,-0.9693540334701538,1.8877261877059937,-3.501518726348877,0.23389001190662384,-1.6482853889465332,0.37933826446533203,-2.089182138442993,-1.1963965892791748,-1.7583868503570557,-1.0652996301651,-1.8995834589004517,1.3984997272491455,-2.0377745628356934,1.1045613288879395,1.87651526927948,-0.887570321559906,1.2523239850997925,-2.0376877784729004,-0.9711921215057373,1.0112162828445435,2.1586415767669678,-1.7488514184951782,-1.9512715339660645,1.7643061876296997,1.598962664604187,1.5631014108657837,-2.2452633380889893,-1.7957608699798584,-2.5804359912872314,-1.7486568689346313,1.7290350198745728,1.4994349479675293,0.09453549236059189,-0.9342215657234192,0.7954114675521851,-0.1421976536512375,0.6491984128952026,-1.5007909536361694,-0.6498245000839233,-0.6418735384941101,-0.16491159796714783,2.0856611728668213,1.4302499294281006,-0.7620693445205688,0.9338008165359497,1.6197738647460938,-0.6750820875167847,1.3829339742660522,-0.6875247359275818,0.5368126630783081,0.08023255318403244,0.9454224705696106,1.0703250169754028,0.6401383876800537,-0.0851617157459259,-1.1073687076568604,-1.2164535522460938,-0.7790768146514893,-0.7636906504631042,-0.43171989917755127,-0.3265618085861206,-0.10673602670431137,-0.20068876445293427,-0.10777311772108078,-0.41431161761283875,0.3014875650405884,-0.30221787095069885,0.11889731138944626,0.2245672196149826,-0.18102650344371796,0.4517735242843628,-0.22584538161754608,-0.04332248121500015,0.12956327199935913,0.23279927670955658,-0.21287475526332855,-0.23968783020973206,0.3991486728191376,0.2482617348432541,0.22241975367069244,-0.27339041233062744,-0.12632955610752106,-0.30690374970436096,-0.11268221586942673,0.333953320980072,0.2040003091096878,0.2720932364463806,2.7885947227478027,-0.40801626443862915,2.035771608352661,-0.3783724904060364,0.4600100517272949,1.182006597518921,5.868903160095215,0.9985345005989075,-6.32474946975708,-1.3185960054397583,3.269196033477783,-0.7917023301124573,0.09888564795255661,0.3570597171783447,1.0026648044586182,-1.1419429779052734,-1.993880033493042,-3.7307863235473633,0.5900868773460388,0.5118347406387329,-0.5822683572769165,0.9360257983207703,-1.5664108991622925,2.1106982231140137,0.14699338376522064,0.11708077788352966,2.7391703128814697,-0.5343834161758423,2.279505968093872,0.2033425122499466,2.41441011428833,-0.1905943602323532,-2.357292652130127,0.19829517602920532,-1.7641191482543945,0.6806427240371704,2.357056140899658,-2.8351259231567383,2.60830020904541,2.277754783630371,-2.40588116645813,0.6657879948616028,-0.36326634883880615,2.456909418106079,0.062415048480033875,-0.1593582183122635,-0.031095167621970177,2.335036039352417,0.08014408499002457,-0.5515729188919067,-0.12639102339744568,-2.46663236618042,-2.5576324462890625,-2.1685049533843994,-1.3163347244262695,1.581396460533142,0.4592829644680023,1.4765353202819824,-0.8852943181991577,-1.4609358310699463,-0.8941653966903687,-1.3864808082580566,1.1526490449905396,1.3133102655410767,-1.2546336650848389,1.5578117370605469,1.534804105758667,-1.5229543447494507,1.5336344242095947,-1.9923014640808105,1.4107965230941772,1.1164886951446533,1.880966067314148,1.4385489225387573,1.6352746486663818,-1.555877923965454,-1.4705922603607178,-1.485371470451355,-1.2637232542037964,-1.5725879669189453,-1.2188752889633179,-1.7397912740707397,1.2943732738494873,1.6629821062088013,1.4855488538742065,1.4451438188552856,-1.5495367050170898,1.7809343338012695,-1.5363712310791016,1.9360376596450806,1.4694888591766357,-1.8886207342147827,1.4401652812957764,1.5847163200378418,-1.5224193334579468,1.710071325302124,-2.615239381790161,1.5845814943313599,1.9836317300796509,-1.7725131511688232,-1.5848379135131836,1.4479212760925293,2.156376838684082,-1.097995400428772,1.0468642711639404,-1.4972748756408691,-1.5275384187698364,-1.453603744506836,0.01757393777370453,-1.0209938287734985,-0.10174547135829926,-1.0067861080169678,0.7252321243286133,0.9692355990409851,-0.16450129449367523,1.1674548387527466,-0.43673011660575867,-0.7755935192108154,1.1380234956741333,-1.1102759838104248,-1.0342532396316528,0.9767498970031738,0.4291943609714508,-0.26747697591781616,-1.031872034072876,-0.5812367796897888,-0.07546838372945786,0.09488165378570557,-1.261580228805542,0.13702991604804993,-0.5282074809074402,-0.22971117496490479,1.7248128652572632,1.254136562347412,0.8492538332939148,-0.12280239909887314,-0.23475927114486694,0.5171136260032654,-0.5496101975440979,0.5156310200691223,0.3120238780975342,-0.09549681842327118,0.6534438133239746,-0.4548991918563843,-0.6033055782318115,0.520439624786377,-0.4499301612377167,-0.5634480714797974,0.4989890158176422,0.3132248818874359,-0.21377035975456238,-0.5344411134719849,-0.8589755892753601,0.02460474893450737,0.13648101687431335,-0.5716732144355774,-0.15094056725502014,-0.6467078924179077,-0.09618660062551498,1.3692718744277954,0.699553370475769,0.9544010162353516,-0.06005974858999252,-0.008845380507409573,0.0721195712685585,0.04625967517495155,-0.07440531998872757,-0.058069270104169846,-0.059616561979055405,0.05924360081553459,-0.028959527611732483,0.019924156367778778,-0.06105747073888779,0.023009750992059708,0.011577715165913105,0.017893632873892784,-0.01787777990102768,-0.022440878674387932,0.06524312496185303,0.000717867398634553,-0.016390083357691765,-0.022268090397119522,-0.004825446754693985,0.06669812649488449,0.041552379727363586,0.03226504474878311,-0.044475797563791275,-0.057559601962566376,-0.026364225894212723]},"hiddenLayers":[{"inputMatrix":{"rows":20,"columns":27,"weights":[0.5012621283531189,-0.3571993112564087,0.5460050702095032,-0.5513046383857727,0.48670822381973267,0.2448943555355072,0.7524628043174744,0.19877181947231293,-0.5472294092178345,-0.27962785959243774,1.3145393133163452,-0.6494128704071045,-0.24411547183990479,0.27193009853363037,-0.17821568250656128,0.23576673865318298,-0.5769995450973511,-0.6139048337936401,-0.82282954454422,-0.4332335293292999,-0.4901008605957031,0.6941574811935425,0.36369413137435913,0.6747584939002991,0.5245693325996399,0.5620543956756592,0.5136765837669373,-0.6080465912818909,0.7766672968864441,-0.7465130686759949,0.5401163101196289,0.47131848335266113,-1.2551932334899902,-0.0415649339556694,-0.7202955484390259,0.322833776473999,0.5592210292816162,0.15592141449451447,0.6622400879859924,1.2613259553909302,-1.1030763387680054,0.1395847350358963,0.3982681334018707,0.761868953704834,0.2175293117761612,-0.1826653927564621,-0.47647958993911743,0.997864305973053,-0.24391774833202362,0.6370885968208313,0.005605596117675304,0.864950954914093,-0.9664114713668823,-0.84625244140625,0.21762551367282867,-0.4689854681491852,-0.06748834252357483,-0.6390290856361389,0.02005864679813385,0.6437076330184937,0.11046217381954193,0.19929522275924683,-0.2706397771835327,-0.15318064391613007,0.4235994517803192,-0.8904657959938049,-0.6504709124565125,0.6040652990341187,0.08110407739877701,-0.059284474700689316,-0.6973423957824707,-0.2201675921678543,-0.23985007405281067,0.1736232042312622,-0.9377976059913635,0.15445345640182495,-0.01829703338444233,0.034948550164699554,0.9200881719589233,1.115779995918274,0.040369898080825806,0.4349420368671417,-0.7724428176879883,0.39551109075546265,-0.6537418365478516,0.5878987908363342,0.842934787273407,0.4463552236557007,0.34853866696357727,-0.43875375390052795,-0.29902392625808716,1.2303831577301025,-1.1321302652359009,-0.3793725371360779,0.5632706880569458,-0.33437833189964294,0.2836223840713501,-0.9664236903190613,-0.3486732840538025,-0.4491312503814697,-0.4238182306289673,-1.1028693914413452,0.5709422826766968,0.4140373468399048,0.4480348825454712,0.574064314365387,0.7763369679450989,0.38841113448143005,0.15083056688308716,-0.9501526951789856,-0.6173818111419678,-1.1969482898712158,0.15488801896572113,0.8773508667945862,-0.08732712268829346,0.23863913118839264,-0.1250152289867401,-0.30666789412498474,0.2568255364894867,-0.8435195088386536,-1.0215950012207031,1.0030710697174072,-0.07823529094457626,0.1415746808052063,-0.5857263803482056,-0.3603191673755646,-0.007824123837053776,0.18028703331947327,-0.9673585891723633,-0.1350046694278717,0.16338764131069183,-0.11944896727800369,1.02446711063385,1.100121021270752,0.15369173884391785,-0.40540754795074463,-0.3191568851470947,-0.7510982751846313,-0.9235668778419495,-0.2587232291698456,0.32979241013526917,-0.803476870059967,0.5476604104042053,0.6330609917640686,-0.21919037401676178,0.01990107260644436,-0.33454373478889465,-0.6052324175834656,0.536181628704071,0.7478461265563965,-0.5370667576789856,0.07339015603065491,0.2650682330131531,0.4055415093898773,0.7040777206420898,-0.5573894381523132,0.14241865277290344,-0.4521329998970032,-0.6185411214828491,1.0043624639511108,0.9846019744873047,0.003760764142498374,0.05352571979165077,-0.562666654586792,-0.7155459523200989,-0.49863916635513306,0.10807293653488159,0.46366971731185913,0.043395861983299255,0.9154955744743347,-0.7735602259635925,-0.793021023273468,0.19301557540893555,-0.20109549164772034,-0.5349658727645874,0.4325905740261078,0.975797176361084,-1.4537395238876343,-0.19952793419361115,-0.07978193461894989,1.9155253171920776,1.4458173513412476,-0.2986300587654114,-0.7322021722793579,-0.3424510657787323,-0.9746595621109009,0.6233416199684143,0.29812324047088623,0.6826847791671753,-0.637941300868988,0.011880828998982906,-1.151742935180664,-0.1606060415506363,-0.589525580406189,-0.001550080138258636,-0.6724514961242676,-0.03534543886780739,0.6406735181808472,-0.08035074174404144,-0.11402609199285507,-0.13347773253917694,-0.2644001543521881,0.24508674442768097,0.9269115328788757,-0.7364300489425659,0.1519135683774948,0.3048330545425415,0.7211594581604004,0.9198654294013977,-0.253702312707901,-0.32522881031036377,-0.7158324122428894,-0.7761226892471313,0.8227471113204956,0.5115997195243835,-0.22287023067474365,-0.5052746534347534,-0.2978905737400055,-0.9230372309684753,-0.845599353313446,-0.4217601716518402,0.25987669825553894,-0.6585623025894165,0.568449854850769,0.5035114288330078,-0.19637440145015717,0.021378720179200172,-0.3234506845474243,-0.7581285238265991,0.5103712677955627,0.7325981855392456,-0.6202665567398071,-0.018410574644804,0.4353100061416626,0.44471967220306396,0.846783459186554,-0.5444134473800659,0.03248053789138794,-0.5676544308662415,-0.6315309405326843,1.0234237909317017,0.9085604548454285,-0.15511804819107056,-0.4553307592868805,0.7441185116767883,-0.2810935974121094,0.5171501636505127,0.23703812062740326,-1.1435000896453857,0.1775561422109604,-0.3193534016609192,0.4040183424949646,0.42599916458129883,-0.6382243037223816,1.2388904094696045,0.9662582874298096,-0.8325374722480774,-0.040566641837358475,0.22176174819469452,1.023367166519165,0.30928823351860046,-0.0006733268382959068,-0.17409242689609528,1.3361989259719849,0.38129839301109314,0.26265034079551697,-0.2013406604528427,-0.38045597076416016,-1.1967222690582275,-0.41167524456977844,0.3417912721633911,-0.7387182712554932,-0.20265108346939087,-0.6691154837608337,0.6433400511741638,0.6841112375259399,0.3451401889324188,-0.12164156138896942,-0.6021688580513,0.07574507594108582,0.4747849404811859,-0.9691697359085083,-0.537814199924469,0.6513718366622925,-0.11668464541435242,0.2801121473312378,-0.6857782602310181,-0.05525722727179527,-0.5251399874687195,-0.13152290880680084,-0.9371577501296997,0.4317997395992279,0.19222807884216309,0.40625229477882385,0.9365575909614563,0.8114699125289917,-0.39211615920066833,-0.158620685338974,1.1650182008743286,0.28656038641929626,0.9684572219848633,-0.44703465700149536,-1.2776014804840088,0.1339888572692871,-0.9419609904289246,0.2263784259557724,1.2193453311920166,-0.716806173324585,0.12344283610582352,1.2431626319885254,-1.2757874727249146,0.3406205177307129,-0.1969280242919922,0.553537130355835,0.27009421586990356,-0.02409115806221962,0.09336084127426147,0.7239426374435425,0.45836883783340454,-0.35854482650756836,-0.1308617889881134,-0.10586842149496078,-0.5597597360610962,-1.6230509281158447,-1.130887508392334,0.8488641977310181,-0.6396719813346863,0.6613714098930359,-1.1813665628433228,-0.8428746461868286,-0.8678902983665466,-0.44429314136505127,0.5682400465011597,0.741260826587677,-0.6071139574050903,0.4696020483970642,0.8243588805198669,-0.8487269282341003,1.1767328977584839,-0.7201725840568542,0.4615786075592041,0.8994858860969543,0.6396956443786621,0.6014319062232971,0.6237829327583313,-0.7117536067962646,-1.724446415901184,-0.9915173649787903,0.07701906561851501,-0.6794063448905945,-0.8096644282341003,-0.2700776755809784,0.18765774369239807,0.5995296835899353,0.13796517252922058,-0.21697162091732025,-0.2084784060716629,-0.10352499783039093,0.24185188114643097,-0.18322013318538666,-0.10840141773223877,-0.3208412528038025,0.9206165671348572,0.577937662601471,-0.6017982959747314,-0.010704009793698788,0.16096600890159607,0.7264503240585327,0.2453833967447281,-0.8069298267364502,-0.7973135709762573,0.9364972114562988,0.41584643721580505,-0.5553463101387024,0.6211770176887512,-0.5202893614768982,-1.1002904176712036,0.11226600408554077,0.005642302334308624,1.4393526315689087,1.0969092845916748,0.8095093369483948,-0.4023222029209137,-1.0548981428146362,-0.5515149235725403,0.07124384492635727,0.6520694494247437,1.524935007095337,-0.8466637134552002,2.1088004112243652,0.8256790041923523,-0.9244500398635864,0.13401265442371368,-0.37910225987434387,1.6466177701950073,1.1856248378753662,0.6871418356895447,0.09530127048492432,1.3545821905136108,0.8140376210212708,0.20347318053245544,-0.7244519591331482,-1.700650930404663,-1.0235544443130493,-0.25994423031806946,-1.20198392868042,0.022869892418384552,-0.6677985787391663,0.10785970836877823,-0.049696579575538635,-0.12170055508613586,-0.914023756980896,0.6296132802963257,0.5265735983848572,0.05831766501069069,-0.3067893087863922,0.35871395468711853,0.17862382531166077,-0.05930253863334656,1.5227553844451904,-0.9597951769828796,0.12185658514499664,-0.10375125706195831,0.4555407464504242,0.881126344203949,0.12134354561567307,-0.5443563461303711,-1.3134616613388062,-1.076401710510254,0.2636188268661499,-0.15245313942432404,0.06252004951238632,0.05421429127454758,-0.9239153861999512,-0.2973724901676178,-0.7630591988563538,0.21740292012691498,0.8350966572761536,0.23220935463905334,-0.05972014367580414,0.07491382956504822,-0.764780580997467,0.3937036991119385,-0.5526465773582458,-0.595661997795105,0.7432820796966553,-0.06734491884708405,0.11188746988773346,-0.7830761671066284,0.13225804269313812,0.05276934430003166,-0.0021762291435152292,-0.6098865866661072,-0.09063063561916351,0.4746241271495819,-0.19266928732395172,0.749455988407135,0.6148995757102966,0.9526293873786926,-0.9806393384933472,0.09725656360387802,-0.06484264135360718,0.21203108131885529,-0.6844773292541504,-0.2077719122171402,-0.485784649848938,0.16555991768836975,0.5703434944152832,0.1269609034061432,-0.725141704082489,-0.017842566594481468,0.38153865933418274,-0.3255279064178467,1.0168092250823975,-1.1503065824508667,0.17808297276496887,1.1219171285629272,0.25027212500572205,0.20719046890735626,0.17593839764595032,0.44136008620262146,-1.7092686891555786,-0.3383278250694275,-0.19054655730724335,-0.456094890832901,-0.1854235976934433,-0.05998323857784271,-0.8708914518356323,-0.36899760365486145,-1.1345633268356323,0.16823136806488037,0.5927267074584961,0.19878751039505005,0.7136581540107727,0.14992621541023254,-0.7301453948020935,0.46952104568481445,-0.7705138921737671,-0.9427751302719116,0.8145915269851685,0.25708138942718506,-0.31193652749061584,-0.48116961121559143,0.3747481107711792,0.2764589786529541,0.32095685601234436,-0.8465043306350708,0.2436223328113556,0.2689967155456543,-0.25339117646217346,0.9284794330596924,0.7213775515556335,0.8949134349822998,-1.1261039972305298,0.016664575785398483,-0.9145875573158264,-0.030489210039377213,-1.4189586639404297,-0.10747737437486649,-0.8589794039726257,-0.08902560919523239,1.070346713066101,0.15227217972278595,0.2967969477176666,-0.3006534278392792,0.19138941168785095,-0.2147809863090515,1.300629734992981,-1.2266381978988647,-0.13219252228736877,1.3358937501907349,0.42624783515930176,1.0115381479263306,-0.1752048134803772,-0.8185659050941467,-1.6436095237731934,-0.5467519164085388,0.5356950759887695,0.28122010827064514,-0.22763988375663757]},"inputHidden":{"rows":20,"columns":20,"weights":[0.1392500102519989,-0.20088203251361847,-0.7398863434791565,0.05712150037288666,0.2170422524213791,-0.7860141396522522,0.17358651757240295,-0.21610823273658752,0.7307907938957214,-0.00046751575428061187,-0.024235790595412254,-0.15405221283435822,0.031913794577121735,0.042562488466501236,-0.06589657068252563,-0.2298196703195572,-0.22849048674106598,-0.19112083315849304,-0.4506479501724243,0.4370785355567932,-1.1999294757843018,1.4743866920471191,0.4587330222129822,-1.2578864097595215,0.5215161442756653,0.14976194500923157,-0.030727149918675423,0.8275911808013916,-0.8772646188735962,0.5731557011604309,-0.396799772977829,-0.3006669878959656,-0.44195881485939026,-0.27643775939941406,0.19936040043830872,0.015832576900720596,-0.5094330310821533,-0.2607363164424896,-0.13358375430107117,-0.5935961008071899,-0.8722964525222778,-0.02928210236132145,-0.539146900177002,-0.2812320590019226,0.6401187777519226,-0.690699577331543,-1.0178419351577759,-0.44296225905418396,0.5489073395729065,-1.1322087049484253,0.41681841015815735,0.5838456153869629,-0.8539051413536072,0.3429587483406067,-0.20296716690063477,1.1269793510437012,0.49924567341804504,1.0919936895370483,0.451896607875824,-0.8116707801818848,0.1844116896390915,-0.09396831691265106,-0.6333492398262024,0.07684874534606934,0.13644205033779144,-0.677177906036377,0.6796403527259827,-0.2389506697654724,0.7703587412834167,-0.3317883312702179,0.026679297909140587,0.20971286296844482,-0.10365647822618484,0.20324945449829102,-0.05670076981186867,-0.6516786217689514,-0.2249804437160492,0.11241652071475983,-0.3347841501235962,0.4996766746044159,-0.22434760630130768,-0.03506727144122124,-0.3523634374141693,-0.3202899694442749,0.6894550919532776,-0.7247809767723083,0.5632506608963013,-0.17165400087833405,0.2564111649990082,0.39442676305770874,0.055795107036828995,-0.18374507129192352,0.0519813671708107,0.13010576367378235,-0.374676913022995,-0.279529869556427,0.3448920249938965,0.43205636739730835,-0.014238251373171806,-0.2570313811302185,-0.7124088406562805,-0.3206775188446045,-0.4357127547264099,-0.5838194489479065,0.4568348526954651,-0.15585516393184662,0.0010206470033153892,-0.2886946201324463,0.11318764835596085,-0.40473029017448425,0.4360494613647461,0.26881805062294006,-0.40535229444503784,0.5922040343284607,0.39835894107818604,0.12621939182281494,0.4056204557418823,0.7746177315711975,0.5697488784790039,-0.8386289477348328,-0.13396921753883362,-0.41172945499420166,-0.26372918486595154,-0.2006223201751709,0.5146560072898865,-0.09207204729318619,0.046666864305734634,-0.043881017714738846,0.24986279010772705,-0.08454512804746628,0.3336077332496643,-0.0678134560585022,0.11259372532367706,1.071197509765625,-0.04651724547147751,0.19673945009708405,0.8560373187065125,0.026936935260891914,0.17774273455142975,-0.3302193284034729,-1.0493574142456055,-0.2847173810005188,-0.9746919274330139,-0.9045017957687378,0.8938286900520325,-0.9038355946540833,0.24203309416770935,-0.5855209231376648,0.6775357723236084,-0.7287733554840088,0.7874559164047241,0.43776246905326843,-0.7330556511878967,0.3235883116722107,0.510886013507843,0.0942179262638092,0.6822797060012817,1.2930562496185303,0.838772177696228,-0.9700842499732971,-0.37436196208000183,-0.34134921431541443,-0.4232504665851593,-0.44147729873657227,0.3608067035675049,-0.3231411576271057,0.012412887997925282,-0.2378157377243042,0.20304670929908752,-0.07944406569004059,0.21869921684265137,0.1271546334028244,-1.593841791152954,0.362026572227478,0.110750213265419,0.04994610697031021,0.30995848774909973,2.1281449794769287,0.37543877959251404,-0.6480703353881836,-0.049395475536584854,-0.4264584481716156,-0.16910403966903687,0.09557627886533737,-0.005093032028526068,0.27901920676231384,-0.3990023732185364,0.5749641060829163,-0.2550780475139618,-0.15852485597133636,0.3017089068889618,0.4162389039993286,0.1780812293291092,0.8392908573150635,0.504368245601654,0.4963657259941101,0.1854819357395172,0.9788423776626587,0.17936722934246063,-0.2750907242298126,-0.5468865633010864,-0.3914961814880371,-0.3738418221473694,-0.6355785727500916,0.5618492364883423,-0.5319960117340088,-0.7713091969490051,-0.3464394509792328,0.37960612773895264,0.31147298216819763,0.40255382657051086,-0.2736620008945465,0.17412137985229492,-0.11712253838777542,-0.5029695630073547,0.769370436668396,1.0575655698776245,0.5972958207130432,0.3587174415588379,-0.027147280052304268,0.6874738335609436,0.02508576400578022,0.49578288197517395,0.04166969656944275,-0.3355981707572937,0.32886460423469543,-0.21696121990680695,0.5345232486724854,-0.513728141784668,-0.24716901779174805,-0.3815443813800812,0.11352043598890305,-0.17220261693000793,0.8347305655479431,0.06094779819250107,0.47976920008659363,0.36631202697753906,1.148635983467102,-0.11572124809026718,-0.0020964215509593487,-0.24278587102890015,0.4001235365867615,0.3185535669326782,-0.4105242192745209,-0.05907631665468216,0.3593226969242096,-0.27719056606292725,0.5429767966270447,-0.27173179388046265,-0.32962489128112793,-0.008004579693078995,0.09670217335224152,-0.3408551514148712,0.3784891664981842,0.6662731170654297,0.16232818365097046,-0.19502821564674377,0.030974462628364563,0.3967219889163971,-0.13767950236797333,0.2207714170217514,-0.3529198467731476,0.2729993164539337,0.49741166830062866,-0.5524075627326965,0.21264998614788055,-0.29662376642227173,0.2162485271692276,-0.2803367078304291,0.2716991603374481,0.05038398131728172,-0.4803471863269806,1.802474856376648,-0.040208786725997925,0.128980815410614,0.6871718168258667,-0.09117833524942398,0.6628466844558716,0.08804380893707275,0.16039177775382996,0.27199387550354004,0.14780080318450928,0.14678409695625305,0.4573093056678772,0.09321380406618118,-0.333734393119812,-0.14477068185806274,-0.02379687689244747,0.26393526792526245,0.13674356043338776,0.038914427161216736,-0.21772995591163635,1.0571799278259277,-0.579780101776123,-0.7786758542060852,-0.4447060823440552,-0.15005163848400116,0.3449261486530304,0.008614595979452133,0.9217798709869385,-0.6062836647033691,-0.21270081400871277,-0.9376026391983032,-0.5309514403343201,1.0452768802642822,-0.7470357418060303,-0.9992566108703613,-0.5253822207450867,0.6903205513954163,0.2300858199596405,1.1417512893676758,-0.4961300194263458,-0.21151891350746155,0.15218693017959595,0.9583680629730225,0.6850237846374512,1.5638980865478516,1.029935359954834,0.9146385192871094,-0.7456303834915161,-0.3521561324596405,-0.17249807715415955,-0.2373475283384323,-0.186305433511734,0.04242675006389618,0.02991361916065216,0.04999484121799469,-0.12903733551502228,0.0855732262134552,-0.3719460666179657,0.26533690094947815,0.5179985761642456,-0.508369505405426,0.7159841656684875,0.5256911516189575,0.26783624291419983,0.369012713432312,0.8167320489883423,0.5558184385299683,-0.4840492904186249,1.0865072011947632,-0.3305603265762329,1.0018467903137207,1.1651114225387573,-1.0490018129348755,1.1646808385849,-0.28391051292419434,1.3701421022415161,-1.3687818050384521,-0.11767179518938065,-0.7183889150619507,-0.34626007080078125,0.0899248719215393,0.05294868350028992,0.8355582356452942,0.2167794108390808,-1.4683544635772705,-0.11920114606618881,-1.7228002548217773,-0.6068010926246643,-0.49879953265190125,0.2600681483745575,-0.36760079860687256,-0.3972431421279907,0.8293582201004028,-0.8423874378204346,-0.07980259507894516,-0.4291015565395355,0.4521905779838562,-0.394150972366333,0.48600295186042786,0.9113724231719971,-1.1564165353775024,0.7935770153999329,0.8894779682159424,0.34501227736473083,-0.2633972764015198,-0.15241177380084991,-0.3075483441352844,-1.0833665132522583,0.5874409675598145,0.2752702832221985,0.5447912216186523,0.46335914731025696,-0.38391849398612976,0.4196358323097229,0.21448053419589996,0.6187107563018799,-0.4471505284309387,0.3404390811920166,-0.459026575088501,0.3270866870880127,0.5772144794464111,-0.054047562181949615,-0.8652150630950928,0.1759113073348999,-0.817705512046814,-0.28428128361701965,-0.561191976070404,0.7146530747413635]},"inputBias":{"rows":20,"columns":1,"weights":[-0.03452034294605255,-0.5864323973655701,-0.7937204241752625,-0.29019343852996826,-0.9401143789291382,-1.020548701286316,0.433675080537796,-1.1167148351669312,-1.0593945980072021,-0.2590731978416443,-0.8025104403495789,-0.11690611392259598,-1.0052098035812378,0.3197254538536072,1.983132004737854,-0.24105826020240784,-0.5747763514518738,-0.2952425181865692,-0.6386759877204895,-0.08527742326259613]},"forgetMatrix":{"rows":20,"columns":27,"weights":[-0.12841689586639404,0.36242952942848206,0.9215101599693298,0.3826010525226593,-0.4888934791088104,-0.4703085720539093,-0.42816901206970215,-0.15916752815246582,-0.054228879511356354,0.27434247732162476,-0.5505719184875488,0.06902086734771729,0.30458617210388184,-0.4637911021709442,-0.08925695717334747,0.10332466661930084,0.2534142732620239,0.4827670454978943,-0.316758930683136,-0.1780846267938614,0.3885396122932434,0.9264234304428101,-0.1401529312133789,0.31816551089286804,-0.37689805030822754,-0.36104831099510193,-0.3778301775455475,0.33858439326286316,-0.9486499428749084,-0.23657283186912537,0.5020730495452881,0.6513954401016235,0.7153623104095459,0.350216269493103,-0.5936984419822693,-0.35517531633377075,-0.686501145362854,0.3065292239189148,0.06901143491268158,0.2952116131782532,0.8632534146308899,-0.8660820722579956,0.8026774525642395,-0.351933091878891,-0.5126194953918457,-0.051983170211315155,-0.5692148804664612,-0.2085653692483902,0.08857938647270203,0.8293343186378479,0.15222005546092987,-0.6058437824249268,0.019449837505817413,0.6518065929412842,-0.36837488412857056,0.30607733130455017,0.300400048494339,0.040186651051044464,-0.4117760956287384,0.01323409378528595,-0.5289425253868103,-0.16560964286327362,0.27901947498321533,0.17999997735023499,-0.30186450481414795,0.5421326160430908,-0.04782563075423241,-0.16808298230171204,0.2337070256471634,-0.3689703941345215,0.2502194941043854,0.49259689450263977,0.4781184792518616,0.4685212969779968,0.0078074815683066845,0.29588404297828674,-0.1359441727399826,-0.3192814588546753,-0.15198464691638947,-0.14355720579624176,-0.0039433748461306095,-0.5707417726516724,-0.13081076741218567,0.05526908114552498,-0.31318724155426025,-0.5504531860351562,0.08156564831733704,-0.6386458277702332,0.6456431150436401,0.6906856298446655,-0.25169143080711365,-0.31186118721961975,-0.10174740105867386,-0.25865793228149414,0.07447345554828644,0.5813111066818237,-0.6958091855049133,-0.03412923589348793,0.5038999915122986,0.689524233341217,0.6070505976676941,-0.19623976945877075,0.008873838931322098,-0.43698394298553467,-0.46582671999931335,0.3280407786369324,0.20038405060768127,0.18743926286697388,-0.284149706363678,0.5383058786392212,0.6120395660400391,0.5149583220481873,-0.4079865515232086,-0.25098347663879395,-0.381426602602005,-0.2701810300350189,0.08181517571210861,0.3866753876209259,-0.42968371510505676,0.620384156703949,0.37917065620422363,-0.5618945956230164,0.21853068470954895,-0.35541191697120667,0.3439803123474121,0.45005035400390625,0.00898866169154644,0.24998755753040314,0.41354575753211975,0.5030526518821716,-0.5155349373817444,0.16106060147285461,-0.34186550974845886,-0.4377403259277344,-0.2852700352668762,-0.4935925602912903,0.36434245109558105,0.32067930698394775,0.007340830285102129,-0.42022526264190674,-0.1020958349108696,-0.5236650705337524,-0.47486642003059387,0.39593079686164856,0.2529205083847046,-0.43283548951148987,0.6406306028366089,0.048508450388908386,-0.2436055839061737,0.08703578263521194,-0.2695830762386322,0.3499815762042999,0.4815763533115387,0.524480402469635,0.3750167191028595,0.21695463359355927,0.5560099482536316,-0.01838657446205616,-0.11871517449617386,-0.1603374183177948,-0.19997631013393402,-0.007628266699612141,-0.5842874646186829,0.4186296761035919,-0.5996423959732056,0.19983987510204315,-0.9174371957778931,-0.5940617918968201,-0.11122412234544754,-0.26870837807655334,0.7228112816810608,0.3272341191768646,-1.2216871976852417,0.754616916179657,0.735924243927002,-0.4694363474845886,0.12755344808101654,-0.23701339960098267,0.8616040945053101,0.5197204351425171,0.9667965173721313,0.2193465679883957,0.8039963841438293,-0.47137126326560974,-0.30392956733703613,-0.3906134068965912,-0.670174241065979,-0.9245333671569824,-0.5760013461112976,-0.4152412712574005,0.5054646730422974,-0.2461239993572235,0.02361251972615719,-1.211241364479065,-0.12810565531253815,-0.8970987200737,-0.22083666920661926,0.7142265439033508,0.46171727776527405,-0.15321721136569977,0.3854047954082489,0.182962566614151,-0.23274728655815125,0.3132619559764862,-0.4719725549221039,0.3189206123352051,0.9669753313064575,0.5736367106437683,0.8088600039482117,0.14086149632930756,0.04868429899215698,-0.6382361650466919,-0.3809332549571991,-0.23227740824222565,-0.24028871953487396,-0.4778410494327545,-0.6204259395599365,0.08597280830144882,0.2582935392856598,-0.08335284143686295,-0.5539618730545044,0.12793144583702087,-0.7119683027267456,-0.2168896645307541,0.3421514928340912,-0.05312517657876015,-0.29802417755126953,0.5581098198890686,-0.1609647125005722,-0.022442590445280075,0.22788432240486145,-0.3586898148059845,0.20202244818210602,0.7249733209609985,0.6101996898651123,0.5329383015632629,0.05542731657624245,0.45413780212402344,-0.036267779767513275,-0.2750186026096344,-0.09024074673652649,-0.2637713551521301,0.2931721806526184,0.6329784989356995,-0.4918072521686554,0.11041687428951263,-0.15386617183685303,0.30623310804367065,0.553170919418335,0.14837686717510223,0.2890993654727936,-0.9869309663772583,-0.5608536005020142,0.7697780728340149,-0.40910571813583374,-0.3405552804470062,0.3618299961090088,-0.6521267890930176,0.4642939865589142,-0.39448603987693787,-0.23547956347465515,-0.5772185921669006,-0.6135556101799011,-0.22330014407634735,1.2286509275436401,0.15559591352939606,0.5878487825393677,0.2945359945297241,0.1939122974872589,0.49250152707099915,-0.26440542936325073,0.3744504153728485,0.35369277000427246,0.22566059231758118,-0.0895538181066513,-0.3407934904098511,-0.20975859463214874,-0.21208405494689941,0.3254146873950958,0.40535178780555725,-0.4755103886127472,0.5090188980102539,0.2701810896396637,-0.3822954595088959,0.09806244820356369,-0.27573761343955994,0.4083980917930603,0.6177600026130676,0.3352103531360626,0.3146315813064575,0.29992687702178955,0.39387375116348267,0.06309327483177185,-0.3026527464389801,-0.29024502635002136,-0.29792606830596924,-0.31431159377098083,0.032386742532253265,-0.5393899083137512,-0.3442688286304474,-0.24066445231437683,0.07865806668996811,0.777593195438385,-0.19544942677021027,0.29715946316719055,-0.6542112827301025,-0.4923153519630432,1.1575336456298828,-0.5375655293464661,-0.3267505466938019,0.3899088501930237,-0.8002052903175354,0.6631587743759155,-0.47332093119621277,-0.3461717367172241,-0.3355594575405121,-0.408523827791214,-0.3625050485134125,-0.2193787693977356,0.24897177517414093,0.24961622059345245,0.4484477639198303,0.3466261625289917,0.37220004200935364,0.38452503085136414,-0.40789514780044556,-0.3004864454269409,-0.16774281859397888,0.17564216256141663,0.37824246287345886,0.12457551807165146,0.4754874110221863,-0.18247655034065247,-0.6272121071815491,0.8631682991981506,-0.9792454242706299,-0.26969555020332336,0.42478111386299133,0.00032553193159401417,0.1913820207118988,-0.6281967759132385,-0.48681312799453735,-0.24100953340530396,-0.25835222005844116,-0.32740962505340576,-0.35445910692214966,0.021647991612553596,0.0955980196595192,0.6855471134185791,0.45877206325531006,0.27891048789024353,-0.5682492256164551,-0.18439529836177826,0.02310846745967865,0.31583672761917114,0.4331088364124298,-0.44378912448883057,-0.3596133887767792,-0.4319007992744446,0.32990753650665283,-0.416594535112381,0.16021640598773956,-0.013327611610293388,-0.18228664994239807,-0.4322836399078369,0.2998678684234619,0.050395455211400986,0.19170361757278442,0.030560964718461037,0.1163356751203537,-0.01621478609740734,0.09179005771875381,-1.0642106533050537,-0.07777853310108185,-0.3176831305027008,0.5736948847770691,-0.10823941230773926,-0.3038465082645416,0.41907429695129395,-0.2603693902492523,-0.27600905299186707,-0.3158610463142395,0.6481627821922302,0.6229669451713562,0.23970241844654083,0.03752340376377106,-0.5498097538948059,-0.43142831325531006,0.8419102430343628,-0.7987484335899353,-0.38910430669784546,0.45189622044563293,-0.31645122170448303,0.43063119053840637,-0.4899034798145294,-0.9830796122550964,-0.43492040038108826,-0.5127670168876648,-0.5612117648124695,-0.7407327890396118,0.056703027337789536,0.2970583736896515,0.9399867653846741,0.6348693370819092,0.30603817105293274,0.16636109352111816,0.34679433703422546,-1.1059465408325195,0.11755114048719406,-0.5136062502861023,-0.3162589371204376,-0.6284229755401611,-0.3254817724227905,-0.013575417920947075,0.17846406996250153,-0.31972065567970276,0.39743340015411377,0.6109214425086975,-0.308724582195282,0.0254239309579134,-0.017972461879253387,0.4218675494194031,-0.023892588913440704,0.913322925567627,0.5129059553146362,0.6520177721977234,-0.8628942966461182,0.030332639813423157,-0.6992800235748291,-0.710487425327301,-0.6478285193443298,-0.360578715801239,-0.4427095055580139,0.14787742495536804,-0.1240803524851799,0.14310234785079956,-0.41563329100608826,-0.029201284050941467,-0.5793453454971313,-0.03957216069102287,0.6340234875679016,0.08728046715259552,-0.11191942542791367,0.08759589493274689,0.19898556172847748,-0.10978420823812485,0.4451376795768738,-0.45824483036994934,0.13812655210494995,0.43801218271255493,0.5155640840530396,0.5228882431983948,0.16342096030712128,0.004487195052206516,-0.4427066445350647,-0.5923553109169006,0.03670957684516907,-0.0842396691441536,-0.13516013324260712,-0.12505795061588287,0.7216693758964539,-0.18382439017295837,0.9663367867469788,-0.07125936448574066,-0.9762808680534363,-0.2741718590259552,-0.7006644010543823,0.30158162117004395,0.9174168109893799,-1.1483936309814453,1.1076960563659668,0.7710389494895935,-0.9052093029022217,-0.07670120894908905,0.1489439308643341,1.061881184577942,0.23930343985557556,0.2084793895483017,0.43062224984169006,0.9355544447898865,0.12863872945308685,0.47035863995552063,-0.10948701947927475,-0.6780866384506226,-0.9386144876480103,-0.8238503932952881,-0.385278582572937,0.7052714228630066,0.3804216682910919,0.5073078274726868,-0.5245382189750671,-0.8191843032836914,-0.291164368391037,-0.5536089539527893,0.3381456732749939,0.8285036087036133,-1.0138581991195679,0.7903303503990173,0.5157855153083801,-0.7388296723365784,0.25972649455070496,-0.34949758648872375,0.8646708130836487,1.0508513450622559,0.2631869316101074,0.42527130246162415,0.532162606716156,0.47948944568634033,-0.37303081154823303,-0.27407166361808777,-0.616291344165802,-0.8007303476333618,-0.7645352482795715,0.49154141545295715,0.282695472240448,0.1814650148153305,0.09842579811811447,1.0736827850341797,-0.008239181712269783,0.9634081125259399,-0.6345019340515137,-0.6328649520874023,0.1182781532406807,0.48604828119277954,-0.4048541784286499,0.0039605689235031605,-0.01391717977821827,-0.41697871685028076,0.3887024521827698,-0.2068987488746643,-1.0101052522659302,-1.018730878829956,-1.0633544921875,-0.18852704763412476,-0.5135746598243713,0.05069177225232124,0.7542536854743958,0.41256409883499146,0.2995966970920563,-0.3533143401145935]},"forgetHidden":{"rows":20,"columns":20,"weights":[-0.43843981623649597,-0.0848192572593689,-0.4049184322357178,-0.43541547656059265,0.38970354199409485,-0.7106713056564331,-0.13228246569633484,-0.5424714088439941,0.6415462493896484,0.04458922520279884,0.29627397656440735,-0.30194562673568726,0.15982183814048767,-0.48327314853668213,-0.09204663336277008,-0.18179340660572052,0.22826439142227173,0.36528703570365906,0.30343353748321533,0.020448965951800346,-0.7948719263076782,-0.30974218249320984,0.1762278974056244,-0.7413287162780762,0.21748313307762146,0.8384360671043396,-0.09729215502738953,0.47081661224365234,-0.3311860263347626,-0.40355974435806274,0.22069144248962402,0.47889432311058044,-0.5100643038749695,0.33344849944114685,0.287272572517395,0.07247936725616455,0.24420449137687683,0.18706056475639343,0.5640996098518372,-0.10072774440050125,-0.7078933715820312,-0.06736266613006592,-0.5244929790496826,-0.7133297920227051,0.2797819972038269,-0.2791738212108612,1.0444239377975464,-0.3236117660999298,0.2841651141643524,0.11050301790237427,0.6041361689567566,-0.30584487318992615,0.35140150785446167,0.028599636629223824,-0.1328904628753662,-1.407598853111267,0.431389719247818,-0.2787827253341675,0.5722573399543762,0.05968022346496582,-0.23021158576011658,-0.2476973831653595,-0.02033871039748192,-0.33633729815483093,0.014553854241967201,0.012204349972307682,-0.34508389234542847,-0.044944729655981064,-0.0131903775036335,0.13534078001976013,0.011286643333733082,0.2659330666065216,-0.13686832785606384,-0.09312513470649719,-0.2058362364768982,0.38924640417099,-0.18985000252723694,0.525905966758728,0.18761877715587616,-0.29368889331817627,-0.5684293508529663,0.018510689958930016,-0.3518623113632202,-0.5544799566268921,0.337833434343338,-0.37597477436065674,0.9186263680458069,-0.4569612145423889,0.2994621992111206,0.0020291355904191732,0.34935861825942993,-0.7815488576889038,-0.0913032591342926,-0.06491527706384659,-0.012360895052552223,-0.9763191342353821,0.1646699160337448,-0.19796529412269592,0.4169902205467224,0.010835232213139534,-0.7952492833137512,-0.14795643091201782,-0.6393236517906189,-0.6958860158920288,0.5351486802101135,-0.60628741979599,1.0867993831634521,-0.7471553087234497,0.5468413829803467,0.2851099669933319,0.5928705334663391,-0.20076286792755127,0.4357726573944092,-0.08445283770561218,-0.3026158809661865,-1.4446057081222534,0.5938711166381836,0.047558605670928955,0.7293532490730286,0.1557319611310959,0.31416335701942444,-0.5972762703895569,-0.016937898471951485,0.23977895081043243,-0.36008352041244507,0.3500247299671173,0.6576602458953857,-0.17879831790924072,0.21524059772491455,-0.44411543011665344,-0.38463887572288513,0.6633727550506592,-0.5696375370025635,0.4248267412185669,0.6540369987487793,-0.4750312566757202,-0.07485697418451309,0.23443864285945892,-0.20752467215061188,-0.38160616159439087,-0.1358836442232132,-0.15271486341953278,0.3111378848552704,0.009504800662398338,-0.20509040355682373,0.34429803490638733,0.30667755007743835,0.16245779395103455,-0.26078495383262634,-0.011222695000469685,0.07869002968072891,-0.07338277995586395,2.095170259475708,0.18772268295288086,-0.015388202853500843,-0.7864909172058105,-0.33296775817871094,-1.2654364109039307,-0.04419157654047012,-0.09521246701478958,-0.7726786136627197,-0.05348819121718407,-0.32994207739830017,-0.6558489203453064,0.7153812050819397,-0.3665982186794281,1.1759259700775146,-0.28506994247436523,0.47646260261535645,0.10337773710489273,0.599851131439209,-0.4394727349281311,3.4251456260681152,0.08380696177482605,0.09717118740081787,-1.5191307067871094,0.2884272336959839,-2.3630051612854004,0.5020860433578491,-0.26240018010139465,-0.19208595156669617,-0.10993195325136185,-0.31588488817214966,-0.2624512314796448,-0.004884760361164808,-0.2743300497531891,-0.07446223497390747,-0.3449568748474121,0.2841517925262451,-0.22665594518184662,0.1851060390472412,0.3361421227455139,-0.6284886598587036,0.5697831511497498,0.761475145816803,-0.20046351850032806,0.5692629218101501,0.21426258981227875,0.35260361433029175,-0.4395677447319031,-0.33762189745903015,0.06731726974248886,-0.3025510609149933,-0.3358832597732544,0.13816873729228973,-0.5993493795394897,0.9431155323982239,-0.5329254865646362,0.37042340636253357,-0.015619798563420773,0.04739614576101303,-0.3058462142944336,0.13812470436096191,-0.012617131695151329,-0.15946760773658752,-1.0384594202041626,0.09530343115329742,0.288448303937912,0.27007049322128296,0.02946985699236393,-0.05677615478634834,-0.03936228156089783,-0.12060287594795227,-0.1439806967973709,0.04950959235429764,-0.058894701302051544,-0.22838261723518372,-0.5629634261131287,0.17312200367450714,-0.4600830674171448,0.079976387321949,0.4515773355960846,-0.5537367463111877,0.5024335384368896,0.35361188650131226,-0.2807377576828003,0.6655673980712891,0.34749335050582886,0.576408863067627,-0.3193475008010864,-0.12978923320770264,-0.651459276676178,0.2717875838279724,-0.2581946551799774,-0.6406112909317017,0.3225971460342407,-0.39350950717926025,0.30170220136642456,-0.4130304753780365,-1.416947603225708,0.12637917697429657,1.0742751359939575,-1.0879298448562622,1.146300196647644,0.9021374583244324,0.7440595030784607,-0.010541906580328941,0.5077199339866638,-0.04539114236831665,-1.1947907209396362,-0.1855507344007492,-1.1914253234863281,0.319994181394577,-0.3250064253807068,0.252346396446228,0.2887740433216095,-1.2933586835861206,0.33235079050064087,-0.183716282248497,-1.32620108127594,0.21406704187393188,1.4690353870391846,-1.162956714630127,1.4019733667373657,1.185398817062378,1.4165376424789429,0.31302180886268616,1.3883482217788696,-0.006024333648383617,-1.3701670169830322,0.16140921413898468,-0.4298100471496582,0.12923076748847961,-0.026603296399116516,-0.1279081404209137,0.029501695185899734,-0.6343520879745483,0.0781247690320015,-0.07340189814567566,-0.8866653442382812,-0.002639241050928831,1.2890816926956177,-0.6971012949943542,0.9656384587287903,0.6292001605033875,1.021390676498413,0.03475971147418022,0.9289013743400574,-0.10190579295158386,-0.7990022301673889,0.7818740606307983,-0.781825602054596,1.2651917934417725,0.8293259143829346,-1.040920615196228,1.2175863981246948,0.5662292838096619,1.0837889909744263,-1.0574488639831543,-0.14023229479789734,-1.2440462112426758,0.5697433352470398,-0.454873263835907,0.18960821628570557,0.6407711505889893,-0.832586944103241,-0.7746126651763916,0.38092806935310364,-0.9461821913719177,-0.18247300386428833,-0.47453710436820984,-0.04088326916098595,-0.4169972538948059,-0.5160993337631226,0.2846769392490387,-0.4251101016998291,-0.11064426600933075,-0.47638431191444397,0.3572098910808563,-0.08725074678659439,0.38844481110572815,0.5813472867012024,0.6748898029327393,0.13504688441753387,0.0512734092772007,-0.15095770359039307,0.4347255527973175,0.24338167905807495,0.520814836025238,-0.04525841027498245,-0.2785133123397827,0.7076548933982849,-0.012408608570694923,-0.2882019281387329,0.0009975306456908584,-0.05815208703279495,-0.30874598026275635,0.1188126653432846,-0.025419289246201515,0.2889741063117981,0.24798278510570526,-0.43133094906806946,0.2288661003112793,-0.3140064775943756,-0.1617785096168518,0.015190341509878635,0.05708581209182739,-0.32950207591056824,0.27974894642829895,0.36682072281837463,-0.3424752354621887,-0.3122771382331848,-0.09846127778291702,-0.2499387115240097,0.5839836001396179,-0.7455461621284485,0.17038434743881226,-0.02722666785120964,0.1956714391708374,-0.04659973084926605,0.2527492344379425,-0.08008550852537155,0.45451176166534424,-0.039406273514032364,-0.4589722156524658,-0.4845828115940094,-0.0998416617512703,0.17823100090026855,0.19959716498851776,0.43453115224838257,-0.18871581554412842,-0.8138163089752197,-0.06690113991498947,-0.2342582643032074,-0.05800098553299904,0.016426915302872658,-0.9023305773735046,-0.07683930546045303,0.09443683922290802,-0.5945704579353333,0.17395566403865814,1.0708848237991333,-0.5475015044212341,0.6063987016677856,0.6262451410293579,1.1218465566635132,0.22596950829029083,1.1793959140777588,0.04582061618566513,-0.5900403261184692]},"forgetBias":{"rows":20,"columns":1,"weights":[0,0,0,0,0,0,0,0,0,0,0,0,0,0,0,0,0,0,0,0]},"outputMatrix":{"rows":20,"columns":27,"weights":[0.07033081352710724,-0.3725590705871582,0.5011183619499207,-0.8240717053413391,0.15142744779586792,0.4256056845188141,0.47512927651405334,0.42828020453453064,-0.4101422131061554,-0.42683735489845276,1.5213438272476196,-0.9230703115463257,-0.2537979483604431,0.388904333114624,0.1427103579044342,0.06219140812754631,-0.9042357206344604,-0.5026857852935791,-0.8754798173904419,-0.5445108413696289,-0.6143144965171814,0.5498149394989014,-0.16457423567771912,0.7040511965751648,0.8057301044464111,0.5459638833999634,0.6805915832519531,0.22852782905101776,0.3824491500854492,-0.7262890934944153,0.18781843781471252,1.7918165922164917,-0.7049645781517029,0.40878522396087646,-0.18762362003326416,0.04304378479719162,-0.08388684689998627,0.1486947387456894,0.6272312998771667,0.3598269820213318,-0.34276965260505676,-0.8873144388198853,0.9903557300567627,0.5751776099205017,-0.4928382933139801,-0.11456403136253357,-1.017725944519043,0.6017159819602966,-0.5622066855430603,1.8500540256500244,-0.5022826194763184,0.2478613704442978,-0.388131707906723,0.1476508229970932,-0.29926660656929016,-0.7118836641311646,-0.4683198928833008,-0.8057400584220886,-0.15755778551101685,0.32411569356918335,-0.38439255952835083,0.2825957238674164,0.5434929728507996,-0.2473316192626953,-0.3069899082183838,-0.6084713935852051,-0.9650911688804626,0.6944340467453003,0.5591127276420593,-0.529860258102417,-0.00807568896561861,0.3341125249862671,0.6166201829910278,0.9309027791023254,-0.5869159698486328,-0.3032373785972595,0.012045915238559246,-0.8553766012191772,0.7909191250801086,0.8081187605857849,-0.11193462461233139,-0.047754932194948196,-0.6114285588264465,0.1851179003715515,-0.8287203907966614,0.003046901198104024,0.7802071571350098,0.16554446518421173,0.20223332941532135,-0.051130618900060654,-0.8720722198486328,0.9394904971122742,-0.8477352261543274,-0.5862614512443542,0.7592734098434448,-0.2032843679189682,0.37685176730155945,-0.8714409470558167,-0.31369689106941223,-0.39573267102241516,-0.3569032847881317,-0.8272261023521423,-0.169660747051239,0.03295101597905159,0.21971087157726288,0.9130944013595581,0.7994118332862854,0.8289669156074524,-0.4682983458042145,-0.7283053994178772,-0.6843305230140686,-1.078701138496399,-0.37028706073760986,0.34150430560112,-0.484858900308609,0.4173729717731476,0.5887993574142456,-0.021668968722224236,-0.19410939514636993,-0.765363335609436,-1.138944149017334,0.6773685812950134,0.40448230504989624,-0.41254448890686035,-0.47040364146232605,0.125826895236969,0.1264236569404602,0.6071434617042542,-0.8155308961868286,-0.47377240657806396,-0.30722925066947937,-0.46345263719558716,0.7105966806411743,0.491510272026062,-0.30622562766075134,0.16982486844062805,-0.9426587224006653,-0.4672771394252777,-0.9551371932029724,0.22507762908935547,0.8800249099731445,0.07868361473083496,0.19095101952552795,0.028589416295289993,-0.7171252965927124,0.3312980532646179,-0.839205801486969,-1.061434030532837,1.0726579427719116,-0.04326442629098892,0.0700039342045784,-0.8666279315948486,-0.12444817274808884,-0.010009166784584522,0.1574477255344391,-1.090835452079773,-0.15478698909282684,0.19397500157356262,-0.07942641526460648,0.950772762298584,1.1621161699295044,0.45175701379776,-0.33176174759864807,-0.007946383208036423,-0.7710618376731873,-0.3335101008415222,-0.20929054915905,0.23981933295726776,-0.08860725909471512,1.1213034391403198,-0.3364277482032776,-0.1941322386264801,0.3764881491661072,-0.5851141810417175,-0.2221551239490509,0.15325383841991425,1.6399751901626587,-1.6579995155334473,-0.5046907663345337,-0.7131530046463013,1.3281162977218628,1.0117194652557373,-0.47192704677581787,-0.9717265963554382,-1.5735325813293457,-1.019941806793213,1.191298246383667,0.24472735822200775,0.1250593662261963,-0.16818280518054962,-1.0816621780395508,-0.8066980838775635,-0.7861273884773254,0.0022665103897452354,0.5914130806922913,0.01571536809206009,0.43077367544174194,0.3304094076156616,-0.852176308631897,-0.05057903751730919,-0.6895267963409424,-0.956294596195221,0.8754228949546814,0.44390884041786194,-0.36397457122802734,-0.2571529448032379,0.08933163434267044,0.5326874256134033,0.7092950344085693,-0.6817053556442261,-0.19913332164287567,-0.019423287361860275,-0.5650918483734131,0.8396548628807068,0.6283723711967468,0.42805564403533936,-0.25859764218330383,-1.3560913801193237,-0.6422612071037292,-0.681738555431366,0.26766127347946167,0.5304064750671387,-0.03417731449007988,0.3800833523273468,0.3492947220802307,-0.9855718016624451,-0.2826971709728241,-0.4676439166069031,-0.8914299011230469,0.9693924784660339,0.46728870272636414,-0.49173036217689514,-0.25176921486854553,0.27286699414253235,0.4471991956233978,0.6524522304534912,-0.6166199445724487,-0.005064524244517088,0.17209269106388092,-0.6535504460334778,0.5398955941200256,0.6251497864723206,0.6252126693725586,-0.13982589542865753,0.6402015089988708,-0.9007347822189331,0.41897302865982056,0.6691926121711731,-0.6136752963066101,0.7722305655479431,-0.7251323461532593,-0.2389734387397766,-0.03199063614010811,0.16870318353176117,0.29711055755615234,0.6955620646476746,-0.6076125502586365,0.003731885924935341,0.23270560801029205,-0.03694984316825867,-0.5406363010406494,-0.3619517385959625,-0.38660889863967896,0.6039848923683167,-0.06481774896383286,-0.19404418766498566,0.4206005036830902,0.06991023570299149,-0.6101739406585693,0.023339813575148582,-0.0007573202019557357,-0.9768073558807373,-0.4914878010749817,-1.1718260049819946,0.19804488122463226,0.8032569289207458,-0.012048662640154362,0.10711721330881119,-0.19760586321353912,-0.05293804407119751,0.17309927940368652,-0.8252726793289185,-0.7991503477096558,0.8063563704490662,0.11583737283945084,0.09694124758243561,-0.5202456116676331,-0.28482502698898315,0.07168422639369965,0.22793646156787872,-1.0096831321716309,-0.24440108239650726,0.15162871778011322,0.009620800614356995,1.2239445447921753,0.7148699164390564,0.17876876890659332,-0.45268315076828003,0.6455336809158325,-1.4537183046340942,0.08188876509666443,-1.1889945268630981,-0.22178438305854797,-1.192368745803833,-0.3553992509841919,0.34839630126953125,0.5599486827850342,0.29349127411842346,-0.66159987449646,0.1091761514544487,-0.2021971195936203,1.1471186876296997,-0.7105979919433594,-0.28896012902259827,-0.9953571557998657,0.5826659798622131,1.1917657852172852,-0.42291727662086487,-1.4109923839569092,-2.309065818786621,-1.0302848815917969,1.0140033960342407,0.4215796887874603,-0.6107892990112305,-0.7246381640434265,0.6931981444358826,-0.6491618752479553,0.5945791602134705,-1.035327672958374,-0.44009536504745483,-0.45465314388275146,-0.3723348081111908,0.6281139850616455,0.61948162317276,0.48152294754981995,-0.656735897064209,0.8398353457450867,-0.6591203808784485,0.8691374063491821,-0.2662195861339569,-0.652152955532074,0.11941729485988617,-0.18652978539466858,-0.10460484027862549,-0.20593270659446716,-1.4546267986297607,-1.5181479454040527,-0.23061202466487885,0.8547283411026001,0.14591006934642792,-0.9423126578330994,-1.443789005279541,0.43292346596717834,-0.7001826763153076,0.3025802969932556,-0.42379191517829895,-1.006534218788147,-0.7129047513008118,0.1353689432144165,0.8850404620170593,0.577435314655304,-0.9825208783149719,1.1288942098617554,0.5536870956420898,-0.5434861183166504,0.6257922053337097,-0.20225200057029724,1.205100417137146,1.0863093137741089,-0.08308379352092743,-0.09010782092809677,0.7936285138130188,-0.2085927575826645,-0.6526662707328796,-0.32807624340057373,-0.11162259429693222,-0.7963991165161133,-0.6403440237045288,0.1415477991104126,1.1845881938934326,1.6098194122314453,1.5272384881973267,-0.11267276853322983,-1.0893620252609253,0.05581654608249664,-0.48753654956817627,0.33132046461105347,1.1578662395477295,-0.7486421465873718,1.259417176246643,1.263656497001648,-1.1078840494155884,-0.35949593782424927,0.1930224448442459,1.551436185836792,0.6453796029090881,-0.10854779928922653,-0.44874414801597595,1.5856019258499146,1.147956132888794,0.31473004817962646,-0.1441313475370407,-1.6279401779174805,-1.5341131687164307,-1.411902904510498,-0.8386145830154419,-0.13988620042800903,-1.1600801944732666,0.02421935275197029,0.6332084536552429,-0.03245307132601738,-0.23411966860294342,0.7349900603294373,0.17736168205738068,-0.2738068103790283,-0.7575832605361938,0.10087548196315765,0.03322507441043854,-0.038657091557979584,1.6410565376281738,-1.4430227279663086,0.1710844337940216,-1.0660700798034668,0.828170657157898,-0.011703377589583397,0.16876289248466492,-0.5030812621116638,-0.6913291215896606,-1.0027743577957153,0.45335492491722107,-0.22806096076965332,0.15577280521392822,0.2811696529388428,-1.1071935892105103,-0.5350476503372192,-1.1552097797393799,0.4369393289089203,1.0778926610946655,0.20485134422779083,-0.21227653324604034,0.11439941823482513,-0.6019425988197327,0.48830047249794006,-0.6318202614784241,-0.9960080981254578,1.1895266771316528,-0.308394193649292,0.2674088180065155,-0.752047598361969,-0.0010957331396639347,0.20165292918682098,-0.03259455785155296,-0.8708503842353821,-0.3020781874656677,0.47177445888519287,-0.19741125404834747,0.9624852538108826,0.8715218901634216,0.7997223734855652,-1.2828450202941895,0.14568549394607544,-0.4921855032444,0.2501091957092285,-0.6408918499946594,-0.3259299695491791,-1.3059401512145996,-0.01846146211028099,0.7477418780326843,0.11130094528198242,-1.0744905471801758,0.4327201247215271,0.36026355624198914,-0.41507744789123535,1.2400178909301758,-1.0447580814361572,0.660216212272644,1.076225996017456,0.6647148132324219,0.8181985020637512,0.26473966240882874,-0.03144546225667,-1.2139261960983276,-1.0859739780426025,-0.1538865864276886,-0.5018337368965149,-0.4159267842769623,0.1360531896352768,-0.5409331917762756,-0.13382373750209808,-0.7302438020706177,-0.13198858499526978,0.7437213063240051,0.14526160061359406,0.6634527444839478,-0.2562081813812256,-0.6132608652114868,0.8945541977882385,-1.0848742723464966,-0.6257621645927429,0.5901890397071838,-0.1716710925102234,0.051611267030239105,-1.1465914249420166,0.03128219395875931,-0.4900990426540375,-0.23415923118591309,-0.9925575256347656,0.32764101028442383,-0.05205677077174187,0.3784867823123932,0.8361406326293945,1.001924991607666,0.8266221880912781,-0.2203972488641739,1.418209195137024,0.9034053683280945,0.9086912274360657,-0.7187734246253967,-1.430397391319275,0.017986958846449852,-0.6361902952194214,0.29476746916770935,1.3160252571105957,-0.2940997779369354,0.13232962787151337,1.2626880407333374,-1.6644477844238281,0.5224555730819702,-0.5747087597846985,0.3845987617969513,0.5753256678581238,-0.31393158435821533,-0.4850528836250305,0.6325514316558838,1.089990496635437,-0.43368062376976013,-0.013047032058238983,0.11675899475812912,-0.46873098611831665,-1.4185504913330078]},"outputHidden":{"rows":20,"columns":20,"weights":[-0.3298555612564087,-0.2773839235305786,-0.44339439272880554,-0.2907397150993347,-0.09283658117055893,-0.7043514251708984,0.09774775803089142,-0.1018693819642067,0.5750212073326111,-0.05452444776892662,0.2186511904001236,0.05874011293053627,-0.060057029128074646,0.24692188203334808,0.055340476334095,-0.29282835125923157,-0.3518996238708496,0.14152224361896515,-0.40682774782180786,-0.03318095952272415,0.19142703711986542,-0.0880223736166954,0.49104365706443787,0.1783234030008316,-0.06681730598211288,0.5807936191558838,-1.109657645225525,0.5277342796325684,-0.8439691066741943,0.3471113443374634,0.05589527264237404,0.15095697343349457,-0.6887608766555786,-0.28725478053092957,0.657198429107666,0.7272657155990601,0.1626051366329193,0.46956825256347656,-0.041852425783872604,-0.413382887840271,0.08113069832324982,0.19816455245018005,-0.18722020089626312,0.0692204013466835,0.2526094615459442,-0.7258013486862183,-0.7719095945358276,-0.2125585377216339,0.2285783737897873,-0.03563769906759262,-0.24734997749328613,0.22922129929065704,-0.3182538151741028,-0.49530163407325745,-0.20946542918682098,-0.005640505347400904,-0.15912450850009918,0.29629841446876526,-0.4507622718811035,-0.459878146648407,-0.14348018169403076,-0.6963383555412292,-0.48244374990463257,-0.639502763748169,-0.2569461464881897,-0.7911820411682129,0.5975788831710815,-0.1769097000360489,0.6528602242469788,-0.48466864228248596,0.23503592610359192,0.09922918677330017,-0.36640313267707825,0.4301063120365143,0.30386579036712646,-0.5851197242736816,-0.2127428501844406,0.5970507860183716,-0.1292893886566162,-0.13375237584114075,0.6365399360656738,0.0677240863442421,0.4284597337245941,0.6384103298187256,-0.39232337474823,-0.1605391949415207,-0.24654699862003326,0.31859129667282104,-0.4272521436214447,0.06120670959353447,-1.074080228805542,-0.35909032821655273,0.07202266156673431,0.027583250775933266,-0.07954983413219452,-0.1358472853899002,-0.6676580309867859,0.2735193967819214,-0.8683804273605347,-0.17718547582626343,-0.29050248861312866,-0.34394747018814087,-0.12113532423973083,0.2132236361503601,0.043527569621801376,0.1264541894197464,0.4936375021934509,-0.04076036810874939,0.020305722951889038,-0.34675461053848267,-0.22327721118927002,-0.11124750971794128,-0.395102322101593,-0.538219153881073,-0.08022306859493256,0.6150216460227966,0.002020964166149497,0.5630744695663452,-0.0342615582048893,-0.4767041802406311,-0.1585998684167862,0.03221471235156059,-0.3927690386772156,-0.34586861729621887,0.6035047173500061,-0.20392337441444397,0.8427545428276062,-0.19590604305267334,0.3739834427833557,-0.09992944449186325,0.3592032194137573,0.307466059923172,-0.4648073613643646,0.6320896744728088,0.17683111131191254,-0.5650660395622253,1.0527867078781128,0.05503344535827637,0.39409878849983215,-0.23394989967346191,-0.7823914885520935,0.008174555376172066,-0.8461481332778931,-0.8025494813919067,0.7917066812515259,-0.8173692226409912,-0.5185213685035706,-0.7318415641784668,0.7530072331428528,-0.5831109285354614,0.3582744896411896,0.5293397903442383,-1.5447486639022827,-0.003162758657708764,0.25656411051750183,0.7837901711463928,0.599465548992157,1.8444010019302368,0.6202533841133118,-0.9463008642196655,-0.42556294798851013,0.22388680279254913,-0.8825326561927795,-0.6327090859413147,0.9123154282569885,-0.9537631869316101,-1.2867326736450195,-1.089401364326477,1.001794695854187,-0.217227503657341,0.11466262489557266,0.029748721048235893,-1.1667089462280273,-0.25713953375816345,-0.17873001098632812,0.7601292133331299,0.6355996131896973,1.2164863348007202,0.30824708938598633,-0.7641966342926025,-0.20028039813041687,-0.012497118674218655,-0.28601059317588806,0.07254837453365326,0.11013469099998474,0.13721348345279694,-0.33178287744522095,-0.03542906790971756,-0.15626712143421173,-0.3569341003894806,0.30507028102874756,0.7066885828971863,-0.2891456186771393,0.8718174695968628,0.4225620925426483,1.1461864709854126,0.6550513505935669,0.728782057762146,0.3016357719898224,-0.7671361565589905,-0.4225177466869354,0.057236894965171814,-0.015924299135804176,-0.16048842668533325,0.5828721523284912,-0.46132493019104004,0.22081544995307922,-0.1803789585828781,0.07311311364173889,0.38686084747314453,0.2710341215133667,-0.3532090485095978,0.09220858663320541,0.17109085619449615,-0.10557301342487335,-0.3738018870353699,-0.13869699835777283,0.4721662104129791,-0.3107529580593109,-0.14206668734550476,0.05591949075460434,-0.47343361377716064,-0.03613103926181793,0.0776892676949501,-0.2827647626399994,-0.15202373266220093,-0.6979928612709045,0.5588721036911011,0.10185705870389938,-1.038479208946228,-0.029598889872431755,1.237269401550293,-0.8420851230621338,0.6979068517684937,0.5249638557434082,0.8672549724578857,0.47551777958869934,0.882818877696991,0.06244564801454544,-0.6844934225082397,0.08863269537687302,-0.37927985191345215,0.5514070391654968,0.11673198640346527,-0.39331573247909546,0.5933566093444824,-0.6795548796653748,1.1956955194473267,-0.7169989347457886,-0.9907116293907166,0.22989200055599213,0.9264243841171265,-1.499640941619873,1.816234827041626,1.3465498685836792,1.4511759281158447,0.27745985984802246,0.39940130710601807,-0.11772612482309341,-1.9081518650054932,0.8540993928909302,-0.7267012000083923,0.04839026555418968,0.9058527946472168,-0.012075046077370644,-0.2820872664451599,-0.6268253326416016,0.1534014195203781,0.18895989656448364,-0.4572911858558655,0.015964964404702187,0.12351559847593307,-0.03147203102707863,0.822358250617981,0.2625737488269806,0.5792120099067688,0.4667242467403412,0.1719667613506317,-0.8231955766677856,-0.29462167620658875,0.5760088562965393,0.07460689544677734,0.31822267174720764,0.4801129996776581,-0.02534496784210205,-0.1361146718263626,-0.21110469102859497,0.31652820110321045,-0.23238302767276764,-0.3948010504245758,-0.1483110934495926,-0.020044205710291862,-0.21889469027519226,0.769204318523407,0.4630107283592224,0.7402090430259705,-0.12192691117525101,1.0973392724990845,-0.3122999370098114,-0.8978684544563293,-0.623326301574707,0.347214013338089,-0.7420741319656372,-0.6743213534355164,0.8385189175605774,-0.5704235434532166,-0.4046352505683899,-0.2832157611846924,0.5233150124549866,0.3041166365146637,1.1669543981552124,-0.6328984498977661,-0.09568780660629272,0.13123014569282532,0.9652678966522217,-0.08386161923408508,1.7866542339324951,0.5207968354225159,0.8719485998153687,-0.5976915955543518,-0.30961769819259644,-0.30075713992118835,-0.115578293800354,-0.23575030267238617,0.11143927276134491,0.28958427906036377,1.2899130582809448,0.2500609755516052,-0.2799023389816284,-0.36856475472450256,0.4305313527584076,0.5310982465744019,-0.20064377784729004,0.4843996465206146,0.23744599521160126,-0.0008476832881569862,0.2600841224193573,0.38353773951530457,0.44257423281669617,-0.07567359507083893,0.34353938698768616,-0.3233492970466614,-0.6006286144256592,0.2505646049976349,0.34723222255706787,-0.294795960187912,-0.8870453834533691,-0.5628898739814758,0.6472659707069397,-0.23994997143745422,0.24245157837867737,-0.23904924094676971,-0.39911675453186035,0.2746824324131012,0.5999554991722107,0.6293938755989075,0.7685710787773132,0.6775587201118469,0.1353321075439453,-0.5991584062576294,-0.11940158158540726,-0.42305266857147217,-0.39667484164237976,-0.2823682129383087,-0.055798619985580444,-0.5311510562896729,-0.1823040395975113,-0.6853678822517395,0.6356788277626038,-0.6198669672012329,-0.22714288532733917,0.9029958248138428,-0.836228609085083,0.35691988468170166,0.46207383275032043,0.30526819825172424,0.05471314489841461,0.07611631602048874,-0.11984824389219284,-0.5921326279640198,1.480759620666504,0.22471240162849426,1.0197157859802246,0.7700550556182861,-0.8085577487945557,0.6460009813308716,-0.7349359393119812,0.8885537385940552,-0.864514946937561,0.2478877305984497,-0.8486268520355225,0.032073721289634705,-0.35206377506256104,0.18832175433635712,0.43462276458740234,0.5445106625556946,-0.8156433701515198,0.3307555019855499,-1.3579093217849731,-0.22064444422721863]},"outputBias":{"rows":20,"columns":1,"weights":[-0.019738249480724335,-0.7182607650756836,-0.7995286583900452,-0.36213764548301697,-0.9607582092285156,-1.021313190460205,0.4008013606071472,-1.1168309450149536,-1.0572763681411743,-1.2207801342010498,-0.8083955645561218,-1.4741979837417603,-1.140384554862976,-0.9607529044151306,1.5231742858886719,-0.2564234137535095,-0.586074948310852,-0.24200975894927979,-0.6180685758590698,0.35751211643218994]},"cellActivationMatrix":{"rows":20,"columns":27,"weights":[-0.3701140880584717,0.6786245107650757,-0.18808075785636902,0.6715055108070374,0.041490741074085236,-0.9815024733543396,0.3337104320526123,-0.7772412300109863,0.46114569902420044,0.13079845905303955,-0.191422238945961,0.11570435762405396,0.6274532675743103,-0.45264941453933716,0.5359838604927063,-0.5779005885124207,0.6603580117225647,0.21521103382110596,0.21654795110225677,0.37777194380760193,0.6610744595527649,1.4862219095230103,-0.007007075473666191,-0.4559101462364197,-0.6612613797187805,-0.7047865986824036,-0.4906502366065979,0.2492489069700241,-0.3956660330295563,-0.4895442724227905,0.24201638996601105,0.2909017503261566,0.16209951043128967,0.62591153383255,-0.43717747926712036,-0.24804803729057312,0.03507549688220024,-0.08575042337179184,-0.4011175036430359,0.12198356539011002,-0.14355230331420898,-0.23471753299236298,0.2236284613609314,-0.1391899287700653,-1.122328281402588,-0.44289082288742065,-0.2907974123954773,-0.05186047777533531,-0.1195380687713623,0.03832478076219559,0.18010343611240387,0.18403276801109314,-0.13209424912929535,-0.2933730483055115,-0.21334539353847504,0.5497050285339355,0.7011700868606567,0.5962258577346802,-0.10259204357862473,-0.8514863848686218,0.13372844457626343,-0.5506640672683716,0.26301559805870056,0.3954373598098755,-0.6272715926170349,0.24486200511455536,0.5547332167625427,-0.6734640002250671,0.21537655591964722,-0.320671021938324,0.7684872150421143,0.24218562245368958,-0.0523589625954628,0.1279493272304535,0.7660827040672302,0.8357371687889099,-0.11751693487167358,-0.18247687816619873,-0.435171514749527,-0.7353028059005737,-0.7567416429519653,-0.3848251700401306,0.429149866104126,0.10796833038330078,0.5809298157691956,-0.1101197600364685,-1.1175686120986938,0.054181430488824844,-0.5487152934074402,0.6020090579986572,0.4758869707584381,-0.6286411881446838,0.6020523309707642,0.5020053386688232,-0.610470712184906,0.5046050548553467,-0.17057204246520996,1.137162446975708,1.3497248888015747,0.16536863148212433,0.45670977234840393,0.6742408275604248,0.6283592581748962,0.20132634043693542,-0.5246670246124268,-0.5636417269706726,-0.7914518117904663,-0.565159261226654,0.37436267733573914,-0.16318145394325256,-0.05753273144364357,-0.24941688776016235,-0.017056412994861603,0.687913715839386,0.08515726029872894,0.4676060378551483,-0.5843459963798523,-0.14070811867713928,0.8513724207878113,-0.5162709951400757,-0.31075406074523926,0.4177629351615906,-0.358020156621933,0.3429891765117645,-0.9633613228797913,-0.6156301498413086,-0.6251145601272583,-0.5491390228271484,-0.6742498874664307,-0.36772283911705017,-0.2815891206264496,0.7721258401870728,0.16238291561603546,0.7201009392738342,0.3472520112991333,-0.056152526289224625,0.41865211725234985,0.12595883011817932,0.5958009958267212,0.28601670265197754,-0.8419505953788757,0.12494606524705887,-0.6657578349113464,0.44554567337036133,0.390684574842453,-0.4607953727245331,0.605654239654541,0.6674789786338806,-0.6607967615127563,-0.0013455309672281146,-0.19866248965263367,0.930202066898346,0.46671196818351746,0.3713057339191437,0.12145160883665085,0.8081417679786682,0.6444591283798218,0.5076786279678345,-0.5559967756271362,-0.28655076026916504,-0.7972241640090942,-0.629115104675293,0.8424070477485657,-0.21194840967655182,1.4026925563812256,-0.024928824976086617,1.574200987815857,0.020466765388846397,0.6803344488143921,0.08265618234872818,-1.624958872795105,-0.08309927582740784,0.5600959658622742,-0.14537625014781952,0.057185832411050797,-0.05015343055129051,-0.3123578131198883,0.4893777370452881,-0.18147383630275726,-0.3196355700492859,-1.1741539239883423,-0.7249861359596252,-0.2088572084903717,1.14614737033844,-0.1545078456401825,0.09619127213954926,0.2894405424594879,0.05021139234304428,0.22557620704174042,-0.18898896872997284,0.26739099621772766,0.12962789833545685,0.5224081873893738,0.30303001403808594,-0.7839651703834534,0.23153488337993622,-0.7521476149559021,0.4822957217693329,0.4396499693393707,-0.6317937970161438,0.3940851092338562,0.4973367154598236,-0.4555254578590393,0.05441860482096672,0.11783818900585175,0.9571108818054199,0.41612696647644043,0.2989143431186676,0.20217953622341156,0.6724517941474915,0.5173207521438599,0.5092238187789917,-0.5136269330978394,-0.4342639446258545,-0.6705354452133179,-0.825773298740387,0.19462494552135468,-0.23207087814807892,-0.11608227342367172,-0.40035104751586914,-0.1233210638165474,0.7160385251045227,0.009467726573348045,0.5492863655090332,-0.551042914390564,-0.26577794551849365,0.48536521196365356,-0.564853847026825,-0.45316290855407715,0.478832483291626,-0.1445990651845932,0.18221630156040192,-0.9163271188735962,-0.5941597819328308,-0.39591196179389954,-0.3250782787799835,-0.7163386940956116,-0.48174506425857544,-0.3484061360359192,0.6228569149971008,0.3721431493759155,0.7694105505943298,0.5741954445838928,0.4593847095966339,0.08784506469964981,1.1163996458053589,0.5733985900878906,1.4498273134231567,-0.4291461706161499,1.2406642436981201,-0.5116676688194275,-0.5087379217147827,0.2039637267589569,-0.34091708064079285,0.2755047082901001,0.5888007283210754,-0.48324957489967346,-0.3781178891658783,0.24322929978370667,0.4900565445423126,-0.6210365891456604,-1.0993763208389282,-0.9972755312919617,0.4974994361400604,1.0252289772033691,0.8002044558525085,1.0249789953231812,-0.5450175404548645,-0.4842248260974884,-0.3626440465450287,-0.050186317414045334,-0.4996727406978607,-0.6109059453010559,-0.6565865874290466,0.04360615089535713,0.7219920754432678,-0.16974668204784393,0.6216300129890442,-0.1995343118906021,-0.4732837677001953,0.8805866837501526,-0.4041612148284912,-0.5470770001411438,0.5393241047859192,-0.13399188220500946,0.0390528179705143,-0.8006387948989868,-0.5232294797897339,-0.0634818971157074,-0.04759414494037628,-0.5648741126060486,-0.7405596971511841,-0.16009631752967834,0.17019978165626526,0.5977582335472107,0.6511985063552856,0.6389329433441162,-0.36496078968048096,-0.04126536846160889,-1.0827381610870361,-0.4413650631904602,-0.7348558306694031,0.36061620712280273,-0.7735502123832703,0.8129350543022156,0.46568089723587036,-0.40422576665878296,-0.018147766590118408,0.059917885810136795,-0.5466045141220093,0.3014869689941406,0.35616663098335266,-0.5342937707901001,-0.19914330542087555,0.6723441481590271,1.4307314157485962,0.9461268782615662,-0.12057698518037796,-0.5719152092933655,-0.2654743492603302,-0.8636276721954346,0.25222650170326233,0.21717549860477448,0.4117909073829651,0.12894198298454285,-0.15128003060817719,-0.13929203152656555,0.07934127002954483,0.9044170379638672,0.027919253334403038,0.5580325126647949,-0.3687496483325958,-0.45997732877731323,0.11145143955945969,0.20567253232002258,-0.33028972148895264,0.005152848083525896,0.13017083704471588,-0.2949715554714203,0.43069955706596375,-0.07645515352487564,-1.0974003076553345,-0.6076022982597351,-0.5342835187911987,-0.12322387099266052,-0.21146918833255768,0.041896216571331024,0.3764704167842865,0.1511659324169159,0.13376958668231964,-0.3208102285861969,-0.44765201210975647,0.14584949612617493,0.02296873740851879,0.18349526822566986,-0.5909156799316406,-0.1658768504858017,-0.20582175254821777,-0.10479177534580231,0.35258689522743225,0.20203527808189392,-0.4766891300678253,0.3392803966999054,0.1805238127708435,-0.1652711182832718,0.5096599459648132,-0.34775304794311523,0.26864174008369446,0.5604105591773987,0.08445500582456589,0.3183940351009369,0.13163311779499054,0.22219979763031006,-0.3507147431373596,-0.06441985070705414,-0.32905247807502747,-0.2929878830909729,-0.11662764847278595,-1.5972870588302612,0.129646897315979,-1.1462562084197998,0.04505140334367752,-0.6280182003974915,-0.210309699177742,-0.19049161672592163,-0.5385897755622864,1.1301590204238892,0.4132552742958069,-1.2728209495544434,0.2777560353279114,0.15358823537826538,-0.3141423463821411,0.900299072265625,-0.7661208510398865,0.4690220057964325,1.4644958972930908,0.20215357840061188,0.5575432777404785,0.19625113904476166,-0.024836981669068336,-1.2056207656860352,-0.4010336101055145,-0.11716105043888092,-0.4486912488937378,-0.3366197347640991,-0.5188759565353394,-0.08085829764604568,-1.4148167371749878,-0.20948411524295807,-1.807052493095398,0.20611391961574554,-0.8466916680335999,0.19323056936264038,1.3572113513946533,0.04451579600572586,-0.33182668685913086,-0.0994051843881607,-0.15607474744319916,0.16333739459514618,0.5936909914016724,-0.428051233291626,-0.0848350077867508,0.26741334795951843,1.2374913692474365,1.1022027730941772,-0.1775069236755371,-1.167215347290039,-0.27373674511909485,-0.7290557026863098,-0.08702026307582855,0.12322527170181274,-0.28879427909851074,0.0488370917737484,-0.6625075936317444,-0.8434072136878967,-0.6531418561935425,-0.04040532931685448,0.8796306848526001,-0.16614674031734467,0.7506943345069885,-0.02936728671193123,-0.6684057116508484,0.408052921295166,-0.314265638589859,-0.6363414525985718,0.7715559005737305,-0.031457431614398956,0.11259176582098007,-0.6968298554420471,-0.09232807904481888,0.04902057349681854,-0.006934847682714462,-0.6820240616798401,-0.6249324679374695,-0.07275951653718948,0.031686753034591675,0.41920509934425354,0.4785503149032593,0.845750093460083,-0.9377424716949463,-0.27811935544013977,0.13734689354896545,0.060292817652225494,-0.3319481909275055,-0.1851096898317337,-0.2826036810874939,-0.07862290740013123,1.304669976234436,-0.10818614065647125,-0.42391714453697205,0.39689740538597107,-0.19460232555866241,0.29445239901542664,0.8019351363182068,-0.5379756093025208,0.5269626379013062,0.5282524824142456,0.7505336999893188,0.7612868547439575,0.045985035598278046,-0.18882903456687927,0.2756413221359253,-0.9959920048713684,-0.4176296889781952,-0.286661297082901,0.22219984233379364,0.4121285676956177,-0.7317044734954834,0.23545531928539276,-1.231318473815918,-0.14031043648719788,0.7525656819343567,-0.46022751927375793,1.1101137399673462,-0.19611574709415436,-0.7285583019256592,0.43597081303596497,-0.4118444621562958,-0.93736332654953,0.6777864098548889,-0.03547828271985054,0.031241782009601593,-0.7568796277046204,-0.08416201174259186,0.16785888373851776,0.10067049413919449,-0.9896464347839355,-0.6229168176651001,-0.3417259454727173,0.1954755187034607,1.4249745607376099,0.9751038551330566,0.7784630060195923,0.6930469274520874,-0.1461198478937149,0.29181963205337524,-0.27978402376174927,0.6515575647354126,0.2742404043674469,0.3966052830219269,0.3474001884460449,-0.8453365564346313,-0.18259191513061523,0.8285644054412842,-0.4681893289089203,-0.20493045449256897,0.18344293534755707,-0.5415066480636597,0.5248919129371643,-0.32207241654396057,-0.9949096441268921,-0.4081898331642151,-0.4329937994480133,-0.20234595239162445,-0.29090431332588196,0.37518510222435,0.5744025111198425,0.455221951007843,0.26863813400268555,0.026499267667531967]},"cellActivationHidden":{"rows":20,"columns":20,"weights":[0.35996198654174805,-0.33267468214035034,0.1887059062719345,0.22454999387264252,-0.25407448410987854,0.3041118383407593,-1.1826902627944946,0.25659438967704773,-0.24788208305835724,-0.9603126645088196,-0.1551622599363327,1.3716644048690796,-0.639083743095398,0.5041660070419312,0.5981047749519348,0.8749709725379944,0.04560093581676483,-0.218516543507576,-0.23987917602062225,-0.41538673639297485,-0.18463021516799927,-0.9466779232025146,-0.08865462243556976,-0.1153353825211525,0.49632376432418823,-0.4031849801540375,-1.4265804290771484,-0.05021703243255615,0.1612423062324524,-0.9985673427581787,0.14515233039855957,1.229405164718628,-0.8935495615005493,1.2083613872528076,0.6133162379264832,1.419509768486023,0.9420973658561707,1.219647765159607,0.16726142168045044,-1.1743618249893188,0.35116469860076904,-0.563066840171814,0.3406653106212616,0.34674128890037537,-0.31539201736450195,0.2546943426132202,-0.4853587746620178,0.059139467775821686,-0.03833070397377014,-0.8974081873893738,-0.2041071057319641,0.8508738875389099,-0.5622199177742004,0.6655821800231934,0.7433724403381348,0.8833768963813782,-0.04386468976736069,-0.2209876924753189,-0.2631281018257141,-0.6253429651260376,0.19719871878623962,0.3683008849620819,0.1696329116821289,0.17477795481681824,-0.05936299264431,-0.03696610778570175,-0.7266145944595337,0.09114991128444672,-0.10193478316068649,-0.4730180501937866,-0.00446339463815093,0.44472992420196533,0.0633293017745018,0.12287146598100662,0.2590157985687256,0.787349283695221,0.06306102126836777,-0.4446519911289215,-0.1646212786436081,-0.23401392996311188,-0.170299232006073,0.35664841532707214,-0.16412147879600525,-0.33836254477500916,0.08580029010772705,-0.10802628844976425,0.03455435857176781,-0.1693810373544693,0.14950139820575714,1.02595055103302,0.16124585270881653,-0.728633463382721,0.6720538139343262,-0.6955705285072327,-0.9238359332084656,-0.3755657970905304,-0.019382836297154427,0.0174520593136549,0.20923464000225067,0.6834688186645508,0.19212470948696136,-0.2937398850917816,0.017798783257603645,0.2366054356098175,-0.011283156462013721,0.05291387811303139,-0.738757312297821,0.10744690150022507,-0.11597906053066254,-1.3360474109649658,-0.1196497306227684,1.1351176500320435,-0.991208016872406,0.5637468695640564,0.7913237810134888,1.008057951927185,0.015497085638344288,-0.16767755150794983,-0.24980337917804718,-0.8556939363479614,-0.45471444725990295,0.21760304272174835,-0.08473842591047287,-0.2609553635120392,0.19983163475990295,-0.06885920464992523,-1.0654866695404053,0.006027373019605875,0.07414384931325912,-0.05265090987086296,0.5648850202560425,0.2402232140302658,-0.4485366642475128,-0.12325989454984665,0.7506787776947021,0.8732196688652039,0.38663241267204285,0.6746823191642761,0.13646090030670166,-0.462089478969574,0.20120200514793396,-0.33954522013664246,0.2950444221496582,0.29051774740219116,-0.17810851335525513,0.19835223257541656,-0.460356742143631,0.31028875708580017,-0.23405125737190247,-0.43961116671562195,-0.1354208141565323,0.11603498458862305,-0.2860722839832306,0.4196247160434723,0.9272844791412354,0.07953248918056488,-0.04088260605931282,0.3436290919780731,-0.20561012625694275,-0.1352982223033905,-0.08756602555513382,0.48821210861206055,-0.015901291742920876,-0.2105793058872223,0.06862632185220718,-0.25562670826911926,0.6177457571029663,-0.13656723499298096,0.21374379098415375,1.0295095443725586,0.10654591768980026,-0.9935340881347656,0.8330528140068054,-0.7705973386764526,-1.113463044166565,-0.9420979619026184,-0.14451251924037933,0.05539032444357872,0.13827277719974518,1.0462100505828857,0.010901429690420628,-0.605547308921814,-0.4041398763656616,0.048004914075136185,0.4143640398979187,-0.1667480617761612,-0.7569783329963684,-0.049097757786512375,0.13116015493869781,-0.24806205928325653,0.272674024105072,0.6418435573577881,-0.9995734095573425,0.5603740215301514,0.9562094211578369,0.35404568910598755,0.5613964796066284,0.7924056649208069,0.09557927399873734,-0.9050787091255188,-0.19925329089164734,0.6938069462776184,-0.09871923923492432,-0.21672117710113525,-0.11136338859796524,-0.24050092697143555,0.5970049500465393,-0.2984842360019684,0.15411603450775146,0.6137968301773071,0.025959370657801628,-0.9302768111228943,1.0140951871871948,-0.6242289543151855,-0.9326492547988892,-0.7511393427848816,-0.05169917643070221,0.42985084652900696,0.23401305079460144,0.902222752571106,-0.8493901491165161,0.36329182982444763,-0.15619412064552307,-0.9112826585769653,0.36162304878234863,-0.04273170605301857,0.6923075318336487,-0.24894753098487854,0.07158327102661133,0.3816414773464203,0.5620468854904175,-0.19512362778186798,0.7218481302261353,-0.7349445223808289,-0.9288738369941711,-0.4109938442707062,0.5926899909973145,-0.8954673409461975,0.695866584777832,0.7550265192985535,-0.005374096799641848,-0.6652933955192566,-0.06218000873923302,-0.05628787353634834,0.01908528059720993,-0.042271777987480164,-1.2661054134368896,0.040701933205127716,-0.06105349212884903,-1.2170907258987427,0.2467624545097351,1.1980992555618286,-1.4762139320373535,1.4787296056747437,1.1822611093521118,1.298439621925354,0.4580497443675995,1.5943796634674072,0.3094075918197632,-1.4290822744369507,0.4397372305393219,0.8978149890899658,0.3951912522315979,0.47937390208244324,-0.6532392501831055,0.6227694749832153,1.1657642126083374,0.7071273326873779,-0.6562883853912354,1.136222004890442,-0.7557315826416016,-0.894671618938446,1.0042825937271118,-0.9485894441604614,-0.9974149465560913,-1.0910238027572632,-0.9154675602912903,-1.0232470035552979,-0.6788491010665894,0.8542835712432861,-0.264568954706192,0.6322593688964844,-0.3043794631958008,-0.3202279806137085,0.4592038094997406,-0.6719701886177063,0.1660982370376587,-0.6915004849433899,0.6599346399307251,0.958191990852356,0.23451219499111176,-0.7247109413146973,0.5927764773368835,-0.9858464002609253,-1.0229169130325317,-0.30832353234291077,0.23777121305465698,-0.29804128408432007,0.454988569021225,1.0324771404266357,0.5110684633255005,0.315692663192749,0.38079166412353516,0.5149345993995667,-0.4816397726535797,0.31354522705078125,0.9512666463851929,0.31662851572036743,-0.4429568648338318,0.22510452568531036,-0.578697144985199,-0.26919856667518616,0.6286576390266418,-0.19598625600337982,-0.4905657172203064,-0.8384045958518982,-0.5398464202880859,-0.6910405158996582,-0.3488631844520569,0.3280915319919586,-0.20500603318214417,0.8582558035850525,0.02971542999148369,-0.2477792352437973,0.011341667734086514,0.012495079077780247,0.5708809494972229,-0.13802525401115417,0.08648861944675446,0.5566667318344116,0.03663013502955437,-0.18162621557712555,0.2167869359254837,-0.5890946984291077,-0.2918473482131958,-0.5714211463928223,0.06308577954769135,-0.39044350385665894,0.2607156038284302,-0.1513630598783493,-0.19644427299499512,0.6144158244132996,0.19208060204982758,-0.090386763215065,-0.20390598475933075,0.4180445671081543,1.083620548248291,0.31883057951927185,-0.49139687418937683,1.4391413927078247,0.03567874804139137,-1.348689079284668,0.6847549080848694,-0.7441100478172302,0.3201924264431,-0.9075579643249512,-0.14642919600009918,-0.6632664203643799,0.011692753992974758,-0.16455085575580597,-0.21835081279277802,0.18046243488788605,-0.14868128299713135,-0.030672159045934677,0.3090521991252899,-0.7478353977203369,0.8034646511077881,-0.18006207048892975,0.20016153156757355,0.7216507792472839,-0.07518729567527771,-0.3184371888637543,0.19853395223617554,-0.06137768179178238,-0.13903240859508514,-1.395954966545105,-0.31446900963783264,-0.778054416179657,-0.07075882703065872,0.13141128420829773,-0.00817809347063303,-0.7805382013320923,0.15056797862052917,-0.19161368906497955,0.02091311477124691,0.11628204584121704,-0.7689484357833862,0.05856755003333092,-0.04765534773468971,-1.0404579639434814,0.24220487475395203,1.0004202127456665,-0.9758196473121643,1.0140535831451416,1.0454835891723633,0.8030977249145508,0.20849834382534027,0.9435614347457886,0.030346963554620743,-0.8584276437759399]},"cellActivationBias":{"rows":20,"columns":1,"weights":[-0.31923145055770874,-1.3339072465896606,-0.2725360691547394,-0.1725897192955017,0.37955358624458313,-0.36549675464630127,0.9647356867790222,-0.319358766078949,0.3409298360347748,0.5604487657546997,0.21100908517837524,-0.36531248688697815,-0.29878678917884827,-0.23300187289714813,-1.8598222732543945,-0.9776197671890259,0.109713613986969,0.459683358669281,0.2789137065410614,0.8380792140960693]}},{"inputMatrix":{"rows":20,"columns":20,"weights":[-1.9689446687698364,1.3844178915023804,-1.3998934030532837,-1.197118878364563,1.170170783996582,-0.844861626625061,-0.3146333396434784,-0.2964445650577545,0.9387932419776917,-0.44054847955703735,1.2279701232910156,0.029833287000656128,-0.3719833791255951,-0.8688039779663086,2.049522638320923,-0.9411008358001709,1.0770275592803955,1.6838876008987427,0.7919265031814575,0.3810633420944214,-0.5453131794929504,0.5914130210876465,0.24277807772159576,0.2787467837333679,-0.7215332388877869,0.03364766389131546,0.796966016292572,0.8896929621696472,-0.518669068813324,1.6329258680343628,-0.18434983491897583,-0.11211545765399933,1.2115877866744995,-0.12410840392112732,1.6332929134368896,-1.951173186302185,-0.2679908573627472,0.540254533290863,-0.9069854617118835,-0.3971288800239563,-0.8789234757423401,-0.14621701836585999,0.1359398066997528,-1.8936328887939453,-0.6049983501434326,0.14463312923908234,0.6045526266098022,-0.11948692798614502,-0.06530091911554337,1.490174651145935,1.6683006286621094,-0.7857898473739624,1.0368683338165283,-2.2384119033813477,0.5227358937263489,-1.0916683673858643,1.8147913217544556,-0.20457123219966888,1.2708823680877686,1.372145652770996,-1.6920586824417114,-1.0648760795593262,-1.2928560972213745,-1.7460412979125977,1.3993072509765625,-0.874969482421875,-1.0322238206863403,-0.7880502343177795,0.9041100144386292,-0.6713818907737732,1.4240084886550903,0.7031193971633911,-0.684467077255249,1.2155065536499023,1.0462969541549683,1.503189206123352,1.5889121294021606,1.7946707010269165,1.403607726097107,-1.1977521181106567,-0.45083728432655334,1.4364659786224365,2.09002423286438,-0.43240034580230713,-2.280522584915161,2.450432777404785,0.779086172580719,1.7294421195983887,-2.7343127727508545,-0.6672511100769043,-0.15330351889133453,1.9907565116882324,-8.84389877319336,0.2680646777153015,2.469052791595459,-0.4718908667564392,0.08610165119171143,6.6357574462890625,0.4710494577884674,-0.5747294425964355,-1.6054245233535767,0.43621304631233215,2.3652164936065674,-1.5999943017959595,-2.2241296768188477,2.0569822788238525,-0.24997489154338837,1.9386504888534546,-2.207498073577881,1.4436498880386353,1.4708272218704224,-0.1847013384103775,0.8155701756477356,-0.9226043820381165,1.3686761856079102,-0.1723192185163498,0.5234526991844177,1.2811826467514038,1.2752938270568848,-0.11794762313365936,-1.1653342247009277,-1.975441575050354,-0.4714031517505646,-0.937493085861206,0.42855170369148254,-0.5593286752700806,-0.44987550377845764,-0.5744838714599609,0.09113629162311554,1.4644407033920288,0.9877514243125916,-0.8898147344589233,1.8533530235290527,-0.42813560366630554,2.2028260231018066,1.0371102094650269,1.0936429500579834,2.317084789276123,1.2343060970306396,0.23476281762123108,-0.47174471616744995,0.15599867701530457,1.0281404256820679,-1.2149587869644165,-1.1003466844558716,0.9843637347221375,0.7367756366729736,0.5018954277038574,-1.005964756011963,1.7031364440917969,0.9679761528968811,0.42682671546936035,0.26767978072166443,0.6201696991920471,0.40423211455345154,-0.37934601306915283,0.9937955737113953,0.2445640116930008,0.7272250056266785,-0.46173685789108276,-1.205422043800354,1.064200520515442,0.49842217564582825,-1.117943525314331,0.04312679171562195,0.02195114828646183,-0.49609246850013733,0.03555883839726448,0.1353115737438202,0.6569216251373291,0.8235013484954834,-0.9575944542884827,0.6740990281105042,-2.131582260131836,0.83548903465271,-0.23253118991851807,0.32278507947921753,0.5347678065299988,0.6584936380386353,1.1255743503570557,-1.1336082220077515,0.9853190779685974,1.0648456811904907,-0.7983795404434204,-0.9681951999664307,2.030061960220337,-1.351016640663147,1.8784607648849487,-2.1055190563201904,-0.015516218729317188,1.1432405710220337,0.035057395696640015,-0.2045087069272995,0.5633769631385803,2.2722809314727783,0.448813259601593,0.8754463791847229,1.3999217748641968,0.8265802264213562,-1.265877366065979,0.26991409063339233,-0.7174444794654846,1.1541277170181274,-0.5660816431045532,-1.6748446226119995,1.6130708456039429,0.5121262073516846,1.0185678005218506,-1.6259526014328003,-0.3614064157009125,1.4202077388763428,1.6611076593399048,-3.0641772747039795,0.1258269101381302,1.1109910011291504,-0.0999361127614975,1.5573787689208984,2.869346857070923,1.0179682970046997,0.45208191871643066,-0.21095533668994904,1.7379486560821533,-0.08681674301624298,0.4206337034702301,-0.640859067440033,-0.7375594973564148,-5.166424751281738,-3.6863417625427246,1.1087313890457153,-1.3369678258895874,-0.7520529627799988,0.5947118997573853,-1.05461585521698,0.42525386810302734,1.9713318347930908,3.2306509017944336,-0.49863845109939575,2.297109365463257,-0.20223063230514526,-1.0889084339141846,-1.0293118953704834,-0.1680075079202652,0.28082332015037537,-1.0679378509521484,0.5408259034156799,-0.2488255351781845,4.335020065307617,1.4995466470718384,-0.062234848737716675,1.9719178676605225,1.496673345565796,-2.012946844100952,0.8054736256599426,0.39483529329299927,1.683185338973999,-3.1390199661254883,0.5676403045654297,2.520982027053833,0.7967976331710815,-0.6402735114097595,-2.0587306022644043,1.1964573860168457,-0.7196760773658752,-2.358804941177368,1.2371773719787598,-0.7791094779968262,-1.3734321594238281,-0.6782004237174988,0.9804133176803589,0.030444804579019547,1.842047095298767,-0.4223046600818634,-0.42290055751800537,-0.49567413330078125,1.3533337116241455,-0.7495784163475037,2.2159860134124756,1.744581699371338,1.813347339630127,-0.1254665106534958,1.6620147228240967,0.4480147361755371,0.5738910436630249,-0.1445341557264328,-0.28531333804130554,1.4527703523635864,-1.0249601602554321,1.1496185064315796,-1.1278228759765625,0.4669416546821594,-0.4049507975578308,-0.012659232132136822,-4.383086204528809,0.540418267250061,2.3549513816833496,0.4873083531856537,0.32263749837875366,5.085244655609131,-0.5216416120529175,-1.3227033615112305,-0.4256437420845032,-0.7345157265663147,1.7807809114456177,-1.241768717765808,-3.2787575721740723,1.3133924007415771,0.11648242175579071,0.7741062045097351,-1.9941948652267456,0.41099435091018677,0.4382866322994232,0.5652505159378052,-1.5802428722381592,-0.195126473903656,1.8962476253509521,-0.15164463222026825,0.4909081757068634,2.5412323474884033,1.1456390619277954,-0.9557401537895203,0.0859905555844307,0.034598615020513535,0.8623889088630676,-0.014796619303524494,-0.9626376032829285,1.365991234779358,-1.2125173807144165,1.3834789991378784,-1.51511549949646,-0.1516897976398468,-0.4104628264904022,-0.2900189757347107,0.5410690903663635,1.225219488143921,1.256658673286438,1.461815595626831,-0.026189597323536873,1.066183090209961,-0.16195964813232422,-1.6996784210205078,-1.717421054840088,1.188542366027832,-0.9650750756263733,-1.5570365190505981,0.8102033138275146,-0.9551319479942322,-0.7406630516052246,-0.025256842374801636,0.5568694472312927,-1.3002411127090454,0.6686723828315735,0.892508864402771,-0.9996028542518616,-0.6133871078491211,1.8088207244873047,0.17628441751003265,0.05444317311048508,1.7616043090820312,0.3973427712917328,-0.9106180667877197,0.20540544390678406,0.8962545394897461,0.3218286633491516,0.14855968952178955,-0.6508992314338684,-0.08776237815618515,0.4474831223487854,0.7570374608039856,-0.28985074162483215,0.08270570635795593,-0.9716264605522156,-0.24159292876720428,